{"input":{"entries":[0.0,0.0,0.0,0.0,0.0,0.0,0.0,0.0,0.0,0.0,0.0,0.0,0.0,0.0,0.0,0.0,0.0,0.0,0.0,0.0,0.0,0.0,0.0,0.0,0.0,0.0,0.0,0.0,0.0,0.0,0.0,0.0,0.0,0.0,0.0,0.0,0.0,0.0,0.0,0.0,0.0,0.0,0.0,0.0,0.0,0.0,0.0,0.0,0.0,0.0,0.0,0.0,0.0,0.0,0.0,0.0,0.0,0.0,0.0,0.0,0.0,0.0,0.0,0.0,0.0,0.0,0.0,0.0,0.0,0.0,0.0,0.0,0.0,0.0,0.0,0.0,0.0,0.0,0.0,0.0,0.0,0.0,0.0,0.0,0.0,0.0,0.0,0.0,0.0,0.0,0.0,0.0,0.0,0.0,0.0,0.0,0.0,0.0,0.0,0.0,0.0,0.0,0.0,0.0,0.0,0.0,0.0,0.0,0.0,0.0,0.0,0.0,0.0,0.0,0.0,0.0,0.0,0.0,0.0,0.0,0.0,0.0,0.0,0.0,0.0,0.0,0.0,0.0,0.0,0.0,0.0,0.0,0.0,0.0,0.0,0.0,0.0,0.0,0.0,0.0,0.0,0.0,0.0,0.0,0.0,0.0,0.0,0.0,0.0,0.0,0.0,0.0,0.0,0.0,0.0,0.0,0.0,0.0,0.0,0.0,0.0,0.0,0.0,0.0,0.0,0.0,0.0,0.0,0.0,0.0,0.0,0.0,0.0,0.0,0.0,0.0,0.0,0.0,0.0,0.0,0.0,0.0,0.0,0.0,0.0,0.0,0.0,0.0,0.0,0.0,0.0,0.0,0.0,0.0,0.0,0.0,0.0,0.0,0.0,0.0,0.0,84.0,185.0,159.0,151.0,60.0,36.0,0.0,0.0,0.0,0.0,0.0,0.0,0.0,0.0,0.0,0.0,0.0,0.0,0.0,0.0,0.0,0.0,0.0,0.0,0.0,0.0,0.0,0.0,222.0,254.0,254.0,254.0,254.0,241.0,198.0,198.0,198.0,198.0,198.0,198.0,198.0,198.0,170.0,52.0,0.0,0.0,0.0,0.0,0.0,0.0,0.0,0.0,0.0,0.0,0.0,0.0,67.0,114.0,72.0,114.0,163.0,227.0,254.0,225.0,254.0,254.0,254.0,250.0,229.0,254.0,254.0,140.0,0.0,0.0,0.0,0.0,0.0,0.0,0.0,0.0,0.0,0.0,0.0,0.0,0.0,0.0,0.0,0.0,0.0,17.0,66.0,14.0,67.0,67.0,67.0,59.0,21.0,236.0,254.0,106.0,0.0,0.0,0.0,0.0,0.0,0.0,0.0,0.0,0.0,0.0,0.0,0.0,0.0,0.0,0.0,0.0,0.0,0.0,0.0,0.0,0.0,0.0,0.0,0.0,83.0,253.0,209.0,18.0,0.0,0.0,0.0,0.0,0.0,0.0,0.0,0.0,0.0,0.0,0.0,0.0,0.0,0.0,0.0,0.0,0.0,0.0,0.0,0.0,0.0,0.0,0.0,22.0,233.0,255.0,83.0,0.0,0.0,0.0,0.0,0.0,0.0,0.0,0.0,0.0,0.0,0.0,0.0,0.0,0.0,0.0,0.0,0.0,0.0,0.0,0.0,0.0,0.0,0.0,0.0,129.0,254.0,238.0,44.0,0.0,0.0,0.0,0.0,0.0,0.0,0.0,0.0,0.0,0.0,0.0,0.0,0.0,0.0,0.0,0.0,0.0,0.0,0.0,0.0,0.0,0.0,0.0,59.0,249.0,254.0,62.0,0.0,0.0,0.0,0.0,0.0,0.0,0.0,0.0,0.0,0.0,0.0,0.0,0.0,0.0,0.0,0.0,0.0,0.0,0.0,0.0,0.0,0.0,0.0,0.0,133.0,254.0,187.0,5.0,0.0,0.0,0.0,0.0,0.0,0.0,0.0,0.0,0.0,0.0,0.0,0.0,0.0,0.0,0.0,0.0,0.0,0.0,0.0,0.0,0.0,0.0,0.0,9.0,205.0,248.0,58.0,0.0,0.0,0.0,0.0,0.0,0.0,0.0,0.0,0.0,0.0,0.0,0.0,0.0,0.0,0.0,0.0,0.0,0.0,0.0,0.0,0.0,0.0,0.0,0.0,126.0,254.0,182.0,0.0,0.0,0.0,0.0,0.0,0.0,0.0,0.0,0.0,0.0,0.0,0.0,0.0,0.0,0.0,0.0,0.0,0.0,0.0,0.0,0.0,0.0,0.0,0.0,75.0,251.0,240.0,57.0,0.0,0.0,0.0,0.0,0.0,0.0,0.0,0.0,0.0,0.0,0.0,0.0,0.0,0.0,0.0,0.0,0.0,0.0,0.0,0.0,0.0,0.0,0.0,19.0,221.0,254.0,166.0,0.0,0.0,0.0,0.0,0.0,0.0,0.0,0.0,0.0,0.0,0.0,0.0,0.0,0.0,0.0,0.0,0.0,0.0,0.0,0.0,0.0,0.0,0.0,3.0,203.0,254.0,219.0,35.0,0.0,0.0,0.0,0.0,0.0,0.0,0.0,0.0,0.0,0.0,0.0,0.0,0.0,0.0,0.0,0.0,0.0,0.0,0.0,0.0,0.0,0.0,0.0,38.0,254.0,254.0,77.0,0.0,0.0,0.0,0.0,0.0,0.0,0.0,0.0,0.0,0.0,0.0,0.0,0.0,0.0,0.0,0.0,0.0,0.0,0.0,0.0,0.0,0.0,0.0,31.0,224.0,254.0,115.0,1.0,0.0,0.0,0.0,0.0,0.0,0.0,0.0,0.0,0.0,0.0,0.0,0.0,0.0,0.0,0.0,0.0,0.0,0.0,0.0,0.0,0.0,0.0,0.0,133.0,254.0,254.0,52.0,0.0,0.0,0.0,0.0,0.0,0.0,0.0,0.0,0.0,0.0,0.0,0.0,0.0,0.0,0.0,0.0,0.0,0.0,0.0,0.0,0.0,0.0,0.0,61.0,242.0,254.0,254.0,52.0,0.0,0.0,0.0,0.0,0.0,0.0,0.0,0.0,0.0,0.0,0.0,0.0,0.0,0.0,0.0,0.0,0.0,0.0,0.0,0.0,0.0,0.0,0.0,121.0,254.0,254.0,219.0,40.0,0.0,0.0,0.0,0.0,0.0,0.0,0.0,0.0,0.0,0.0,0.0,0.0,0.0,0.0,0.0,0.0,0.0,0.0,0.0,0.0,0.0,0.0,0.0,121.0,254.0,207.0,18.0,0.0,0.0,0.0,0.0,0.0,0.0,0.0,0.0,0.0,0.0,0.0,0.0,0.0,0.0,0.0,0.0,0.0,0.0,0.0,0.0,0.0,0.0,0.0,0.0,0.0,0.0,0.0,0.0,0.0,0.0,0.0,0.0,0.0,0.0,0.0,0.0,0.0,0.0,0.0,0.0,0.0,0.0,0.0],"row":784,"col":1},"h_o":[{"main":{"entries":[1.862554646707331,3.185102585402571,-4.289916974060858,-1.4730514522075657,-12.574928324977876,-10.031972530995873,1.2964819471816134,-6.245032567244352,7.838825481688306,-2.178211154055012,-20.278694738408827,3.5413837051684154,5.841608483615524,-9.74786134217168,-2.9506788212582338,3.7020088873987747],"row":16,"col":1},"bias":{"entries":[-0.0023137290417862646,-0.029027847034342132,-0.010907875447989412,0.001590461183795332,0.0008354802645139614,-0.007470917077480517,0.017001488031133508,0.03683346749579716,-0.019331900637321098,0.020637584639316947,-2.9613466295182656e-7,-0.011783248818523795,0.035789202446011144,-0.006128303071741335,-0.021117471560413208,0.03486981896194561],"row":16,"col":1},"weights":{"entries":[0.8573885984382468,-0.9090657824462602,0.324372979201464,-0.9935262843181683,-0.7925512624146056,0.15466542030571273,-0.006157606665273627,0.39568337897573547,0.8858785551257324,0.23266136204900856,-0.6217829424968788,0.7125139027364824,0.8933419645640073,-0.8340056785988597,-0.5734758317088144,0.2564722646775326,0.6674043110499288,0.2266089044944508,0.0011997523064425403,0.8270680511560577,-0.9444105749563132,0.6254954444978305,0.9312907829049482,-0.07300461031370757,0.11527166224256165,-0.7368649291553466,0.69580768316859,0.42989026731879476,-0.21867391142994497,0.5582032633732261,-0.882351899913052,-0.7143123595865473,0.6404125515949746,0.5761382999086071,0.11463594969201647,-0.6084890184984295,0.5594250723915599,-0.17705568909357283,-0.9851988972707058,0.8730669896945811,0.7312198332969415,-0.02685434904628732,0.48053336572557037,0.2692210916405726,0.021508391920966916,-0.9566028645023015,0.8658028368640789,0.0921022965534873,-0.8018225745730043,-0.6884977921251116,0.35099448223609175,0.4157721114584516,0.43222459157584736,0.36629817789021835,0.17753361821608693,-0.9366350716076761,-0.83759727001113,0.43990573990696125,-0.904785115883461,0.05812824037704003,0.4627343568447999,-0.5310533689177643,0.6960764364690335,-0.4294584628584517,-0.4512962575821904,-0.809371396360108,-1.0695654048033187,0.9025881148298086,-0.18868432072996166,0.46696427334057367,0.6879224448637515,0.09233803226586501,-0.7342587959833794,-0.8965087758075027,-0.7315810988154552,0.5564787559410274,0.7907647194024339,0.5325951176357488,0.9494226888504191,-0.5125601361866314,-0.4470927774401259,0.6856465398722862,0.08708999680647896,0.3586093117272149,0.20510134515171674,0.5508980472910174,-0.8116047784638707,0.39968825477339265,-0.7814587414243488,-0.8170503220564505,0.7587525297938384,0.2332901726611063,0.9518282625604013,0.6360050030150064,-0.7560521302572466,-0.6967479244298717,-1.0288065351081839,-1.0742284329271543,0.11315388829823064,0.007779579780638384,0.1822052534612126,0.9260952152686082,-0.4665207939596307,0.024946467082576793,0.8387557381361193,-0.4077486587403445,0.474947372665518,-0.7757284577743904,0.5847151918361124,0.3491076013841721,-0.9569604393258055,0.5635574032978781,0.5093956193954581,0.9106618470011769,0.9880956810456905,-0.9469277176706128,-0.20891666378564433,0.7211657403804065,-0.9220490255006395,-0.49680176616769073,-0.8564167600333233,-0.18811002425144893,-0.26647898693398364,0.6812990468394631,0.13994184202416896,-0.8370705564599833,0.2930218965281295,0.7904886443085094,-0.8519369320233238,-0.7838947045228182,-0.026638185842220243,0.6425551136678447,-0.9146136177691857,-0.22282023223488098,-0.2139632693797114,0.8344490150394754,0.4545472331872953,-0.8040962145674029,-0.47158726470382395,-0.9353450954451326,-0.08340635888007857,0.43690370234417464,-0.8833587354987142,-0.31642705024401274,0.6655699119988917,-0.04513647861646746,0.07356481556290131,-0.7597095129847672,-0.42823913336303804,-0.3620078281435746,0.42117661333076367,-0.028995120822223094,-1.1217857690304893,-0.9748497838181538,0.6389043250059528,-0.05899089642797746,-0.13275566801540184,-0.191078448678498,-0.6903186224448022,0.00323451610430616,0.6172800541502329,0.25231756057667143,-0.677285144691878,-0.578256487222129,0.2375983869266347,0.6575562673185558,0.6646613763614169,0.0025378092145870207,0.4654686578056697,-0.6427189582254358,0.4783197574646809,-0.7309727991415249,0.09155372587831966,-0.32739469356467094,0.3513443513608436,0.6271815074388516,0.21072041531265048,-0.7105201464567015,-0.14921743683661198,-0.8522370020891649,0.41050124669218624,-0.6262313842671487,-0.08941173763831675,-0.24033043491097597,0.0695239340448382,0.6217477284131371,-0.5192702489550853,0.03345780553074453,-0.9082286184122947,0.5849830902211642,0.0781333107457483,-0.986846753784853,0.44189492378385775,-0.8168433211213126,-0.9265567616512014,0.8256138558001513,-0.9949980806961065,-0.48165879308938087,-0.0869482482432705,-0.6252058531609093,-0.7119078943701812,-0.15724033391982362,0.03678698461392156,-0.1797571859204698,-0.7966841185299978,0.9164604269587558,1.049819690391539,0.34956279984813715,-0.7478104654506097,-0.9089151297666981,0.013619170382870294,-0.8806516145120252,-0.600355127846833,0.5032583004694043,-0.03844635123365694,0.16324239728310228,-0.3764030481087508,-0.8698145824803402,-0.5162224328402168,-0.6709191132677528,0.5397711478861562,-0.4066822734876909,0.6163262381698256,0.6644261437328018,-0.32559055777215806,-0.07347107973322232,-0.18279221437192822,0.9974281215270547,-0.3784959985426035,0.1778079971358164,0.5110525236006772,-0.49222826138999315,0.4425718736608166,1.0188348103363813,-0.8753724140069975,0.43841496483124964,0.3175421130405087,0.012372915854369915,0.2423598348386863,-0.08864301799895163,-0.2825432411948481,0.43283919655533515,0.01929123055168125,-0.25207438322849784,0.5037416865230617,-0.35743077403292767,-0.9344588239002071,-0.9261023840371853,0.13948793525010061,0.1249446034728399,-0.378980454319888,0.8560559191988943,-0.9531406162982843,0.017828363154602733,-0.9532741249413312,0.5251330598192094,-0.2975470329348662,-0.784865045038199,-0.7928122948813294,-0.36200947164505703,0.6189480601699582,0.2300502784867423,0.7703086023126774,-0.48972449112300404,-0.0751144944897939,0.6077240213933115,0.2768662202904133,-0.6008770556454415,-0.45710777318050405,-0.7629868079273937,-0.586751459881741,1.0302185822340708,-0.06684144391795353,0.6790888413297622,0.09965081152974001,-0.6589907479557787,0.5091010714559587,-0.8845705580567582,0.24433937706883113,-0.2834606770731469,0.10479520046088726,-0.838729463678856,0.5010866549256283,0.34025087113008706,-0.24622271675933824,-0.0494842635109432,-0.31679392304441456,-0.21291861994831196,0.11974354968540722,0.41774627645237816,-0.5556354536177205,-0.29983695344498607,-0.1982379505375443,-0.2835157086819476,-0.0093478129285118,0.6277773839621015,0.9423725720834181,0.3693773289575333,-0.7206013471539046,0.34966940173715355,0.43455620148929497,-0.6996892891032125,1.0909711603064745,-0.274232736415377,-0.17751339029163327,0.3762947962769776,-0.14650692068706994,0.445130363759471,0.7727344286715399,-0.6822584783937637,0.7321657053595053,0.5068279332398745,-0.4608651179597388,0.6191197507485796,-0.08535694532435564,1.0697476149786405,1.0929049996100897,0.8900012048334288,-0.5257580691096813,0.7272841191367968,-0.721047088458171,0.16108165575154448,0.43007662001132757,0.7771319825330161,0.03501949735011719,0.01589852507709669,1.1138093976416301,0.3691250555295223,-0.03638903107951931,0.2126603398120041,0.5183437158775991,0.49356080858284646,0.5108254071418985,-0.18581046656511702,-0.01266981657868418,-0.5948900326176503,-0.7874193942556427,-0.42544675312270797,0.34917154196478195,-0.4646500940408478,-0.4887892697029827,0.6921132710153037,-0.6006724613394714,0.04016189770195254,0.24234712003567602,-0.1998539954251521,0.9597898858774718,0.3345074252270654,0.14669609710574658,0.4198322183611285,0.6555903598191799,-0.04343793182963638,0.6690503029424325,-0.5655184143148355,0.9426902255011929,1.2522257353055486,-0.5826081643077985,0.1890464366987574,-0.6304128730385394,-0.5327164598401805,-0.4345993248009677,-0.22362074404976817,-0.728147146472355,-0.7241062893176746,-0.26724344748961815,0.22836576103142137,0.8382307064350036,0.8199384323812118,-0.13467488138490535,0.8614326899928166,-0.8517245692094484,0.11136552508746271,1.1176821399930386,0.8713323549986997,-0.2737374356051128,-0.5470922503938327,-0.9449474702899892,0.5261622130187924,-0.30983925912487953,-0.7285196072592451,0.672969762486239,0.8609539229772739,-0.44821533708289085,-0.12627912825549448,0.9359753099244243,0.5422863444942062,0.35043431074354764,-0.598958671430041,-0.903972047484417,-0.49810078041007727,0.7448806889957638,-0.9500884701576018,-0.6871781401317523,-0.6861933043586164,0.49239552987543944,-0.8035350922420443,-0.9017707454195845,0.038515999322076604,0.14293532842357873,0.5416830028139594,-0.5288753654071139,-0.46188696444305316,-0.09052524410203162,-0.40817513149678836,0.46084130311281113,0.17957377969754829,1.077985710204054,-0.7064551969778972,0.05258692602841538,-0.40831355114171786,-0.05869744236405964,1.0422913787543435,-0.5163872484507003,-0.4412745421464984,0.9917886160718071,-0.6512544053398859,0.1736035962058404,0.6155385663120728,-0.7212019491083246,0.5883091681848986,-0.6002699771862923,0.7550643217399347,0.14270615841556977,-0.004380966107803488,0.6582198186954016,-0.02410850172553307,0.4578058776769774,0.5588936100560723,-0.5954491542145346,0.8594605051817557,-0.9137613423677913,-0.8174755206877924,0.029339332057439424,0.7982213420913127,0.6646740062738141,0.856187768373169,0.12285000745442574,-0.9064486861174339,0.3743807137932779,-0.6414677227000928,-0.541002346122654,0.6420311270214882,0.038344859828037425,-0.8171982009256764,-0.605949622420083,0.31910301270001074,-0.1766675342339863,0.14451814174209976,-0.8189428162597365,-0.6395534110751258,-0.4066821320435119,-0.9887658791899792,-0.1527606759117994,0.5372419598240492,0.46037179161351555,-0.15670952294873966,-0.2178571505666193,0.8843757446664033,0.21211510361737793,0.7092108179962646,-0.16462701818292638,-0.682102821711848,-0.6424645258237204,0.43633209123045064,0.20626030095072365,0.7026752286283781,0.7852361831154083,0.8526579623187217,-0.6035091559404874,-0.2999101536820611,-0.9417797819909289,-0.3065003540902963,0.051543382375570816,0.873581220540518,0.22399346008508547,0.19639094414550917,-0.5945062007283712,-0.33310413589012433,0.16525139467085093,0.3624255311741591,0.8035388982560892,-0.8047876874594818,-0.42861187842881804,0.5155462335054452,0.07323958759289685,-0.1898621636744931,-0.051201189878495756,-0.550630210318216,-0.5424291735351094,-0.4389331141348229,0.6693745036496063,0.6200407589437201,0.26250430283790827,0.0743161818356615,0.3532002692896812,-0.6145960841972291,0.46810017102483265,0.3716324773574078,-0.01976261301333504,-0.23232612424421822,-0.18041497413625798,0.23616530954190762,0.3694028206936928,0.2812372769268292,0.7342427950243526,-0.9994344812588947,-0.7565160558938517,-0.22672718676849854,0.05908435373722821,-0.6839698932890048,-0.8502306535417512,0.47606360029841227,0.7574364362011043,0.5188016263785024,-0.7310920727170553,0.663362146725834,0.6372205145134952,-0.6996338224186923,1.0258654004560464,-0.006656922783719639,-0.16113428097776117,1.0120656517062625,-0.40046479730629214,0.4501275959583937,0.2575087246755393,0.4580939060175367,-0.10533847149474077,-0.9207921739607305,0.8258216638300816,0.6346817265332856,-0.8825732007908322,0.42968278864109144,-0.3854584338259299,0.9480604423980385,0.2192428855476274,-0.7836922158641528,-0.5231020869139207,0.9812107771645443,-0.1920304627263536,-0.2692510807119281,0.09818018572868174,1.2053715002587513,0.3016254292169614,-0.19179184366838578,0.12117525129162024,-0.3887129573334951,0.5314173078477665,-0.4432605344335066,0.8258938079030967,-0.8563081342553094,0.74685684314728,0.45807696756514565,0.386314189493489,0.4034688109817428,-0.8179262117190158,0.5925217935068997,-0.3008600042951413,-0.7219347086672863,-0.03159860484693276,0.9540087367225523,-0.42222148237469415,-0.19135183761172025,-0.18802916786053392,0.7505935638022043,-0.5826263948641957,-0.9212035886378834,-0.40864770101435083,-0.06231066580202068,0.6834639320751656,0.767860923367196,0.2125211402352681,0.7526351781241134,-0.8517129644675118,-0.631327002448107,-0.645747954703448,-0.9158708182131622,0.6517679126273149,-0.7517737453696118,0.21796710336113212,-1.0365883110972776,-0.48141532102277457,0.034401891414446786,0.013590666454020591,-0.319031458869824,-0.938463731605592,-0.24335228099086503,0.8629189481751016,0.4399307326448396,-0.707314039738355,0.5955013187962233,-0.27547512297103993,-0.7766348064638057,-0.060944857853240664,-0.8077238802002424,-0.7844908474882223,0.060602697715628664,-0.009832762133614498,0.6314022364487711,-0.015659730333042892,-0.4972714982880701,0.1450898959769343,-0.31090816669917315,0.8175413134204426,0.12737079909401738,-0.6506365956972577,0.2631598037623013,0.5306152942186646,-0.6595643626879942,-1.335714425412437,0.31530213685367253,0.362301021435793,0.07595052567629174,-0.44495092436893446,-0.05833756526383864,-0.4976643069884552,0.10887036239131705,-0.9113673560357385,-0.003509188011857956,0.023179371166073978,0.32701844034778316,-0.017705569991547553,0.020177461758586934,0.5004662699796716,-0.8080210122783362,-0.983618060797888,-0.4442882808133289,0.15103297901979476,-0.6763246574318331,-0.611946642378756,-0.06189471708155536,0.5858073246350222,-0.5260930802458934,-0.7662708527884623,-0.4125160012996141,0.4978962622087629,0.303914909269752,-1.1064832194687904,0.5808587739669299,0.2963828136389995,0.7944190298045686,0.02986390878342897,-0.44198405736428215,-0.17237410401957454,0.795248813742091,0.15264175493180976,-0.45179909985070377,0.2675563374219607,-0.9227874057309196,0.216449519246948,-0.8139652708694408,-0.468422591715066,-0.6326273690647757,-0.3606357309366242,0.3220841039230606,-0.39436219712287085,-0.02367431299645426,0.3651872089858548,0.765293576459399,0.3130745048717703,0.19706384138231886,0.24007319331543772,-0.1063565888902981,0.23416612039308726,0.12023056229905611,0.2722010283519523,0.8434991837648468,0.7954183031022066,0.8745078540257434,-0.5608588326543908,0.7193556710710935,0.6073594399398425,0.9815249425758488,0.7518947198822543,-0.039288405928051585,-0.8120419129863854,0.11392187524598192,0.10922867199812021,-0.5251065640917814,0.6430848279974121,0.591262112762434,0.5427572700507721,-0.8659620601317065,0.32780797760110175,-0.825015398531083,0.4134402934491034,-0.16466340443620522,0.9131998886600212,-0.4402219992516298,-0.827121663490529,0.9650075276322105,-0.2677829723196511,0.6513975917073709,0.4967442263739066,-0.3262590490934747,-0.9672624753683553,0.2790349408038837,0.17188854099879314,-0.31905171891224104,0.5280026104863875,-0.13937079514054163,0.2577854356602962,0.12091545854819603,-0.39511035457841026,0.21245745086718126,0.5925537926138769,0.81122757544424,-0.962729595984115,-0.13178579433343884,-0.3475429648538267,0.2718854691348168,0.4222573599734363,0.21959650064577058,-0.6615800374871473,0.8968593469044476,-0.688998162532159,0.5507187262691966,-0.9214286826799601,0.20411656106181275,0.5710314312563873,0.05838851874349873,0.9484374554597119,-0.3788280950809575,-0.6625215022797454,0.8450278139579348,0.9412684214808884,-0.15164664677997952,-0.26572031022895515,-0.3270157680457484,-0.20991460120103977,0.10239206929140605,-0.14057854202238107,-0.7693462893117173,-0.11298576135984899,0.47262757052666704,-0.40233150130576945,0.8714797709092607,0.5082282483892971,-0.16386707305942996,-0.35894192092940286,-0.06265751212459102,0.5929046119440382,0.5517837859030066,0.9120604672426321,-0.863573699470721,0.5009470919684023,0.04434570171597662,0.7022111772696884,-0.7425879132894897,-0.40729932434882676,0.23477468278890634,0.50667595225354,0.957014969725897,-0.06292750632733975,0.6957926017517964,0.9270987237583852,0.826063684517309,-0.5211023947450681,-0.7536884911988802,0.30865577278828993,-0.6776644920133341,-0.7178770331842781,-0.21896751133248515,0.3610639336159822,-0.1714116470322533,-0.866719841714449,0.6115058955401049,0.7933135300017526,0.519302777244024,-0.8636746943063001,-0.9831150724359584,-0.770836662415659,-0.19642211901680584,0.767549163963344,0.699941153907456,-0.031648321181780834,0.05364020147208539,0.5473106012846203,0.18872414077459276,-0.44911055653108467,0.19874312800728755,-0.42316271809942285,0.3959520549829161,0.4977259129854572,-0.6089246907907726,-0.06371867289985454,-0.682216608139917,-0.8757739026751685,-0.9256904118589255,-0.7721228366492046,0.8281443807884403,0.45548258630768523,0.9254023960956701,-0.7487199961149411,0.7909976371786285,0.7873833737297566,-0.08388518484213221,0.2212939096947068,0.5595116173334604,0.08764745278193069,0.407426284311289,0.04794161931942096,-0.6494143750012094,-0.12358732348008013,-0.9707248617864868,0.6447673325858863,-0.8791196362108744,-0.13390398842972137,-0.10813116094035098,0.008849947609259294,-0.15930860643380212,0.8095211593039799,-0.9151707788253063,0.2809988974836497,0.21151073652827973,0.9654709027116222,0.2790271709025267,0.6003302021897676,-0.31818963169882575,-0.09484969758542845,-0.9593358777894845,-0.11559187503746267,-0.7662940725769309,-0.4924421822866367,-0.49280176471568216,-0.21882849197812565,0.8005522528076834,-0.5322237289684932,-0.7354104660411163,-0.710954887271785,-0.6077457682606444,0.09871068090850836,0.011757850118542164,-0.33015392498510976,0.24921926569627736,0.5019826360408768,-0.34409651022310217,-0.037094528896722496,0.2599388990774767,-0.15363899041641688,-0.45211191753689195,-0.06324377387014157,0.3829554601597802,-0.2334602289233701,-0.9837702705752287,-0.5231683234957076,-0.6358894972285527,0.05641632104780089,-0.4989474990083218,0.8247007261241951,-0.3783396565115227,-0.7262462444128082,0.22745512775465576,-0.7509193138352936,0.475875737468841,-0.17892740451572808,0.11442372033222409,-0.8444574553359505,0.009364799153383953,-0.42300382766301614,0.08306761576610548,0.7595389563610335,-0.08420997193562836,-0.10278543768367361,0.7104902594337679,0.7735100695718731,0.3280577883368039,-0.7439957553746814,0.6173090904501457,-0.4678775915249218,0.8829166116590006,-0.5451174584466942,-0.012090985506923667,0.04275328947546615,0.08551632506248645,0.7079452495348431,-0.5751060232365433,0.08828020417092362,-0.12451250563352603,-0.1310423436037256,-0.20612221699133748,0.2279647259096508,-0.5892892170708359,0.602993751156055,0.6031408329719199,-0.8085022488245281,0.37010914108964876,-0.6426562858134525,0.3315706600327133,-0.31228509328029364,-0.8016456490556845,-0.05944795588944933,0.6997395617532418,-0.3584817783465153,0.5858427713779344,-0.6332396380454104,0.026631381316586024,0.15418665618744093,-0.32937761641995134,0.4222408170205252,0.7950994144542691,-0.804198555030279,-0.8270141186588393,0.9186578544629035,0.037687648933599716,-0.07297284863578508,-0.4306444923881557,0.8403717240418316,-0.25679191933822976,0.5575542561312021,0.4150667636735294,-0.6369712069617577,0.43538428010059954,-0.8660758785108499,-0.8989491437914876,-0.42601795714789814,0.8994202201317433,0.9168832694062348,0.844000092388895,0.11238791464515423,0.6535957269378775,0.9278017150095828,-0.6268062131267791,0.01728246128513447,-0.5503977631816754,0.3943005156501014,0.7862055733013746,0.9588246445212563,0.8089332802657325,0.23471717440489218,-0.06511413845978714,-0.9092345183398657,0.9279114774786174,0.5749534583589397,-0.1989279357076545,0.7383716398036985,-0.23915708710145345,0.5355145985016806,-0.8143053256125804,0.1383705800174535,0.32640715923481384,-1.1701301781085125,-0.1764424825436638,-0.9130567555430987,0.25830228278840456,-1.0078642413469037,-0.5421620230017146,0.1315353045836081,-0.8886575406017447,-0.3093790995468223,-0.3683691715858448,-0.4253610152392022,-0.6353315648763558,0.43917910748109645,-0.6547383308688226,0.3240776153549596,-0.6654683476891027,0.6215953340127655,0.6570922016654603,0.9846246198474601,-0.18360007225138752,0.9452706640642898,0.9892055201132424,-0.34832376515847363,0.7762949841005238,-0.8437070535041438,0.09979237803799428,-0.06086545047469876,0.4265519457335133,0.7145782276708474,0.2517917152530297,-0.46903458138877846,-0.9225196223560183,-0.2420063916202197,-1.0254945648007403,0.8622801245093421,0.494693675175499,0.7456372993317338,0.7858605688840403,0.4487720446474872,0.960157193750184,-0.7015561548542615,0.9293745880347157,-0.07742607755239599,0.38067092747192594,-0.434705741448232,-0.5209164372531521,0.779058829996878,-0.4378650949348953,-0.3454036537480792,0.7261291862102868,-0.28734311579474586,0.5373289783478925,-0.519280105965092,0.23516101524087227,-0.20630068551784211,-0.5643683394381075,0.34731160204025374,0.5513110741450608,0.5484026845278284,-0.16666881531456684,-0.6909030283917831,-0.7682231307288344,-0.16560901292533825,0.2989671727053095,-0.235441383350163,-0.22708542913475332,0.6694570149906234,0.2280799497760419,0.8264886664364344,0.8747443480245617,-0.02134201591037832,0.2048622751928607,0.13534560689655156,0.659378264188635,0.19392001458122493,0.9599337238582105,-0.8394991839011758,-0.6403841019014435,0.7875986853264592,0.35151258246145295,0.23476137960437857,0.09326494085678484,0.4518896890465969,-0.44539842306669253,-0.30508236000188793,-0.02000132709589221,0.5685375116353453,-0.6264358235234148,-0.457129828428631,0.37165510467071805,0.4216970896694819,-1.020054589296128,-0.7764025196969371,-0.13608540499744443,0.9652732570283753,0.1799513886168999,0.41315248129511084,0.42531202286734865,0.9811037360363358,0.40239386858687326,-0.5370987014341753,1.0593049342530017,-0.38566819081180514,0.007715004734199248,0.15601216901808737,-0.4434436383436287,-0.8314318914903813,0.28418264592924913,0.35066092061402737,0.14524295908772314,0.8449475726715333,-0.5447985899419617,0.2830258803208536,0.65868260323157,-0.8725952359741803,-0.1961723307402306,0.9012019848296897,0.09770704024805849,0.6584816832589008,0.6696459144030888,-0.5720746859310712,-0.45880692443748017,0.246542647800008,-0.5497984895424608,-0.8629901122869637,-0.5735620691414005,-0.014098807254478762,0.6436950713374212,-0.09597754505313451,-0.735778959423245,-0.839152444577216,-0.8437874640749197,-0.15641640221843411,0.46016352591615123,-0.8947443255757421,0.03801669207589971,-0.4777760417983782,-0.2548315278755116,-0.20993626803291182,0.62250391184906,-0.48828630371875603,0.45911143257955017,0.4128601237834335,-0.3223219700795889,-0.7368853642583489,-0.14399268905449442,-1.1089446811206474,-0.916514570971097,0.028257352172604465,0.17425085525638812,-0.0050036732039652155,-0.266478381793846,0.12630051626946676,0.4729458705595777,0.28612640352028296,0.27659248558397226,-0.5258579217203175,0.3380838696924164,0.663153501482345,-0.08837010381032744,0.08860194682160215,-0.6906251703582804,-0.7312375459311471,0.1653489491618741,0.27149138214169305,-0.4645564449175073,0.476078692663687,-0.1452503405726404,0.7352854223013437,0.7239306514303369,0.3484086652993304,0.665040165031065,-0.7759312123306553,0.18398665607709278,-1.0527152822887733,-0.7245092965703329,-1.0088846480263909,0.9169569707979739,0.8227346473810462,-0.5022254092939605,-0.9641876878255187,-0.5993723331573095,-0.9261791193992482,0.2514504592566698,0.8218382993734826,0.5715958307338347,0.0032750425963868407,-0.25011290494919364,0.21362640372999273,0.2750341990644864,-0.8693534942475539,-0.9520935753408767,-1.0487985592311306,0.20585981839843956,-0.9055705765744334,0.6958102936817149,0.4474420017458456,0.005403215934854439,-0.17032522269624586,-0.8649738148500153,-0.6408111489029199,0.2827169178154355,0.9093687814626881,0.269817178830048,-0.9221165612442929,-0.44516965291605826,-0.0762623772065107,0.464954853822362,0.32535004184123495,0.18341111717473962,-0.7966062795764874,-0.9993926649276951,-1.0218876594528095,0.28043943216626,-1.0390302636493054,-1.0706195410675388,0.4409214338569929,0.24554032787114738,0.8795233388750089,0.2779713890121606,-0.4485043502440685,-0.5681684886220703,0.5784341331925553,0.031239644305218413,0.016261108412440946,-0.3805939425063141,0.35152177533018386,-0.13398387566681846,0.6955285811791891,-0.11696799891649762,-0.3192543063411814,-1.0164337693096817,-0.15232060658599322,-0.08883205849826069,0.31379444680462254,0.01602976485590814,-0.36093804514889816,-0.48211388485980256,0.46226381948997,0.17287230307155538,-0.7172450092673882,-0.3027988124579419,-0.31834027148382643,-0.12069202385448723,-0.30134612630057456,0.9247302554530128,0.5027322890872654,-0.9198394073946705,-0.45422337809526625,0.0392721299110663,-0.5362388744718042,-0.40502219931099787,1.1398426568216893,-0.44785840636249186,-0.16504043863598747,-0.10131001909110761,0.2543943340658762,0.5605174856853515,0.8690730522514173,0.18079178902394816,-0.08718418960668266,-0.8079026308176148,-0.5449958290634909,-0.08261112215962237,-0.689224729308346,-0.11594320232405626,0.07768618691765154,-0.30604945596159483,0.1456411704864712,-0.4303767616196096,0.36985078034648544,-0.33734893186847614,-0.8237713862574332,0.065568474731497,-0.3415235722932358,0.4219025453496352,-0.6000253023973163,-0.29967318589321584,-0.7893592232726223,0.2963220522673403,-0.823769945531159,0.9921654605264749,0.5794520510740292,0.49181533654426884,-0.7236684159457794,0.08176141886997121,0.16503272924871534,0.047386170494291585,-0.2965531439068492,-0.3592891741278501,0.16243262887297488,0.9548431020091268,-0.921975051889961,-0.27641979185885845,0.8964783749185203,0.21629342675295415,0.26246186674454863,0.19403391856857283,-0.5705736848107938,-1.0318910119901707,0.7657318115970101,0.18716700398994512,0.4555148291649451,-0.017692806411820174,0.09532756305750263,-0.5578732163199364,-0.49951991889825637,0.41866149287262433,0.599988226940614,0.6009440714732732,0.4104468727794724,0.9341406739332047,-0.9384752530294882,0.7045512042016818,0.608187199119712,0.3755134746102819,0.24334004559546965,-0.017633507570461577,-0.2805814012728465,-0.12418335171685287,0.6407533625484922,0.2835782373289859,0.15532411299864485,-0.9613647430209267,-0.10357288499625614,-0.6484658207791264,-0.6839713929529446,0.52176694769118,0.9579338948286354,-0.4693729845594589,-0.6922826849863357,0.6092560597013911,0.725829964449662,0.3912944659025335,-0.11368584882471619,-0.34200891445752457,0.5085523272570842,0.3180590840527145,-0.07157828614138254,-0.33287864302159664,0.10746555858415524,0.7463020121360104,0.6937610250097893,-0.5491376488405464,0.46371684624006176,0.29478560474591275,0.20490621119974722,-0.6693145326819554,0.7777121720553621,-0.784669303843879,0.9218866661771421,-0.08035436482678654,0.1716185013010237,0.8479478611522613,-0.5607190116253561,-0.4269803853927533,0.007569734603543781,0.7144515058226145,0.9089866446679107,0.10102698158071746,0.4526898809432939,-0.31189088005131316,0.8460634395370844,-0.4127141871913966,0.8186921666110899,-0.31817339837658876,1.0088452915793502,0.5433320919710245,0.915599982275983,-0.40791639250509437,0.528793603032125,0.06963058537221696,0.9638262232036933,-0.8274135942523744,-0.6410688163381613,-0.6867613024667722,0.6636179061399012,-0.1424638091077713,0.7666670296724387,-0.6298063189167351,0.4222784003945527,0.20875497640698304,-0.687884781972557,-0.23419174686016947,-0.19080268124708266,0.7746557839414482,0.16602450295498752,0.9228168005096344,0.0659601593280396,0.4729153094547696,0.5519371324604556,0.3323325328997528,0.5049857796389132,0.8372333250791163,-0.6808631275251006,0.2841738191241293,0.10944348175340608,0.08530452940340541,0.10542670460474013,-0.6942144604945136,0.9377290713672608,0.8516767630992985,0.39942703482314434,-0.9616428573914697,-0.9088766169420133,0.601489446878424,0.11478802462752702,-0.43981324599302973,0.7590711554195698,-0.33324254579876095,-0.704344843782317,0.38892868501644356,0.02066219796722551,-0.7337645489416913,-0.31929393039193504,-0.7725577175692552,0.29982163592867583,-0.20035172246782101,-0.5402792234433602,-0.665574818892559,1.1388614710214309,0.829593448589924,-0.571396415509611,-0.6680163468659845,0.4647512826593995,0.19042952932432716,1.074925114028911,1.0280052855479724,0.30516960823396344,-0.4244553035090597,-0.8800296538307255,0.504070801937361,-0.9821851759553959,-0.6983274418309255,0.09574653629674494,-0.6887419438340897,-0.6380301140677727,0.42721206696249414,0.40356999603500643,0.05441870253195707,1.0387802936147794,0.8348080565960649,0.9280077628374916,0.3284593650984845,0.4452062877620142,-0.2705599702920994,0.7634830058580034,-0.32328729818443613,0.15105918124056944,0.038943421131555106,-0.015029710804294156,0.9501116028057649,0.3676953152367552,-0.8227254276529281,-0.6435695644117874,-0.6467210609271815,-0.9243221297958848,-0.9908452087953483,-0.9534730090633121,0.15265378186054507,0.2320749334384699,0.11706781990965759,-0.5777737352002226,0.8774021269862696,-0.9290119690537055,0.031077593379568606,0.49252825182636567,0.8182518276167383,0.24508742821302998,-0.5870511244258868,0.975521933149144,0.7343677609623519,0.8334044754204001,-0.5982926416171019,-0.375652212141876,0.43541681150417544,-0.5287330219355912,-0.7305057971733353,-0.6251485695458168,0.043094892515065826,0.2921870565596733,0.3301680037280081,-0.774758621350854,0.5952768957052613,0.31136568868408765,-0.8502022449350641,-0.8792170273673143,-0.538248837220622,-0.02859536315771901,0.952849961263138,-0.05307580913263836,0.07393229936266947,0.03165585517461196,0.6559562647797276,-0.08244325192112406,-0.529612153820328,-0.6961136995752562,-0.5852168061054226,-0.5734139907190575,-0.11100292187715433,-0.5759108749955676,0.6013774839863436,-0.3034725932979596,-1.0990311544929359,-0.8091706878614873,0.1018897846138459,-0.7389449907441235,-0.15571293315283638,-0.5897677577980164,0.4543418865886201,0.15140990130247584,0.26212559506985245,0.21291651450433852,0.8534877771399589,-0.6826891770392911,-0.38746902143386586,-0.3796487398749513,0.28341958390344746,-1.0095394642054139,-0.2633589937190188,-0.215172150933352,0.43962923113080277,0.11980398374460756,-0.026172960390120008,-0.524016090179466,-0.4617865705216095,0.49725584449950566,-0.6562378236107957,0.41815535781271523,0.29599119497684284,0.41391210042774806,0.36365394126045714,-0.6296492380553814,0.022220651175993762,-0.2466628539379881,0.2693177652505836,-0.7277474830622601,0.7144422720255317,0.45519008647021314,-0.2624931676235434,-0.6600339307541838,-0.2639115090298708,0.8462499838077067,-0.8033773625100125,0.5120618412592051,-0.9637664835815656,-0.16752327021663632,-0.4465765503542196,-0.6948761838719051,0.4212077081308091,-0.08583050947837381,0.6034170560588987,0.2206638881445638,0.20500160953194838,0.9376987175927083,0.48933092117751,0.9728370595378009,0.8408246973821065,-0.8217046977670356,-0.21050752176628817,0.5816456942839873,0.07777144792279846,0.9180594086119582,-0.01237106814391519,-0.8406460998990134,0.7851943334873874,-0.5672635554501577,0.2342920120175572,-0.25902422872871506,0.14053035893719196,0.03468603574133551,-0.0917713409040783,0.26894098583372616,-0.20704246480474847,-0.26343821783855054,-0.3600825894332591,-0.7342651191777692,0.2915944605917211,-0.05580675407130984,-0.7619264947203263,0.29755731953825454,-0.4834994846329292,-0.24958354021447285,-0.2510550771778142,0.8696717450256359,0.38156375723404057,-0.6549402236882426,-0.5552011934981526,-0.4362964209952028,-0.3406391177156622,-0.7066684917481867,0.8777737814189539,-0.7199612538720439,-0.11181866861542251,0.7595766247760811,0.2739714640910258,0.7325523844292365,0.8739153742404246,0.3791431446464657,-0.6965887884070621,-0.798175762830204,0.793933160797827,0.5277747562510262,0.37774351594150635,0.10277768325750451,-0.7650340736984997,-0.5860743822090133,0.9377882612563231,0.6527341960055093,-0.23997156064966557,0.7319576194019297,0.5769216217554947,0.007851477697749078,0.571666914110659,0.6767799338737877,-0.5354770494904818,-0.11350665176797343,0.801317279552018,-0.6122063997581231,-0.8227293298394112,0.8320475490800843,-0.29921578297724927,-1.0082896161287054,-0.9211210198110296,0.3374433170945086,0.19701769458987778,-0.17678304504805237,0.8233152836028572,-0.41708146779516114,-0.9226989717999207,0.32099353132112735,-0.2181079894463184,-0.22595678363347585,-0.04372916435722603,-0.460658201237324,-0.6888906202379373,-0.1291056038647882,-0.22676775152420606,-0.3629342830727434,0.7430319144941778,0.8680699714570207,-0.04396730709754955,-0.46617558843412904,0.9678654105633088,-0.9713803972029621,0.15734498176484743,0.48305866470207154,-0.082464918845727,0.31296428714071806,-0.007430004949914626,0.4996494777715958,-0.10624182641829812,-0.769215294208118,0.8949344097655761,0.0699263578854125,-0.4433421371182836,0.30237030418890115,-0.5018060637260905,-0.636822499626276,-0.19618269627626975,0.8161822447175461,-0.8019647268577154,-0.6846892330200794,-0.591926016287209,-0.12717644157237595,-0.8601771255309073,-0.8533392055325871,0.48683406745947744,-0.5506796242340496,0.3947587821438138,0.5836939393095423,0.008431541579113775,-0.01864835920506603,0.09458594054055329,-0.14631490968807306,-0.09228926072429429,0.6200127152297371,-0.3381052045531641,0.9006710945858857,-0.7871389501015594,-0.0010496350040104427,0.964514516231627,0.40267403327992274,0.8112074618575348,-0.4616686493437981,-0.9642115234787322,0.04006640506610231,-0.8287609087665097,0.6504723368912603,-0.2621716294143482,-0.4356072988814959,0.5020172379218891,-0.8905607937815253,0.42434736476252444,0.6871883364623893,-0.7559301085857792,0.5062223277711366,0.8408745894584193,-0.07560665926670707,-0.6577216916484597,0.7707081965780876,-0.9553465246471154,-1.0039238866849771,-0.35397089412605204,0.28907888544619026,-0.4642375936680712,-0.7839880328108536,-0.6240844239735025,-0.43700016877029785,-0.8984791135830738,0.44525391389336305,-0.6376797313854113,0.11232323190746772,0.9559080411718289,0.45591162823217085,0.620445821597439,0.8516472088857995,-0.632035805079152,0.37559362555950065,-0.7558913948548805,0.3174087358355034,-0.5279747003984716,-0.33742875756572427,-0.1846118953691097,0.7543294853506355,-0.737441668712319,0.35511291409105006,0.46941026407525865,-0.39814926859839905,0.5131208122477388,-0.963007123678389,-0.5473674836132046,-0.38220653864401727,0.05836468319138655,-0.7817497539657473,-0.9420456048385938,-0.5560703536981749,-0.5760933245350014,0.5651418763383588,0.1674259587178165,-0.9074024396045696,-0.2772723465967813,0.872806329969387,-0.28992805760665813,0.6881046405449606,-0.6643247830865741,0.6914462129472374,-0.5075787480770199,0.5471853965892783,-0.7738951804197644,-0.15695263237290158,-0.16831613987278815,0.9800856787768816,-0.15879212831327807,1.0040419482530285,-0.7311851356369543,-0.9222302302117354,0.35902460996022023,0.6233906733825426,-0.8637779851551619,-0.024947180134395116,-0.24216650787571367,-0.4716260457338347,0.9716409503661416,0.06355349229975531,-0.6990565360136479,-0.5715726409442571,0.4853203692888794,-0.9207010220233679,-0.5583192228098813,-0.1871105856712111,-0.12760044931084336,-0.39895032938866654,0.5177956075861734,0.7723412625160306,-0.5912913868623404,0.5177285890280618,-0.7897509363154667,-0.718007070661143,-0.16799566632990576,-0.744712409413472,-0.3758045967582259,0.26580338173282164,-0.6677566627936145,0.6298271448472705,-0.3608090545161982,-0.27797596011242326,0.26326329288221645,-0.34020864371927056,-0.511854328817937,0.34472310765043035,-0.4777301790952802,-0.1363886787189143,0.6962082329144675,-0.3348587737403584,-0.9093679638584283,-0.8373726518868906,0.6254837822175044,-0.8927044497746671,0.3026729135238544,-0.7627927598634564,-0.6840302131080835,-0.8839658540110192,-0.5239808474770915,0.7747557192586921,0.36002351010924893,-0.2458593523792494,0.3709051033440958,-0.7154795354018321,-0.591006248667798,0.5559404887772129,-1.129263919661397,-0.44424313698306545,0.005663364401244595,0.46432289655632575,-0.6361416848588067,0.3184366547361072,-0.15663743544154968,0.16854304107412837,0.8484597248887186,-0.5121622940624564,-0.3868418309674027,0.7673830918664265,0.41201343090871906,0.7451608793251475,0.8630935053495233,0.7434427136431864,-0.4766607379987815,0.5080597681088437,-0.08781261071998277,-0.5236332252058515,-0.8950328362234892,0.045577981677228645,0.8004916459764588,-0.7188740727780043,0.6433348188714587,-0.9299338327287171,0.49451961825913193,-0.4102034529276007,0.8745979026059523,-0.2070588002372773,-0.34159760925046523,-1.0236717032306735,0.08568552110600086,0.7477664169496278,0.9340554284886836,0.22952440441373478,0.03726904090803217,0.37218029525027213,-0.6733874366642661,-0.5814483675668028,0.9328458576425013,0.6053675334372016,0.41851098994893143,-0.5276631782096795,-0.1685988539716016,0.24839896375364381,0.6373932664201538,0.3832176851835309,1.0650567614389326,0.8848545114010142,-0.14859561809126434,0.4597200982501985,-0.10506431156598259,-1.1126084637466571,0.06788947580317063,0.30701450217235676,-0.957929785716017,-0.4990198482541782,-0.6840446912073591,-1.0336638362622472,0.8458856389813049,-0.4365937508451881,-0.027746314194780585,-0.14182539781080447,-0.7751989539189157,0.46534414115344286,0.03212528449318513,0.6627065065220566,0.32986594864849267,-0.49838557500597586,0.21779740058375963,-0.8629602286871099,0.49469861804050846,-1.0044448516971891,-0.3729051596371943,0.701763727014256,-0.28738919173751304,-1.003123866117992,-0.9404657575103762,-0.7243912975190159,-0.9631917719427816,-0.7253645038315399,0.5336121473752122,0.7591566704983184,-0.7329057770027952,0.34821354513169617,0.43552044812879664,-0.7496133913095518,-0.28987844286458814,0.39172695578684186,0.24861475933682234,0.2786834155379826,0.9768898341783319,-0.13641819366356936,-0.983730315882058,0.8512006866525818,-0.3795010402263224,-0.7507829942767296,0.44583816880430643,0.45625899308229084,-0.4727687511495661,0.9365369014254578,-0.1646968848456904,-0.4314500767715938,-0.899076102050852,-0.23533349035677345,0.43444179736731703,-0.12755568821277793,0.3133631008425249,-0.6192034980937681,0.7148294864286305,-0.7093711992688484,-0.19745736790417745,-0.9017625346038769,0.08722444309967811,-0.2351680891830878,-0.8174285599348092,0.7963511308786139,-0.08119747240509843,-0.9617814646139811,0.32844239715559903,-0.7112090699145616,0.7069322166971913,0.5115605905402479,-0.644328179095997,-0.2523681987340589,-0.6584996918804099,0.48348406256583554,-1.001268689863873,0.9999155509216202,0.33682686543941787,-0.5945847946043826,0.08864654924884066,0.40821114191223556,-0.9785144064602558,0.27507736998299165,0.6968352066515983,-0.8127452570790114,-0.31333210090189434,0.24319167282292026,-0.9096719245859237,0.4911305455437549,-0.4334546423513742,-0.3940915949173714,-0.38128570190215816,-0.004046698322188654,-0.7293370438869518,0.35470848547399286,0.4136353871611847,0.8720238122957079,0.5813314743558776,-0.6708468579590604,-0.5489648750766488,0.53926041296998,0.7480724129358539,-0.5043400322203238,-0.2959519202477685,-0.05136363436150919,-0.6314392053534869,-0.0726102037783035,0.3308589481459447,-0.6920939872853824,0.913730528293039,0.9417254549812418,0.8811361644020036,0.8460785931809913,-0.15106807154926122,-0.23640295217717788,0.4056723146836515,-0.8518372856558527,0.1385739975032088,0.5995649163575391,0.4914635900355672,0.2084175212753815,0.3156913306460555,0.1957597856433397,-0.25130963183107885,0.28958754752733223,-0.037372470588076995,0.6385914105800586,0.7690789643426722,-0.45736823187873715,0.3058373568609782,-0.7279620703831117,-0.5438113233125287,0.5527265062406561,-0.3002769610702831,0.35455890006678453,0.940182033652192,-0.44027233336346816,-0.2530410262440007,0.952280836349055,-0.8282051211328061,0.08932773252708727,-0.8346195081727485,0.20865933393409347,0.36294400939840216,-0.6764544558056153,0.4658325371631094,-1.0001723791103,0.6696635474245265,-0.15731650807327022,0.4411312105207576,0.9018373232528318,-0.6050402325228218,0.0996516728052897,0.14795540505635374,-0.6279308908687314,0.864240670233899,0.1620805052929258,-0.26512664778357325,0.5080444440348536,0.659177612035358,0.07095496521009624,-0.3276771243996855,0.5444200806942027,-0.52272128727463,0.4821518757566912,-0.302565217177491,0.8276877901951927,-0.899655277850023,0.22834512560019624,-0.5529517519147017,0.3985968196670704,0.9618310032130813,0.521818481528701,0.6601965667137,0.43283682376749927,0.20623259327619983,0.5699525796987515,0.15299524265341022,-0.166181493010234,0.10699379884597117,-0.001766650441672658,0.24195124982387403,0.647034438829812,-0.682573830713682,0.08871687927378862,0.04880695609903132,-0.7047818207539184,0.395126734034165,0.7783082213773964,0.4887164700966649,-0.6008218906198654,0.053274487335108756,-0.5083824607318176,-0.7468875840668814,-0.31216045515469293,-0.3380780630038194,0.21541651373196605,0.6619946220866109,0.0025075600816287643,-0.8230193453588524,-0.5703647348129542,0.7712513126635661,-0.4919067086226451,-0.08607448684068518,0.3029963913139644,-0.3055470100314177,-0.7524453780215032,-0.7844371041117546,0.12197459907418388,-0.31649597662697887,0.4557485645626744,-0.1467300644108133,-0.9344604984579493,-0.7237864840928167,-0.08216173130408995,0.07887801875200956,-0.49499297369210365,0.11948526425910858,0.31368346974676936,-0.31368460119587066,0.05814799898295491,0.9136875431245415,0.39710285597212547,-0.11472495073150848,0.3862333205876813,0.7057876648085271,0.2171747517445091,0.7652956159249555,-0.23790775537289677,1.0156277106508829,0.8526654167477402,0.5242712849062472,0.11930039828814638,0.7504655794226811,0.7380174706045081,1.0016790123704922,-0.5042115399162705,0.034462010880522635,-0.6982480739425073,-0.6483665612814408,0.6955437704952491,0.5059353176332965,-0.9707135520765388,0.6248394693315625,0.4548115927222994,0.06348916875865403,-0.4905343462231006,1.0579437039709725,1.0245525174058285,-0.1535964920871854,0.4941819397899866,-0.6752037485203101,0.04008086974776458,0.05810604356096694,-1.0042060447241181,-0.4048081923107181,0.44649226704396366,0.5306537180879017,0.24309276247563613,-0.7186858889840892,0.574996441701937,0.6410606648550383,-0.8088264898825668,0.378523480842396,-0.8669932021655309,-0.6416156388484181,0.24460211750999808,-0.744687181942339,0.20705344437200965,-0.37475618621109624,0.7528819086845252,-0.5426752649365725,-0.93374126917579,-0.4406102384839883,-0.17293146361935718,0.6386541267182736,0.18462145099616306,0.039558509028785584,0.6640498803413117,0.2687052814228008,1.0341159882610667,0.4096703738227412,0.0007247617647981007,-0.2511095160236457,0.9350546218858269,0.27504915695357024,0.6166649825882119,-0.34984118874707737,-0.5814680565187643,0.27667621802125264,0.26902825318238355,0.024139139111530802,-0.9689879027718282,0.6745122556999269,0.5109178737610737,0.07741629279171118,0.298259538762813,0.9772626389156657,0.3844087389269523,0.8216448103588962,0.2931324111756763,-0.31911067195709847,-0.3942732132039633,0.7607177151483466,0.25356395104426327,0.3092824287134914,0.4650244375548299,0.6682856844352144,-0.8636405883140342,-0.24836097722354608,0.334595400166822,-0.5005573044864564,-0.6920289054221495,-0.38773248404039623,1.0831740853079395,-0.5734498030474322,0.775393871275141,0.06589380493516667,0.5181399128409463,-0.2487660541458297,-0.9360317511357896,-0.18598364393839464,-0.36276946528880344,0.3679971253320337,0.1583662624837113,-0.48173351433628114,0.9706174902539825,0.9023588338265099,0.62209697684615,-0.015025026331634416,0.1341858860737972,0.024651044963066675,0.5289254330378533,0.10032487068822556,-0.5253139399077286,0.3188919328869563,-0.45836778671125394,0.09937186385275217,-0.3509647938917594,0.8644241737793198,1.1827750310260206,0.7710852110824293,0.891656326640191,0.01903065537054863,0.36520156074009114,0.06435714202587471,0.594042518683438,0.6621481765536497,-0.07614086798599427,0.8939561088381026,0.2864217163753195,0.5085766441724399,0.4062515551585834,0.12932921298882558,-0.29702208492866805,-0.596129503565116,0.9440440843726359,-0.11359930858620917,-0.18093200338878357,0.47416854752191223,0.45284332237787733,-0.5520338965980329,-0.05026677407948878,1.0165969199377358,-0.6784065504326899,-0.07953569499384171,0.7214495391190449,-0.3215509591482196,-0.6134803868151332,0.29209564287120604,0.8962760575370243,-0.9354745084541991,-0.8447691742555637,0.6157192036089936,0.4369249951922152,-0.1569259649553599,-0.1657982522595286,-0.9239287297758977,-0.11483095928910288,0.8640050295253044,-0.32280751633622345,0.22421872124278605,0.15583479553443577,0.1628321544082703,-0.6179896543584633,-0.3089509573483548,-0.859801011380977,-0.45755646521808924,-0.3285396702995839,0.5936046093016041,1.0565324198158956,-0.25184715476878244,0.4254414184917629,1.0864373364934803,0.5781026569081805,-0.6515175976448817,0.4079141112155267,0.35171270318793363,0.39633370504953563,0.3832532852837556,-0.5244931071303918,-0.43284714011870656,-0.557870291673402,-0.8462447449736786,-0.049402022889367965,-0.8205318928588717,0.5946867547419797,-0.9259399723406535,-0.36237193389633254,0.4498616855480663,0.2673913729556407,0.695425653526684,0.1258143567931363,-0.4219921594848214,-0.1145791207573049,-0.34778124586732667,0.6007990452719816,-0.23786417865878656,-1.0131805458851395,-0.1560629855531603,0.014929299653879362,-0.7566831912822441,-0.4381256764492656,0.17893749964294509,0.26810453546874663,-0.7983364180245786,-0.4562574030902412,0.41203016887739835,-0.09356549238773144,0.8291346246417339,0.09019450725442228,-0.08735676687163714,0.8952655549125484,0.23441415185472855,0.8280299540813932,0.3422299726123625,-0.80998366055483,-0.5398732065109072,-0.9505324048431928,0.13772232313986352,0.9164127783013719,-0.34038030549875736,0.25882712287995824,0.13893008656132175,0.9061696226963546,-0.15072343891129542,-0.880407550942484,0.3969210168392016,-0.12155662072719829,-0.5309485353461246,-0.7015319360333069,0.2702047026695946,-1.0736079543966424,-0.09293361956017089,-0.4812617824976567,0.06905135932308364,0.7691228171769742,0.6258720482276765,0.6028595401569541,-0.7157895064051228,-0.44026886012186833,0.22775776817894497,-0.11514885731950038,-0.4886374980080069,0.9044476521503285,-0.21690178388375117,-0.20382803192624213,-0.2946433036608099,-0.03234819351327336,0.3808642150995708,-0.21271208700657276,-0.060100687236579235,0.40762202617258275,-0.0914358364231903,0.12854506413576236,0.4651237037036481,0.6443934816770984,0.5718843804616424,-0.8532289616714742,-0.1911806204908086,-0.43232509863505597,-0.28108712192797375,-0.8540864607152514,-0.07870391871459466,0.19976479143007853,0.08535302067325702,-0.43058002397351325,-0.8708167975588387,0.5100800399132822,-0.43659005660934974,0.8231304600532269,0.3486998994504155,0.28309945061018443,0.4131134141191987,0.8209530344005039,0.29266011878727544,-0.4270024298000233,-0.7291816132900505,-0.8960255477362944,-0.10097838741257766,-0.5864649819646537,0.2742132081057646,-0.8115378337484005,-0.8391542086874776,0.4157746658508239,0.18353509541445856,-0.5083478611174288,0.16817723274944457,-0.1779788766226271,-0.663579869337367,-0.3410914107654273,-0.004296506537922454,0.04727655661440749,0.6668008117468472,-0.5888017943677492,-0.8239875197547836,-0.05059347858195868,0.6145477034008574,0.9050142866256804,0.6921742035534318,-0.4461110988593016,0.2880104063953423,0.5493646836600122,-0.20754169462474872,-0.1663514410790831,-0.1888764491789491,0.7904705916756688,-0.5011824471395051,-0.31150833937435635,-0.9817922709925916,0.4056542720330529,0.7078977941186196,0.6673289028985686,0.8347924850703747,0.9629005734547458,-0.5417246237606844,0.921102303947324,0.04262691284982394,0.42345623661343995,-0.6923894602749271,-0.0037076390468039327,-0.43667792419844825,0.18109678063943643,-0.2139131110990781,0.4697994977043371,0.43311897564949725,-0.8167876116522291,-0.3826143230680941,-0.6648625007773948,0.30495588028797693,0.9052430624021813,0.3164723446860861,-0.7700314165791248,0.23750168568934849,0.30806929544354367,0.23931652001424075,0.6008208469869755,-0.7112535085595048,0.11872004781469961,0.637480980878857,-0.5129316543399342,0.6273723279621276,0.08470583397706447,-0.8410738690683018,0.6799165953866814,0.9018482099381672,-0.14023927029235794,0.42993396704938036,-0.6799615426873492,-0.08190439502180111,-0.40428483909602375,-0.20696909368422733,-0.5095931134927917,0.626657296452526,-0.9140352874093319,-0.664427508210032,-0.4919102339054303,0.6615422776347383,0.012384598567292546,0.05663254298566321,0.44451512290635586,-0.7945504068061172,0.3575958461925671,0.6877506979200617,-0.8297986444358777,0.41341503635379173,0.3132029800144026,0.18172751259794506,-0.6558370571905007,0.6275702360925585,-0.5511482997733282,0.9067525718770654,0.19178590870815448,0.44846451993790615,-0.769629293679733,-0.20098651314009286,-0.8018550026366053,0.8059659222406635,0.4189211363918398,-0.4626098295775719,0.7346970710688964,-0.5581821133284647,0.06486625803816816,0.23261522217333364,0.13753945452884964,0.6797296848329083,-0.767525341390978,-0.15354430706811095,0.6653358400879968,-0.4243198746416089,0.3856366725333401,-0.883380687380919,-0.9462154322393521,0.6179402303033747,0.5887130942615587,0.7526992319194469,-0.4527096376544133,-0.13044932883696364,-0.5814949100548079,-0.3084167898278469,0.3553855588452035,-0.8234096144674558,0.25204647173857275,0.8574067693686366,0.5442671035966719,0.3447375429707279,0.43742994190635953,-0.6067298585340944,0.7801179691426415,-0.17723745409524205,0.408811235376101,-0.4343435984205216,-0.6445184433043528,-0.7022851510211033,0.1322998272415178,-0.19351486485743352,0.2168350616553273,-0.2440258026192777,-0.3106332497104586,0.2818134384345937,0.07487921788773723,-0.5111249325009178,1.0274763673211642,-0.5995983843761709,0.0052310604459280775,0.5814699455983054,-0.7066753031530986,0.16615749369001065,0.0926287905967114,-0.07160424763487042,0.39733734966716755,-0.588081276977053,0.9712297795484087,-0.658709550541165,-0.08695479552930849,0.010568557452079717,-0.8078889646427901,0.7760158208589064,0.96610646866242,-0.8114999257098193,0.0037128286921998856,0.5679072586724053,-0.9480485258553756,0.2770006196453588,0.7284659122398357,0.44336044007398356,-0.5836510196131722,0.42483433026695017,-0.4698412116439798,0.8098763268695788,-0.7516567558241414,0.7081316782191055,0.9476060600703751,0.5729444671650719,-0.5293643740073418,-0.9490369789553031,-0.7570398557175916,-0.2636324862383214,-0.5922423096471405,0.9340048204765076,-0.26044282468290375,-0.8007976455490609,-0.9414196599464952,0.8913200656270062,-0.2945724239892774,0.6755453109589938,0.15910510716301085,-0.31839127624268826,-0.3664065898508374,-0.48285561252623477,0.4518798392101383,0.322700071895473,-0.6926212158240829,0.7379663408125826,0.7268467972457182,-0.3188505745132751,0.06317864093661377,-0.05394628324924289,-0.6466505957400525,0.7910693146595403,0.3936557180416613,0.14285636692640957,-0.17995099356361158,0.30775830433776985,0.9792441256155211,0.7270082319249341,-0.07425762866724823,-0.25839607464777614,0.49743295713166774,0.8738039008013532,0.38656002521958527,-0.5839455187903823,0.6986661538695521,0.9761991950784809,-0.6716154845614234,-0.3647617461626219,0.9516656716174438,0.622599438796073,0.3348338313933775,-0.9953967304830482,0.2731502407154,-0.17314293514411716,0.2378553874427483,0.5517946833292199,-0.7334821480656754,0.9530291408455079,-0.6809181861701961,0.0013175253079311744,0.5241403082723013,0.34789009479351213,0.5399231112984342,0.971741134959377,0.5835014969350315,-0.8301729326059151,0.7807228467964358,0.054860761725883,0.5013501786859342,-0.9717084473734299,-0.5417491244357827,0.09296638959800498,-0.8584843778393333,-0.2798909886545048,0.14730339626320055,0.23982796874462908,0.9526881593871664,-0.7068829877586834,-0.30248752114825983,0.48471231600562537,-0.9609250981442011,-0.5268213148771665,0.19457081584763983,0.8154059324667917,0.878305127638359,-0.26447531659013856,0.6676042607232135,0.14617854656269816,-0.47908387443125305,0.4862759844014317,0.17888589739225802,-0.45777219145693315,0.42976481330924987,0.9918017314194322,0.05406610751723217,-0.33941642171366887,0.44137783357376986,0.19207443159079882,0.8871050293493029,0.6072246596830523,-0.7619261430926473,-0.9126947347614703,0.3555141994386256,0.2318157181033157,-0.5974261546372167,-0.841959862263173,0.9622993882956696,-0.30343554114995286,0.24443564840624568,-0.4188401599634473,-0.9943963156853485,-0.7881871353467773,0.7881265405804673,0.2878176801045397,-1.041436728238415,0.07065809467805478,0.17731830489181463,0.726520385549963,0.6134251845947606,-0.5719968862930439,0.5489851762376297,0.7028748090448632,-0.7911281578618775,-0.06379199607932692,-0.5583382192143554,0.13345249912407983,0.28099745980718027,0.7614880603777606,0.07632028999466747,-0.3688949421098563,-0.8374008758682127,-0.399744946814521,0.7748295010636307,-0.5939575824927128,0.33722453691264614,0.6175858893245346,-0.8200708319123777,-0.39074388216162725,-1.1105420890837865,-0.2181509216072239,-0.0834605170414891,-1.0431348847972135,0.604436757160346,0.011912976430852642,-0.09083876506619129,0.4578174294086621,-0.5755926748397558,-0.2969449877510571,-0.25784300226513035,-0.5114140629386472,0.7930513050994952,0.87418909226178,-0.974930447301669,-1.0119374283086204,0.34775667838911434,0.6328940485267333,-0.09056861043042982,-0.8147618126255244,0.8840248101850215,-0.21712557927937837,0.45523870177776626,-0.395566146875982,-0.9787336058803343,0.021962175784594622,0.8865708377272751,-0.682898587149912,-0.5218733635854533,-0.8231457768214546,-0.46327237922185144,0.35542538369395754,-0.8167562090027941,0.1732107276682794,0.7004610561237858,-0.1659152225723443,-0.07436445894454297,0.6300413626731145,-0.6242847105999282,-0.7743794849754575,-0.12674096066500132,0.8102089779205391,-0.7338650909067516,0.13247022080402318,-0.7463250107076723,-0.08372976701837863,0.11900444926506562,-0.8407280759511039,-0.34364167950711744,0.34988821652975244,0.020973414158562246,0.29431854060148155,0.1076329106432651,0.4224013389245296,0.4775717664154554,0.8283264742107975,-0.27955407623503314,0.6309269040271163,-0.6920454724129089,-0.9325469336274189,-0.38485299986108573,-0.3878281565586882,0.08582431177708481,1.1297340949306007,-0.32703285210796434,-0.5199789075708828,-0.33760019302730776,-0.45938273432585913,0.07313579915157703,-1.0203328765915263,0.5915036042597556,0.7165001056204435,0.040214007724057685,-0.25698846326137353,0.21316319407217554,-0.19117324890121778,0.7458736188450091,0.34100659789326226,0.7911887692812819,-0.8518621840489161,0.8568753083467957,0.3371106768146547,-0.8709223272822232,-0.4368681463466022,-0.15204664963630557,-0.714327978139943,-0.22109258973889115,-0.8651594891746186,0.2309613489530369,0.36489955746484354,1.096201526921963,1.228890452016467,0.055613289025108995,-0.8434281513633725,0.5021473476171472,0.3899376254052336,-1.0366342599229421,-1.0577042353427994,-0.599220112754087,0.6557728253014684,0.2842006682520988,-0.12271348549863235,0.6582502373524166,0.5907465157606052,0.1353644000303046,0.44346548130822205,-0.9825906669623888,0.7359428571449721,0.15428709996713563,-0.7598951532855097,0.5905641102847534,1.0191681423123196,0.45989137044123757,-0.8299316036379427,-0.5833865081782351,-0.638183481527926,-0.2886332519453226,-0.7215502816988268,-0.029532083355047138,0.03810089177346792,1.0892642205806164,0.121713122738637,-1.1604800293949216,0.031893276644916216,-0.9746102717820528,0.4626373493269337,-0.9421587687609354,0.4253469498612718,-0.18835668787792678,0.10074187944686845,0.028093075000022158,-0.6146633991358809,0.6433711191750812,0.7684528850266422,-0.9423850487581332,-0.47934816382549605,0.6731011743965182,0.1185826183430088,-0.5118317562847962,-0.3285542678080093,-0.7788663903861827,-0.37934807109795315,-0.7237053757830099,-1.0197778207234347,0.2823756624474878,0.5949864645240243,0.3447371875261866,0.3375234399428463,0.7609740426974255,-0.32943512942594316,-0.888382660578291,-0.21888561030629253,-0.960127787989834,-0.06370070745573785,-0.04110634886899068,-0.12441864215395936,0.40917079779912774,0.6711149553722758,0.6179980992772534,-0.8791209490771787,-0.24964691898232058,-0.8365461467798959,-0.9345424662178229,-0.22299751761619235,-0.5603358635737091,-0.8715042416152626,0.6114349830885553,0.6692138767762981,-0.27354492497483784,-0.8804222206258905,0.4769918508370329,0.04554489967481188,0.329870742005246,-0.6814369246882669,-0.8199789311856526,-0.24483862436958767,0.013847129706091216,-0.3921060568300836,0.018917266015203556,0.22426948162034607,0.7418327480902362,0.5170051143360294,-0.33032204830298423,-0.29378994703339983,0.44695640682522947,0.6912420739910085,0.06466847397516842,-0.9377610029474733,-0.9198211252764249,-0.4251152732797937,0.8403055344952707,0.11047327315948433,0.6322734918488867,-0.9234101164752306,-0.06389587044589544,0.47125698687819145,-0.8607642615399967,-0.6205371350616576,0.31209602288794097,0.5480603047668025,-0.45313539414276466,-0.38001046466057464,0.06592384214416278,-0.005163817350066102,-0.08324341595049639,-0.3322322362497463,0.8148055282669834,0.6592768419907148,-0.2710215090826954,-0.50153301726959,0.15371892022136374,-0.8559957517418006,0.4748051310343522,-0.541984611193035,0.39394438252940933,0.410236313998218,-0.5145929251612346,0.3510059688057111,0.39703906164955083,-0.4489611948128619,-0.5744183432730069,0.1397677167875876,-0.7717299193835421,-0.10130358397313116,-0.9416987033677506,-0.9511178551524299,-0.6434340370498915,0.9017437065693298,-1.0462995495207477,-0.8718578586469816,0.6577248111383176,-0.3714374933401153,0.6995944515150494,0.06446473611753206,-0.3912469892945562,0.10388220383043867,-0.7537968711454378,0.8294040911863072,0.7267475610424066,-0.5823752317330942,-0.9508712360550112,0.5180311513171274,0.6251232896171373,-0.4430798812630109,-0.9823154386989631,0.6722691287627801,0.24911352575576073,0.8826142993200198,0.8461104399070006,-0.06498733498352752,-0.56120830500286,-0.2571409502245781,0.3530797942292564,-0.6361108107300119,-1.0414314505143412,-0.10493973284944638,-0.8739647446552279,0.05664347975518194,0.7979569213246508,-0.5580624479640897,-0.4602911114106759,0.8986577698237916,0.71700301270714,0.21312638737478518,-0.35152449758247756,0.1389923462159433,-0.6995973344869171,-0.6450078386688292,0.9250811135479945,0.30446227260462905,0.4124082119953929,-0.22497028420429943,0.7721823352102352,0.6870648689462088,-0.9069175669231718,0.5746418867911657,0.1542292864172331,0.39801144506259795,0.6163972126955157,0.4714254201284067,-0.6416451433612319,-0.648157886187862,-1.0231527951007393,-0.016295784173275693,0.6606963657663567,0.06303906023443542,0.6772356855824014,0.3173516049315574,-0.5497335563962588,0.8480179363333507,0.5058337295843529,0.04112314953531418,-0.91504359253562,-0.4844963773104949,-0.3066439486109627,-0.3728072682566229,-0.824454850029442,0.9284265177651029,-0.6691157705079165,0.555245381443076,0.9333642084975754,-0.8055847566373909,0.9101384595564862,0.49087456235348814,0.9592853375957288,0.7617186810754838,0.2087350888771911,0.72167123763352,-0.7695206122451449,-0.7190868784728061,-0.13673236432420416,0.3147560584560471,0.1855932063982099,0.6955353982654396,0.6450799317736874,0.630749904958254,-0.269890300830662,-1.0116188656477318,0.27437374671481596,-0.10875124800879012,-0.7974745443193243,-0.20943894122229584,-0.5529234000173723,0.7923260448538251,-0.9816106985185835,-0.7937295234850171,-0.8514394234017758,0.8051370419923903,-0.8719610262826575,-0.8634343750617902,-0.8161039037723467,0.6709757203365917,0.710466076647812,-0.03865675699568587,0.6709437895970541,0.6389377453508984,0.44891500683733193,-0.9327614744323297,0.5614482899242387,-0.04520983119451847,-0.7601028904797673,-0.3786054460295414,-0.2579109734135688,-0.6156269804553632,-0.844300870039465,-0.7281513607939646,-0.2198445672531367,-0.15329116068201415,1.042777424203065,1.0660776234953377,0.8723192592962608,-0.8951951618187656,0.3935815160862605,0.3087898915107183,0.7677552739182177,-0.9118803830249566,0.08536934666426191,-0.012861756031933978,-0.9775030453352466,0.019113749436192595,-0.08577821402957961,-0.35065838856700926,0.5424094802859788,0.39542573583516366,0.8100150032984658,0.00609685385542714,0.32870136917279286,0.7027973127177659,0.80723088098403,-0.7921773367256474,0.07332315792939799,0.6046228780939701,-0.9818775639807639,0.3275757204113119,0.25873698449045257,-0.15038768119005105,0.4886482886521626,-0.1841030573137108,-0.9826141095007119,-0.032572187455967405,-0.9648269722757675,0.7570037283717502,0.8092326863497715,0.08681470170353847,-0.8161833113992237,0.49737789542679745,-0.5689646678366208,-0.6391300058284689,0.22370380668463785,0.9170347529646069,0.4281320741415465,0.4131640224431354,-0.9357218102580037,0.7199526577373515,0.2631563199947188,-0.0716876411222591,0.6080724434934601,-0.17342823169602986,1.0107424210213662,-0.4818114649140753,0.7880335112270086,0.755446502557956,0.4198493527808333,0.6090375408556874,0.36676396706254916,0.14658000636829313,0.72219480734029,-0.7607949867070426,-0.46830432630786845,0.3199920760021705,0.1162084170262149,-0.543437809680081,-0.8544687532685947,-0.03379041146254548,0.4580310106551365,0.9936403933105648,0.8131899434185287,0.8207768557284197,-0.3185527189779952,0.7073512125215281,0.6242841208152403,0.4315646813718175,-0.09011855953171982,0.5225844074713327,-0.9901126973258332,0.9398325502628436,0.7587897787713956,0.9459656018351649,-0.7636551270681434,0.019594508048789355,-0.03256439173593414,-0.5611946074442901,0.8659324365382296,-0.7091006881605803,0.5885890448196988,-0.41221394443215875,0.0910536960265955,0.37145594933090653,-0.37892054053119606,-0.4340445752963048,0.7910013468186331,0.023794584398712633,-0.4995309154167844,0.8973282534582944,-0.07918032506031811,0.5615311647355933,0.48369649386262836,0.10749511887280117,0.8900752158612829,-0.9902780239098488,-0.45682333670744135,0.6977833584992433,-0.8508518629964311,0.6703741446643163,-0.17921862164211977,-0.47520430125524626,0.5191459070616647,-0.32079754497632473,-0.8290854922187832,0.4468338598083191,-0.8145542568463234,0.11920933581521012,-0.9233910659990248,0.4480432657147774,-0.1453112492682183,0.09162911124320164,-0.6727228450681618,0.7906051671608486,0.18310302836262038,0.5261171236232675,-0.19770920487109922,0.3800361994517273,-0.209329008643396,-0.2681073403864874,-0.7700225201261376,-0.46936182247614955,-0.6904738284511833,0.15874261138217852,-0.3696318232250948,0.7915099088319028,0.5761446486415661,0.9035413038076036,0.36370923356699053,-0.041718172555898665,-0.0007699510270632585,0.38688367346513924,0.28413201692337486,0.2093061531607761,-0.8420994232244702,-0.19034942514669317,0.4955593839362723,0.2636414914374742,-0.4588082706277937,-0.746232826444574,0.789632247897155,-0.6976697827274089,0.07068158239032321,-0.9773425137253117,0.47527175828348567,0.4660523759005134,0.38812202035545795,0.45052531654324757,-0.683132149241075,-0.8304519149112307,0.9460772321403735,0.4909336851502336,-0.7978039601882297,0.6154631725836542,-0.3254603173266303,-0.5344087826089517,0.8727675267035085,0.7245430174610887,0.004502300703649629,-0.3948498752767965,0.6671930506230163,-0.9295264647831497,0.4049664831580918,-0.9856765372635444,-0.2635949994583936,-0.41094694181367186,-0.894464186691127,0.45389167875552394,0.5795272952574463,-0.9134040202813333,-0.10001082554297933,-0.1710833815115479,-0.02342218239525937,-0.6619059209079163,-0.11752291925059329,0.8069397442498556,-0.557033750960364,-0.14157778576547467,0.1377359393635916,0.7204719885998261,-0.4644598853394356,-0.6466395600884265,0.6924029752963341,-0.9800884964556296,-0.5163784460984788,0.5045227555978966,-0.07975114616995001,-0.511312058294169,0.3421657607939462,0.02569834680783203,0.9039562472378357,-0.3233261892885356,-0.39401441069190246,0.9119183982482861,-0.988185091730182,-0.7980061289515403,0.5191206423818684,-0.9065153068974883,-0.15753408635619862,-0.18827874657569002,-0.47424102200156326,-0.2743831791503538,0.29994943137349106,0.5223589788144098,-0.5693241857366156,0.7102537605519352,-0.8609220929239345,-0.928109850590858,0.8056259132814783,0.5428022307163494,-0.6484713693675788,-0.4326985856208728,0.8424541272036616,0.7103606470081909,-0.08901881449892253,-0.35934555831066584,0.11700255373027062,0.5065507230858326,0.18865987227488476,-0.9437173808752546,0.13723627188451556,-0.09040641742329987,-0.7327498534133572,0.7862835831092945,-0.24998568120081044,-0.8707356426816728,0.029176091902345404,0.33105804381951176,0.053682899885915826,0.7783589693486286,0.18915640769570094,-0.20783173494205656,0.5892206712471479,0.8073237064762637,-0.7241787883761666,-0.4092165089767462,-0.17953263573003087,-0.3472066239623055,-0.22013405380893938,-0.9345674568176003,-0.8757747764953858,-0.37852796027682684,-0.7587978503794558,-0.24831228082192197,0.6728554275008929,-0.38770368026314145,0.26789649343699573,0.7097615421028698,-0.7365551045567968,-0.09353720583170695,-0.448873163501993,0.32230350682831965,0.5521145090503661,0.09971465493116742,0.8155713969344383,0.04648532710964618,0.2448146084277881,-0.15170799304096808,0.9178278211404993,-0.9973454573350573,-0.04483187745379832,0.3540470156827499,0.03450015059889026,-0.3222809352106085,-0.21774474575612046,0.007108421024436831,-0.2936127662957538,0.5893912551049934,0.5807559911737236,-0.84976686664768,0.6754117996943426,0.990907647754501,-0.5677614388921743,0.2953919313499453,-0.272800865011829,-0.9550676280325721,-0.6992864431733878,-0.790679651603335,0.2821191781744604,-0.09878057092295896,-0.777803235689636,-0.396661752064419,0.8437887523884056,-0.7885251497399228,-0.08633696417800403,-0.06739141264244637,0.9362989162523625,-0.5632193865637187,-0.4462898697108083,-0.20003349229093775,-0.8689644400732391,0.7214349087479498,0.5880893017223755,-0.6719923578860936,-0.39351095360501254,-0.19628997230175702,0.03433824521981287,0.7251593910639826,-0.7851940401950376,-0.4185941141937321,-0.9800367653732639,0.8325647710099451,0.9316156561978471,0.2558730800626716,-0.40366006642908897,0.05870891416484974,0.634117579276796,-0.5205618533299169,-0.19666593756279074,0.8839799349565858,-0.8820560147303083,-0.22951670116521009,0.9367397513530571,-0.9218838605097173,0.04533216680357514,-0.10201793007948785,0.02480798366952771,0.5445037359979108,-0.2990083477983549,0.5022003669767237,-0.8536345036530156,-0.8941029176982045,0.3145488368278788,-0.6856552465865586,0.3119052837039285,0.40718646810777376,-0.6856606537877408,-0.6689393851722492,0.22410629397682258,-0.5945452040229317,-0.9578652070436726,-0.7213715546298886,0.4666973942508116,-0.768068819768567,-0.6567792522569929,0.8261664370211731,0.31479065144555735,-0.8486416380188186,0.42843082665162424,-0.33553221069868877,-0.8974234997886354,0.8413393406561152,0.6552895987083545,-0.3585297430420868,0.060269769045261004,-0.22071925413665416,0.2722292256438624,0.522013511083687,0.618449259744407,-0.1740582422390236,-0.6864894901375477,-0.9226918209799446,-0.42078593662618896,-0.6904786256471575,0.3014178916872964,0.7433504815708615,0.6291560858843817,-0.7092836798684974,-0.10939167320030643,-0.4536590770643665,-0.2878001076089161,0.1860767446757688,-0.653864115795886,0.0018981210047913503,-0.272935483066223,0.7326294187665654,-0.7746851990873098,0.9040980153386109,0.8500696650201938,-0.9261440214062924,-0.035248586586461315,0.37381510073896235,0.6264282051019118,-0.23310740309131767,0.5671114560361876,0.4642247654259076,0.8861202475155615,-0.3601125103359801,-0.5865975029625141,-0.37163193678596695,-0.44501532346769607,-0.5099822255102684,0.9549123003055824,0.5559566737122374,0.4309078278049121,0.9931546380913375,0.1953434317232097,0.09086353704010211,-0.6548982896890538,0.4683150836112007,-0.7179143651376171,0.09840582117785002,-0.0916086273297922,-0.48195014602948383,0.2844305122859022,0.1964702108677799,0.48380206152756877,0.7376681829186393,0.5317361418997761,0.9480110310392676,0.8497375213202031,0.1668308419524437,-0.09465703496742173,-0.7954615994602819,-0.6846089556904372,0.3840044769873288,0.7117234923791156,0.12959661130253142,0.8731987884913123,0.804669136654653,-0.12597574193152544,0.707959688384965,-0.9017014001779264,-0.9672110975452902,-0.8918819205454762,0.09103124446473906,-0.6522522810532887,-0.25275502399496713,0.12443116936748254,0.0929937767942747,-0.7498328181729919,-0.9199546508438983,-0.9471331994517682,0.6480135559489979,0.7251910615922166,-0.9190991429853546,-0.014569932496898268,0.6991481781534487,-0.6604646408968787,-0.919113555217329,0.765571841891609,0.7306379710681832,-0.6215718734293068,-0.4463454640967695,0.6013991285563216,0.2730154858329285,0.2721954762309952,0.8721169938079535,-0.5192793872463717,-0.7028089648530204,-0.4276491421211246,0.3936851499062406,0.6773004925001328,0.6049032230501484,-0.16818822972515066,0.14182008089120718,0.008854558419598169,-0.3331690735667988,-0.0890441685212446,0.9691658999292725,-0.8139933281566776,-0.5565362522083237,0.5094844743198272,0.3428580507398561,-0.9758171485992587,0.08134145110456951,-0.7399916027298226,0.6614185074536284,-0.14158106321407274,-0.3232648444958708,0.1517475279685905,-0.03286801922234354,-0.5518708841682676,0.20469531645350475,-0.9715197087138874,-0.00044384038756261983,0.24252208527638955,0.8176734321734445,0.39204556611112884,0.0905123445741484,-0.019361917847542823,0.3714115912432659,0.12565357622028883,0.16413690990797764,-0.09595539083447083,0.7967577895997434,0.7987841014782997,0.8946793016029184,0.9775341284314167,0.4965407783363932,-0.6871796787643547,0.22952704112377828,-0.3196593974753548,0.035719423366651425,-0.5554561295366094,0.842093994769837,-0.6644106550081317,0.6168183574328437,-0.0785831763855174,0.5827703269123808,-0.5005523653796307,-0.3659656510808059,-0.6160248787056861,0.5932253588195446,0.013442317511047717,-0.14980115670707683,0.2047296491454946,0.2549493721785392,-0.8049059756534022,0.8893194126266633,-0.6288777328628495,-0.5949777787411776,0.19515635739332665,-0.7989592659990525,-0.6390304900549977,0.05195686536330028,-0.1408322055281496,0.5239724702355149,0.2590928799487321,-0.03614255283803477,0.43475407593508136,-0.2873710496147391,-0.3032150806457633,0.5809910243213262,0.7265045856099346,-0.8757917152325743,-0.030582898477831875,-0.01102651400038562,-0.25443149944214166,-0.9538643774181574,-0.8794242967674011,-0.22851693245757393,-0.7711637595178393,-0.4538323903153084,-0.4092380291278478,-0.8584053907882315,0.8510403998558385,0.07547379800288533,-0.5912165709789816,-0.8085151036302672,0.9862009437004263,0.3373567466335677,-0.48766029914237374,0.9420265364352256,0.9546183323194646,0.10550154856056286,0.7854868803829553,-0.8039243697437135,-0.668768950697469,0.5901948924401621,0.976700626261981,0.7465429431780075,-0.2055822002101172,-0.28530119868551646,0.7916991397072876,0.9985582780424502,0.5586750540870201,0.4981043894760889,0.3696791147019069,0.5517473382610255,-0.7742203693325768,0.9083051278291685,0.1310433845962721,-0.20335561646390643,0.6002183660124196,0.8742901987695351,0.0590170955880021,0.21197829488077757,0.7724475445845549,0.4484212018864895,0.5611448771438041,-0.028901680640165444,-0.7844690275849582,-0.35186745637078054,-0.3169819350619937,-0.07605392453342237,-0.4329845132568141,0.7581344504116068,0.14832460252923507,-0.22955700467166268,0.3285009988818164,-0.9601100349326931,0.32855487448714044,0.4188139355668135,-0.8491879225741902,0.6874786779137281,0.8339454668039401,0.1505410625417677,0.04153785023552051,0.4808112133259094,0.043959732895602184,0.5187200074450463,0.7554363436584433,0.9872510034081261,-0.4019171323972939,0.8288619417364614,-0.794606247806585,-0.041534506537100814,-0.3132718125422165,-0.8897255913664335,-0.3651011630947031,-0.8354616005838189,0.0642087219067509,0.0576155864842001,-0.465637951425497,-0.0801932941715785,-0.021003020571225193,-0.8597978019704917,-0.023809278264867284,-0.10371859597520075,-0.024260049549994337,-0.6767682119109681,0.7372537615631591,-0.8351662581828486,-0.6149427189923404,-0.9280327384914223,0.31671837942650166,-0.4420839467535783,0.4602869771789147,-0.4672128667399507,-0.3323041474713617,0.40987673929991486,-0.6744823123336368,0.7089864721121926,0.15084573192965456,0.9107983133655398,-0.9805476661725423,0.03522210924876127,0.05459075557863672,-0.9217211501829989,-0.7689493044197675,0.9704636906581576,-0.7510525641519636,0.09568811207505937,0.00469220746303617,-0.9246035542823323,0.7727705600958669,0.6312521899466862,-0.35338735025288437,0.9877871044002633,-0.08400409907534023,0.5301275158005764,0.12908033209546005,0.20474327431689635,0.4813764567603551,0.6372183105248177,-0.9874955475110155,0.0020397963415358608,-0.5572886681484659,0.3643654604786127,-0.15364934336141708,0.5767815103915664,-0.5917251227954413,-0.9296553617412286,0.9222593558368681,0.9709959284956906,-0.24894320609523116,-0.5529379026981529,-0.5208025053724354,-0.7271936113388964,0.8784866409457412,-0.34151991199913867,-0.07462882141960944,0.605042274170066,0.5940200555022137,0.8925130253066846,-0.5955749556415652,0.15281254788062132,-0.07852227020155109,-0.4770014720548372,-0.7980821130874943,0.34521081383236596,-0.2921573682662238,-0.43634610739195173,-0.8811818288736537,0.4531791282517573,0.6083654166954013,-0.5669943631263658,-0.6447350122391419,0.8648034242586421,0.8851590193343032,-0.8856022844524563,0.3236529124399625,-0.4910862377651285,-0.4505513156618689,-0.0497366826002534,-0.5360253448228336,0.5375104060731781,0.7686331945683997,0.39888456029815866,0.07454202374213029,-0.29791884685771464,-0.290563453229955,0.29549801202538084,0.740532411427177,-0.8303279440634458,-0.5165058601003389,0.8695328827497573,-0.36529207196473307,-0.5536966592078986,-0.6065069046977628,0.21127586168509416,0.47271398323316116,0.17029282234402848,-0.37247037177948517,0.977298041210201,-0.10232778836910056,-0.5479695389403707,0.7552777072521067,-0.9080130163755681,-0.3434582654622502,-0.8391373207006072,-0.3689501199162869,-0.031107951662406638,-0.3756407308251889,-0.2762138394910768,0.8799338213677552,-0.15019146416537232,0.6345462170416807,-0.08941945262425936,0.599817181666044,-0.7186962412703704,-0.9985160324540295,0.7285802121342315,-0.5580994910611199,0.0665211411690901,0.7353647286046188,-0.794650599458573,0.27667802759740834,-0.8646037826217083,-0.9901745444844352,0.5751303673974874,0.4889539457350237,-0.8550384817677745,-0.5091748951462125,-0.5006285833830207,0.5889725178375383,0.9870050792460143,0.1251654805627173,0.7760796314609754,0.874426733425058,-0.7094948344504421,0.39592594219707566,0.2883988789619002,0.21510581323028352,-0.40354688292021634,0.46116473887648374,0.6184007990228011,-0.39431588458553557,-0.6251597186565012,-0.5779151605839732,-0.29008742573647617,-0.3137620058919524,0.10942452711594158,-0.07927205334151859,-0.2631110907251053,-0.5169993544641943,-0.31199863346715523,-0.5804615896495177,0.2907052300323307,-0.9926931660378726,-0.15763323132978385,-0.132982927941651,-0.6541897016000201,-0.7400651381520046,0.118417398625686,0.4454745253271927,-0.1478298447880513,0.8811195313144944,0.2631956474697522,0.4360681875516371,-0.5548251824658001,0.9417030262867978,0.9967961006938775,-0.8430281999293998,0.7120629302022589,0.29124038728041146,-0.9145837960285793,0.1039224373627094,-0.4090937765730866,-0.6700183781694065,-0.13333091067203806,0.1556221064204902,-0.07786322332672632,0.30368999099423893,0.8614284394454956,0.6548096290622499,-0.7119353593362004,0.5106608646255955,-0.3957946620712676,0.4984233208719989,0.6565598151572348,0.8544677325805748,0.022897482687628184,-0.5350984227210824,0.3945997688981992,-0.5986098674551876,0.4645758322544974,-0.09418463929396532,0.5734662836470112,0.843543381647293,0.9770923806115785,-0.8140170173171277,0.2772406344208611,-0.8313851323849885,0.23426162192087616,-0.0418504202047681,-0.027130164597528622,-0.9216689121419411,-0.5606671887108862,-0.15915623733048473,-0.11550569864475337,0.7258255164568751,0.5781504633401122,-0.30705641178571175,0.840900396209922,0.7016502430568904,0.8654693914688751,-0.8476349460464129,-0.8609408260237433,0.5066123055803206,0.6666329321873489,0.3520266272090141,-0.2774060397393264,-0.5076649566646896,0.9949093023757578,-0.4324367516691269,0.9173221034241601,-0.1411380221951827,0.37676757145264095,0.8305713545533133,0.35765500165211433,-0.970648539916561,0.6707186181627863,-0.06505707911013485,0.5549321804167376,-0.6159918046176287,-0.8090613234003126,0.11241827520134462,-0.19267235395658341,0.1625144083658925,0.8618181484442469,-0.9261584067732673,0.021280397102991042,-0.2515913543589398,-0.4615640400142522,0.1839824960187899,0.5337590216039471,-0.2135173785678454,0.861456536915955,0.3637394419520047,-0.6268983962630916,0.5884064556370487,-0.7207508285698372,-0.8821721148305943,-0.5771029607903422,0.12259947838658851,-0.6410329676718265,-0.5309965045357476,-0.8615397507415217,0.17477201821132535,-0.4384003220045671,-0.933919320656925,0.7693870904771769,-0.6952103376956213,-0.8861178547629852,0.9536738622717115,-0.7940710541485225,-0.7446931370710118,-0.3017828070656645,-0.5325884396810701,-0.6042518207744638,0.7845171957257202,-0.49958542081145246,0.33388906212637315,0.5852796301248625,-0.4871986877078974,-0.814032320809152,-0.6980972999499409,-0.3028982470004892,-0.8827245018735221,0.9925743467677848,0.5583818579960569,-0.6992971405216897,0.5709125134354756,0.6801010746627709,0.7958390733841842,-0.24305263734374913,-0.5681969703459715,0.528392963179123,-0.7824231891903375,-0.9730801755457997,-0.7135206546766016,-0.5329600766385965,-0.798442747672377,-0.6205952699863114,0.2944731891928211,-0.14650826569131223,-0.4883878360482624,0.9347446367826755,-0.5647307936190165,-0.12675919443526276,-0.5436047268686958,0.2505614381627478,-0.23953190340879887,0.8840854296351204,0.17534656981056926,0.15973092143035847,-0.6078121078242205,-0.5544346358856809,-0.35001128840005247,-0.6725863617974939,-0.17947836881346238,0.9843381387220791,-0.20185136491937863,-0.7265456121009669,-0.9862757930991322,-0.7300226389056633,0.016636514896165255,0.7037607965288478,-0.20546607220069144,0.5710913589928615,-0.18019274972866436,-0.6676810909403242,-0.1407618044618446,0.03955789682626885,0.13574311254547564,-0.535019059656173,0.2062333328183815,0.9460134133004636,0.3382493973077808,0.22157740271791057,0.9828212779163643,-0.14316411511074315,0.5917699651342223,-0.6435313936541378,0.7277833298190977,-0.07724665985404373,0.004746891533704611,-0.3867070945385177,0.7129207854550741,-0.3574677335242179,-0.8485358955312188,0.42831735454626874,-0.8313003470916207,0.45466773693630513,0.6872940362313236,0.39419034881501036,-0.5024035752449751,-0.5068942486856172,-0.7612738548802767,-0.2944844418094038,-0.3491654558910805,0.673594748470718,0.44483108516643555,-0.42818121141411314,0.9174027748647611,-0.030090889529338114,-0.46740431317256614,-0.15057044123300792,-0.5318997795346545,-0.35848431516473667,0.5070051712462609,0.03790843410435366,-0.657245354566822,0.7599030261517152,-0.593916676676218,0.5916090957250838,0.20736726926525476,-0.828636910282969,0.9537305818133434,0.29644523536590595,-0.4499351619436529,0.6342146098940765,0.915486116596376,0.8905659921574415,0.5434059814218893,0.05790453876352004,-0.09508471363493483,0.9174623556100551,-0.6585098140121365,0.40844630296820106,-0.37099308769648,0.9444653924547971,0.8518029028800619,0.052932969933448266,0.7750220564321241,-0.2421110453636651,0.5092988369869768,-0.6028169310031363,-0.7768663217124502,-0.25528714341724323,-0.2838180865381912,-0.6440325178282286,0.023516620365917052,-0.9373546490587304,0.6634466992277955,0.38456145997348234,-0.3453214147246133,0.6176181993053625,0.8477426373073168,-0.8825313255676878,-0.9551823105251628,0.6468879965127646,0.779443976664809,0.6894412718090267,-0.6440147932454444,0.41331578474179076,0.46607365486507635,0.9066921309061703,-0.18925408580714262,0.5842708433839591,-0.719373922121907,-0.12741165117414122,-0.7123343620471748,0.1374784321060646,0.3186544584756461,0.8715884805578583,0.28470990862807377,0.5955107625246455,0.3211636150568211,0.3715768996713755,-0.7992617360754425,0.5012422267810529,0.8132332589846926,0.6838367805622959,0.6110449232855698,0.5276214838242809,-0.541960130135693,-0.5407478156003332,0.8327935668306786,-0.5548136896799333,0.679505377436649,0.5552771924066561,-0.23815444204259512,-0.3698184062393276,0.44282521088580906,-0.5657378634359144,0.41256298661647217,0.4279863910098378,0.3087478809832389,-0.8244716640319619,0.06329842745619478,0.550302050000674,0.4074988621422382,-0.5870608474229734,-0.6943346745474509,-0.2451213448135595,-0.08202901251466228,0.503934021972613,-0.41906901942979347,-0.3555558352402215,0.6656089962139026,-0.03615983437294117,-0.6698203027295478,-0.5405835477134261,0.21193082347346218,0.4218793472755562,-0.5300942714863619,-0.11485371280901605,-0.2575047665789559,0.047466270341215526,-0.464961176473901,0.1676206542232169,-0.6861974787128332,-0.12299677792311518,0.22007631018990206,0.5487213773359714,-0.10793499321450953,0.3075876562518094,0.5221214117771503,0.2884476238149214,0.9398654023425447,-0.22073876420946256,-0.9537271958235333,0.19807957625714737,-0.7607853272846833,-0.7844366465224836,0.18530695983103054,0.7485985263150304,0.36595805654537394,-0.038946277027050495,-0.1995620205116889,0.771521638186065,-0.3198305604964672,0.09347464459392796,-0.8898352031025986,-1.003556230615023,-0.8109733631052974,0.5527454853928445,0.20271174645268242,0.6910612944243844,0.2260616421376069,-0.4846946098002426,0.9282480747135508,0.2203993751687699,-0.8842054131302624,-0.4755461521515049,0.36761771575879487,0.0291882787755719,-0.9000860424455474,0.4469564818197352,-0.4071347364160418,-0.27359572400815524,0.08569611052001917,-0.8501819986642613,-0.4360388110086546,-1.0003862463682378,0.6397027007131356,-0.7053809907953777,-0.6217974448095809,-0.46728230923727027,0.04087815317201874,0.2078542430859363,0.10300498072914048,-0.4689931288710921,0.8355038558133592,-0.2456543118122382,0.01144180179866865,-0.9218137843673717,-0.20236005960079315,0.0930900329459488,0.6779656566556628,-0.8861639728815299,-0.30913890406183425,-0.21650104807553905,-0.8801138436711846,-0.11560780925259358,-0.6001972752549389,-0.1385572692372984,0.6776362549674174,-0.7507111365482216,-0.14560332305675092,-0.9084162669167283,0.020873003131553925,0.4996085592491605,-0.25157308898564695,0.9507978745667576,0.7013259234175575,-0.38201483955274185,-0.9674460692483888,0.7599932065304341,0.933280989578842,-0.7895271939907488,-0.21732688004329745,0.23304092437722693,-0.5713643398838592,-0.5392479283417061,-0.8852226879640352,0.24378018197364748,0.4570409190892324,0.8321710027468967,0.7918941812493612,-0.5799444291014241,-0.10545696582800508,-0.40204580907126175,-0.7201909766327184,0.980119848796505,0.12807013590293587,0.8728378619456983,-0.16142781348625843,0.06310464882203907,-0.4086615429727043,0.5466028725466243,0.7236876021908092,-0.6693049505962477,-0.5212338640947479,0.5722274411286997,0.27590321016312097,-0.15354370908185921,0.7739624110879291,0.20344550336527853,0.37586556303780816,0.29442321661405674,0.6807646872620589,0.9330827988263108,0.18136718153452888,0.1936963118561015,-0.41791519929374277,0.8559825334760485,0.9802384870197852,0.010083346174345522,0.5733713658602452,-0.10194689928901328,-0.9808685762206387,0.8810085162919693,-0.15840734890644712,-0.08647985071937221,0.7087276401724213,-0.18556505839356183,-0.2973790958097202,0.7875723213166123,0.8689599066134507,0.5387091807058517,-0.5400154739108889,-0.7192023850268879,0.38029943366242874,-0.0541677198474787,0.4232779138639197,0.7538852338844575,0.10883042700469545,0.8638917900206099,-0.03532607268901912,0.30739297219784645,0.3141182918483655,0.5659676955638245,0.04916423998433392,0.6910000769532372,-0.6358610316607516,0.6496328848406814,0.3850773092523556,0.5837670464259291,0.4138441693492931,0.09697299031502016,0.4263802090839428,-0.835727089858947,0.21389502312871903,-0.7257792011201577,0.09924305443009844,-0.6552423589980864,0.2295942206084079,0.4415253551539766,-0.36632504368518093,0.16960507848133957,0.15403156982555366,0.2538280821480537,-0.9780858936477098,0.8069661581531077,0.04256732479449579,0.8972735956120453,0.7831925073201902,-0.34222018800059223,-0.12784224204724562,-0.5738246716831136,0.12272053316538083,-0.10424527411680001,-0.43453608176056474,0.5975361031098056,-0.7441857921329996,0.7793538039895413,0.5673931046459335,-0.8553386649144781,-0.6862794901528845,-0.7760066701665683,0.8299859192713809,-0.6308077377148421,-0.7787170573106282,0.38736370451054136,-0.00541686536945973,-0.9685751313127378,0.14481249895394466,-0.45664648068820907,0.5792671487919143,-0.9716795315404606,-0.34701688371015926,-0.4236543013672144,-0.4781170392260038,-0.5029514514582386,-0.7290165282793845,0.7232824967474981,0.11012325874671965,-0.16782505710658627,-0.4554645603062336,0.10937386956827008,0.23227991115776953,0.3223339110825984,-0.06910085442157762,-0.8894251111470234,0.28700594706770294,-0.7505801716118514,0.8291164836701131,-0.6652112721370799,0.5185338562792147,-0.7482976502021758,0.7085255827002571,-0.1811928469781233,-0.7015877481417578,-0.5253140024131585,0.01717748537614715,0.24633674932194427,0.750331048440892,-0.0069955454949606685,0.13844012700243313,0.9796779473732689,0.9341714547216013,0.3483010458475414,0.8548667333280043,0.5873509832402231,-0.4337897953746651,-0.06495801002868731,-0.8505762987755561,-0.2174004892738511,0.8053739338391773,-0.2672221984670971,-0.7191752750471555,-0.48679191067794525,-0.8047035516667143,-0.44519967763874296,-0.8899866730449465,-0.19256079118516242,0.6743321999991457,0.4037082432665835,0.9289257473913478,-0.7913541102016729,0.22407714200436005,-0.7961630517876733,-0.21335627784452355,-0.27439698300717597,-0.2579250311987393,0.8541983415515977,0.2203083020212337,-0.7844015400708915,-0.5016087702993908,-0.6001212879821041,0.4917164995982188,0.5014355578452521,0.9245900691112898,-0.2701482064389616,-0.3897805786071048,-0.8639349974651304,0.30797550246995914,-0.10505183694842117,-0.39364928997879445,0.4070596152575627,0.5914506502040232,-0.567729146024255,-0.659045572638655,-0.1584845094528474,-0.48575263753788733,-0.405707742396211,-0.37498440595787197,0.28493525511426365,0.07981479203541779,0.41487331547733025,0.18049663795556226,-0.9757871156497261,-0.9734986268991748,0.9619373525733365,-0.42363020080564145,0.036247517296021735,-0.7145324468326693,-0.014626784696152166,0.7019148552117653,0.5774533164487872,0.837831754839066,0.4190643860341421,-0.020475253064927656,0.6110844442962622,-0.9201343134256431,-1.0075475411156698,-0.455921349918641,-0.37391889661431327,0.870824089971904,0.6936194212313492,-0.39901464945437953,-0.6510154799998159,-0.512559873370103,0.5744402339208493,-0.651435388119599,-0.680564988127356,0.28085173365384164,0.3006439409425165,0.20190635428584233,0.7171695375086509,-0.3048411460605637,-0.560445385978298,0.26180389818597805,-0.009789038114769227,0.7553243010224869,0.4250653896886486,-0.38746660543423683,-0.884534865548879,-0.5785384712563543,-0.26633522674232524,0.964267362051044,0.6725088051386231,-0.4981512130929717,0.03493644174004824,-0.7736364728615014,-0.29762858607881226,0.8464326744297325,-0.8545079401536636,-0.5267698347167604,0.2675418843277479,-0.5793896349106383,-0.9647259066550308,-0.18856934660449495,-0.22174003696875108,0.0014756703628945238,-0.5641005274078145,-0.43486637679016243,-0.42188912512146914,0.8948222145030532,-0.32877478018876016,0.6996584831338037,-0.8712432280478327,-0.8859355949182903,0.6547821037681638,0.47591117673707145,0.04382849807939111,-0.3008381973675755,0.7876957976341986,0.5612765556940904,-0.2763767936075702,-0.692329303924623,-0.7752782744543182,-0.8127418598970539,-0.2656282901175102,-0.47666255527188,-0.9092737568505868,-0.646284529395988,0.07811752765466977,-0.9665758755516386,0.6361123647033188,0.5308347969482029,-0.6221820841210272,-0.3637361766341207,-0.32584014106392795,-0.7557094702967663,-0.10064323065017551,-0.1914446638802891,0.048280363594805815,-0.8164455677779521,0.5561210062860303,-0.023915924835364026,0.7269254105965705,0.8116954228900533,0.5572625155107734,-0.4915919376154586,-0.9267811024798567,-0.2614733257710484,0.35988935632629054,0.2516096473679546,-0.07336941214999176,-0.6763891978910428,0.3098568229893636,-0.9217654372131165,-0.28348027309074847,0.8473118537226703,0.1068309511182151,-0.7699297002611744,-0.595344541372601,-0.17152545287632068,-0.34257047927350626,0.464836357453035,-0.2453141752051969,-0.602384046724803,-0.3330050724598819,0.6460472916597425,-0.7496148474580425,-0.8137034195000337,0.0019097166944009529,0.8200564380563283,0.18227605984078646,-0.33880739387511416,0.24307859122209444,-0.739593888261666,-0.2713617448774179,0.5239331641741738,0.4350832348561699,0.5886488775458827,0.011373421933035682,0.2816914058866206,0.7983295412790166,-0.43709950425484534,0.3077256748643733,0.671908003807602,-0.0569809751621621,-0.6259368067607723,0.7847804853416792,-0.15387675017644384,-0.7565629049314425,-0.8946915981286977,-0.4179593821154075,-0.4636699675794928,-0.8629762189040939,0.2561116459749265,-0.5529071631412227,0.4311869552419489,0.1335179553456555,-0.322713701563373,0.696625530719277,0.7929216314218267,0.8725930335055258,-0.6293561303117675,-0.6312062332482546,0.49374811231258536,-0.9085404949921464,-0.4113847107602989,-0.6495503047101153,-0.802870458995674,-0.6303339186831813,-0.47830451241064514,-0.3568753499028169,0.37707433568775095,-0.9748079310363288,-0.4222704720548338,0.9261550823622587,-0.7095175364572263,0.8558256224760038,0.5402685600938221,-0.4302773019738173,-0.5784670539626046,-0.06860704060192285,0.838812109347625,0.32692660993414574,-0.21934845106885115,-0.9538748268558763,0.6306129394711858,-0.5470761304293252,-0.9732443886998742,0.008185038021596619,-0.07705760595218586,-0.5876000526026921,0.5724032002136623,-0.508825840045698,0.874367925544157,-0.17622667381887033,-0.19686606379941085,0.0006445433787908889,0.5290445873924713,0.007490707809228418,-0.0990100772640461,-0.05702013658498447,0.4064805083579073,-0.6726770642433247,-0.5329247972329579,0.24226076782869002,-0.16120924270574863,0.5105297418407181,-0.5187437906946691,-0.5570970087585783,0.7250771711740919,0.43749712060155055,0.2601536175826314,-0.4473810504217133,0.6630282987046864,0.33685132824693714,-0.5309271749579833,0.861817556028283,-0.9494268778253476,-0.8367046975711728,-0.011320365986848829,0.9886390965537314,0.09087356826429967,-0.5952107640753964,-0.9859843651161474,-0.03799402893500335,-0.2334376240171661,-0.8069576412865564,-0.7236494189310179,-0.3174097490463391,-0.5193059746082184,0.8723544154059696,0.3039907161845685,0.4486439801712876,0.10362425862682993,-0.32908540218406507,-0.40942153904897993,0.11911432586911895,0.6560438479959391,0.7345271852942573,0.5918471325585777,-0.06369059848396752,0.30293445691886045,-0.3111578204110311,-0.4581278656102906,0.9761528057144322,-0.05248932315302694,-0.8859770782724441,0.9339059324502905,0.6277117069525375,0.46675972889846173,-0.39550929384369937,0.3659140553171186,0.7326460949209989,-0.9726337623638023,0.6154775576790525,-0.4679884449605519,-0.7165504555839979,0.2654849044422287,-0.47160461529827846,0.21009074729719904,0.772169310681189,0.6766219751309833,-0.6323366433601489,0.44886564908206955,-0.621853722678925,-0.3393519540820518,-0.46931687092094115,-0.2055044537691496,0.715977356493739,-0.8313470934125494,-0.5693787088135539,0.29897378785254414,-0.5161162864914198,-0.7892619784646283,-0.5435549454058569,-0.8850672526288167,0.3238343246835367,-0.49910913409634,0.8998169645782849,-0.3002959640581977,-0.7683181910430871,0.4077612285134175,-0.5364712020387947,0.02891999769533259,-0.8804576439834136,0.06480085005207518,-0.47753584548747186,-0.24906490235206377,0.5763336655900394,-0.28087264741005025,-0.7832565975787823,0.7113744763441405,-0.3894824411278159,0.4557571695285655,0.2680990029390705,-0.27984548582532537,-0.5139310096098054,0.3577762655198637,0.8699965449509784,0.5946672350156795,0.540322169952376,-0.7118836637631107,-0.6633643027159252,-0.07701715090985568,0.9139341188748692,-0.023237851531864445,-0.2742840945581203,0.8929259657657028,0.7869943439106449,0.03338486639054789,0.35893814864357343,-0.6334617122549072,-0.21907753835433827,-0.5837091139511276,0.0036886560536427437,-0.5473151340627013,0.14723261898382503,0.11503196492553318,0.3339060314554392,0.331723587523298,-0.5210717680940112,0.9970320204870715,-0.620874652699712,-0.9275690600769663,0.8349687173723862,0.8587054915933351,-0.8703246929461587,-0.2722950249064077,-0.3003700205225296,0.13875813127848088,0.20925649310974928,-0.1682295022755893,-0.49525361096095116,-0.6367541430838516,-0.5278585553113962,0.9946342675221366,0.8383883097692145,0.37377057979635075,-0.30759761031648725,0.3463416734755731,0.5616785440464452,-0.17209123489476083,-0.45369873545273065,-0.08787438670281018,0.19646038246137257,-0.8023762389938521,0.06035874718414007,-0.9569771795416245,0.5291065939321362,-0.7073267436781772,-0.6913412165940899,-0.15001859940264026,0.13893742381107133,0.05414470233513439,0.024134510712319406,0.008758744104015805,-0.7607210670363217,0.14774882787234905,-0.19248567668782096,0.06575798969554472,0.5673162009113765,-0.5252937209869778,0.11150789132827281,-0.40423993346984866,-0.7474495879415265,-0.5657752636795225,0.9393860046670913,0.7762523169118557,-0.6696052847611639,-0.05964400038888245,-0.9490157348212108,-0.5224967004917082,-0.25769871580200543,0.40883886083297827,-0.688784817994066,0.3340483464846884,0.6568309950859178,-0.04828098822001164,-0.014757469346740302,-0.042780334647444906,-0.563488101168711,-0.9875634686607783,-0.1999175468794844,-0.07730064766069776,-0.04452155047507367,0.9127229972623735,-0.8603590504518019,0.41202266651388175,0.14751066170861937,-0.6241436193475979,-0.7610914376248449,-0.34106180133699326,0.7816305246102412,0.8769277841649677,0.5201006654504993,0.5020340592883471,0.5561110678285383,-0.6875371618606102,0.09187079850187478,0.8513126819027307,-0.4622567516658085,0.04626143571922887,0.038138857446960835,0.411781285553688,0.32676584353415516,-0.25532143736153157,0.18261570266559227,0.4669090435912311,0.42750154362374304,-0.6597666589974743,0.797507732554945,0.41058288328680104,0.41584048199793855,-0.04193880422665669,0.6390056119481854,0.1677164380467914,-0.09729123941435676,0.06164859394416334,-0.00435110840467224,-0.3005919911576258,0.01448244476102978,0.4375047054738006,-0.41248774853636827,-0.3493538515967962,-0.9765201746722206,0.8183950549304834,0.6340975132619037,0.5757164821556632,0.9153499924926701,0.15782514101364417,0.6318398671321405,-0.06348574630843802,-0.4944778863495211,-0.40472053942881514,0.4296496925591984,0.43587023005893455,-0.4280270748223036,0.940372192564228,-0.18153808557425058,-0.690745261612305,-0.2045217653533742,0.003596558427634826,0.6150014308478616,0.2771432259658164,0.6223684055306221,0.05406461114854372,-0.036418551302787205,0.8434353713960373,0.13048301212036897,0.9496222412771068,0.3594672669260981,0.2692429441440267,-0.8849084389491463,0.32760359042575526,0.749564898573109,0.29543657921262234,-0.27365995471060955,-0.29770205281152773,0.9808894199769561,0.11745494449725029,-0.4527206820447085,0.6021149336076251,0.723745939485389,-0.21262612238374293,0.23354625440967156,-0.006987595688194777,0.3397257971685379,-0.5192598703084187,-0.3003361128756583,0.7465960167442399,-0.563529773450053,0.8091016844217392,-0.9294092272813327,-0.3245513378646363,-0.9165348649715762,-0.9594398763996602,-0.4632010548366998,-0.010731277309853932,0.9000781605367963,0.7150211343074523,0.5707197535979746,0.609045285101446,0.6098178955540389,-0.6626075783168403,0.5284742817327878,-0.741491049913099,0.13372844093689104,0.21224353512977287,-0.32452354808348227,-0.9388967159638116,0.9150873689420685,-0.7078169588752227,0.08087979165352978,-0.580592412075202,-0.13588262553524083,-0.2880872380034439,0.6924173229394073,-0.5069591028432404,0.6956473672179238,-0.6198707634185383,0.01329703067028532,0.016128031629220815,-0.3145347628874662,-0.551357902656649,-0.12650285047100554,0.8670151825954203,-0.5543503339005539,-0.8344075615406729,-0.9355817885951151,0.8079024094873545,-0.8864778931270673,0.45901039099705576,-0.8623554180829572,1.0035238704973872,-0.2988756373646382,0.1258371786524813,-0.45158923461679334,-0.6051738780500943,0.6607901190743587,-0.256418571710069,0.01805816790160328,-0.01755844012244498,0.578268817497224,-0.007199400946612614,0.6417484273377523,0.16465260759642797,-0.8639882901459058,-0.8178723513100783,0.821437872213284,-0.4983010280438903,0.7814793350086865,-0.5345226846560648,-0.7015252048911248,0.4160998179464386,-0.7087813145283725,-0.8024792267261774,-0.32122433728298905,-0.9445168481866114,0.7333964280769506,0.683668731599317,-0.5217490138396143,-0.7773326777624213,-0.05860945444370098,-0.8498081905282638,0.814759041059049,-0.7416246354089345,-0.3739475183804406,-0.47449372793241923,-0.6504165449962646,0.12188044757205013,-0.17948986181249288,-0.1430719521594988,0.58421241798689,0.457172012586788,0.09714879742300614,0.31182790518402537,-0.6648635604932142,-0.26997180950616206,-0.7186790696622195,0.42190899221313094,-0.06087503623457704,-0.6414265506020651,-0.5223305963040785,0.8470707739281468,-0.8038308559932502,0.43272203402675524,-0.2644617937362388,0.2053210241952241,0.5079286311863271,0.09588283662171652,-0.3645978882233476,-0.07237456964139694,