{"input":{"entries":[0.0,0.0,0.0,0.0,0.0,0.0,0.0,0.0,0.0,0.0,0.0,0.0,0.0,0.0,0.0,0.0,0.0,0.0,0.0,0.0,0.0,0.0,0.0,0.0,0.0,0.0,0.0,0.0,0.0,0.0,0.0,0.0,0.0,0.0,0.0,0.0,0.0,0.0,0.0,0.0,0.0,0.0,0.0,0.0,0.0,0.0,0.0,0.0,0.0,0.0,0.0,0.0,0.0,0.0,0.0,0.0,0.0,0.0,0.0,0.0,0.0,0.0,0.0,0.0,0.0,0.0,0.0,0.0,0.0,0.0,0.0,0.0,0.0,0.0,0.0,0.0,0.0,0.0,0.0,0.0,0.0,0.0,0.0,0.0,0.0,0.0,0.0,0.0,0.0,0.0,0.0,0.0,0.0,0.0,0.0,0.0,0.0,0.0,0.0,0.0,0.0,0.0,0.0,0.0,0.0,0.0,0.0,0.0,0.0,0.0,0.0,0.0,0.0,0.0,0.0,0.0,0.0,0.0,0.0,0.0,0.0,0.0,0.0,0.0,0.0,0.0,0.0,0.0,0.0,0.0,0.0,0.0,0.0,0.0,0.0,0.0,0.0,0.0,0.0,0.0,0.0,0.0,0.0,0.0,0.0,0.0,0.0,0.0,0.0,50.0,224.0,0.0,0.0,0.0,0.0,0.0,0.0,0.0,70.0,29.0,0.0,0.0,0.0,0.0,0.0,0.0,0.0,0.0,0.0,0.0,0.0,0.0,0.0,0.0,0.0,0.0,0.0,121.0,231.0,0.0,0.0,0.0,0.0,0.0,0.0,0.0,148.0,168.0,0.0,0.0,0.0,0.0,0.0,0.0,0.0,0.0,0.0,0.0,0.0,0.0,0.0,0.0,0.0,0.0,4.0,195.0,231.0,0.0,0.0,0.0,0.0,0.0,0.0,0.0,96.0,210.0,11.0,0.0,0.0,0.0,0.0,0.0,0.0,0.0,0.0,0.0,0.0,0.0,0.0,0.0,0.0,0.0,69.0,252.0,134.0,0.0,0.0,0.0,0.0,0.0,0.0,0.0,114.0,252.0,21.0,0.0,0.0,0.0,0.0,0.0,0.0,0.0,0.0,0.0,0.0,0.0,0.0,0.0,0.0,45.0,236.0,217.0,12.0,0.0,0.0,0.0,0.0,0.0,0.0,0.0,192.0,252.0,21.0,0.0,0.0,0.0,0.0,0.0,0.0,0.0,0.0,0.0,0.0,0.0,0.0,0.0,0.0,168.0,247.0,53.0,0.0,0.0,0.0,0.0,0.0,0.0,0.0,18.0,255.0,253.0,21.0,0.0,0.0,0.0,0.0,0.0,0.0,0.0,0.0,0.0,0.0,0.0,0.0,0.0,84.0,242.0,211.0,0.0,0.0,0.0,0.0,0.0,0.0,0.0,0.0,141.0,253.0,189.0,5.0,0.0,0.0,0.0,0.0,0.0,0.0,0.0,0.0,0.0,0.0,0.0,0.0,0.0,169.0,252.0,106.0,0.0,0.0,0.0,0.0,0.0,0.0,0.0,32.0,232.0,250.0,66.0,0.0,0.0,0.0,0.0,0.0,0.0,0.0,0.0,0.0,0.0,0.0,0.0,0.0,15.0,225.0,252.0,0.0,0.0,0.0,0.0,0.0,0.0,0.0,0.0,134.0,252.0,211.0,0.0,0.0,0.0,0.0,0.0,0.0,0.0,0.0,0.0,0.0,0.0,0.0,0.0,0.0,22.0,252.0,164.0,0.0,0.0,0.0,0.0,0.0,0.0,0.0,0.0,169.0,252.0,167.0,0.0,0.0,0.0,0.0,0.0,0.0,0.0,0.0,0.0,0.0,0.0,0.0,0.0,0.0,9.0,204.0,209.0,18.0,0.0,0.0,0.0,0.0,0.0,0.0,22.0,253.0,253.0,107.0,0.0,0.0,0.0,0.0,0.0,0.0,0.0,0.0,0.0,0.0,0.0,0.0,0.0,0.0,0.0,169.0,252.0,199.0,85.0,85.0,85.0,85.0,129.0,164.0,195.0,252.0,252.0,106.0,0.0,0.0,0.0,0.0,0.0,0.0,0.0,0.0,0.0,0.0,0.0,0.0,0.0,0.0,0.0,41.0,170.0,245.0,252.0,252.0,252.0,252.0,232.0,231.0,251.0,252.0,252.0,9.0,0.0,0.0,0.0,0.0,0.0,0.0,0.0,0.0,0.0,0.0,0.0,0.0,0.0,0.0,0.0,0.0,0.0,49.0,84.0,84.0,84.0,84.0,0.0,0.0,161.0,252.0,252.0,0.0,0.0,0.0,0.0,0.0,0.0,0.0,0.0,0.0,0.0,0.0,0.0,0.0,0.0,0.0,0.0,0.0,0.0,0.0,0.0,0.0,0.0,0.0,0.0,0.0,127.0,252.0,252.0,45.0,0.0,0.0,0.0,0.0,0.0,0.0,0.0,0.0,0.0,0.0,0.0,0.0,0.0,0.0,0.0,0.0,0.0,0.0,0.0,0.0,0.0,0.0,0.0,0.0,128.0,253.0,253.0,0.0,0.0,0.0,0.0,0.0,0.0,0.0,0.0,0.0,0.0,0.0,0.0,0.0,0.0,0.0,0.0,0.0,0.0,0.0,0.0,0.0,0.0,0.0,0.0,0.0,127.0,252.0,252.0,0.0,0.0,0.0,0.0,0.0,0.0,0.0,0.0,0.0,0.0,0.0,0.0,0.0,0.0,0.0,0.0,0.0,0.0,0.0,0.0,0.0,0.0,0.0,0.0,0.0,135.0,252.0,244.0,0.0,0.0,0.0,0.0,0.0,0.0,0.0,0.0,0.0,0.0,0.0,0.0,0.0,0.0,0.0,0.0,0.0,0.0,0.0,0.0,0.0,0.0,0.0,0.0,0.0,232.0,236.0,111.0,0.0,0.0,0.0,0.0,0.0,0.0,0.0,0.0,0.0,0.0,0.0,0.0,0.0,0.0,0.0,0.0,0.0,0.0,0.0,0.0,0.0,0.0,0.0,0.0,0.0,179.0,66.0,0.0,0.0,0.0,0.0,0.0,0.0,0.0,0.0,0.0,0.0,0.0,0.0,0.0,0.0,0.0,0.0,0.0,0.0,0.0,0.0,0.0,0.0,0.0,0.0,0.0,0.0,0.0,0.0,0.0,0.0,0.0,0.0,0.0,0.0,0.0,0.0,0.0,0.0,0.0,0.0,0.0,0.0,0.0,0.0,0.0,0.0,0.0,0.0,0.0,0.0,0.0,0.0,0.0,0.0,0.0,0.0,0.0,0.0,0.0,0.0,0.0,0.0,0.0,0.0,0.0,0.0,0.0,0.0,0.0,0.0,0.0,0.0,0.0,0.0,0.0,0.0,0.0,0.0,0.0,0.0,0.0,0.0,0.0,0.0,0.0,0.0,0.0,0.0,0.0,0.0,0.0,0.0,0.0,0.0,0.0],"row":784,"col":1},"h_o":[{"main":{"entries":[9.8245916047326,-3.594589414281973,-3.9059887522391916,-10.146512298714814,-12.988394105481511,-10.301766827455465,3.228212605803276,12.15054330645085,8.423093942321229,1.9007679535355415,-18.464551345784486,-5.162517073797414,4.342932372811355,-7.714133649669101,3.7466966003551834,1.404613842719386],"row":16,"col":1},"bias":{"entries":[0.0031851612071630334,0.0003583861302309552,-0.059000842134231894,-0.1139667894103719,-0.0072262249425858885,-0.02052944027033155,-0.006507655127264111,0.13421652823117083,-0.0068188680473072775,0.016457577381027627,-8.094531634339148e-7,-0.1661748619730769,0.14696753301327212,-0.010976865873648699,-0.08596517195443323,-0.007957432496185853],"row":16,"col":1},"weights":{"entries":[0.8601380435627175,-0.9063163373217895,0.32712242432593835,-0.9907768391936977,-0.7898018172901349,0.15741486543018768,-0.0034081615407990473,0.3984328241002098,0.8886280002502032,0.23541080717348373,-0.6190334973724081,0.7152633478609531,0.896091409688478,-0.8312562334743889,-0.5707263865843437,0.2592217098020069,0.6701537561743995,0.22935834961892576,0.0039491974309170995,0.8298174962805285,-0.9416611298318425,0.6282448896223012,0.9340402280294189,-0.07025516518923333,0.11802110736703743,-0.7341154840308759,0.6985571282930607,0.4326397124432691,-0.21592446630547002,0.5609527084976969,-0.8796024547885812,-0.7115629144620765,0.6431619967194453,0.5788877450330778,0.11738539481649213,-0.6057395733739588,0.5624859554837764,-0.17399480459344585,-0.9821389646205327,0.8758164348190518,0.7337655555009182,-0.02430862776327347,0.4830790870085833,0.27197053676504696,0.02425783704544162,-0.953853419377831,0.8685522819885496,0.09485174167796209,-0.7990731294485336,-0.6857483470006409,0.3537439273605661,0.41852155658292595,0.4349740367003217,0.3690476230146927,0.18028306334056188,-0.9338856264832054,-0.8348478248866593,0.4426551850314357,-0.9020356707589903,0.06087768550151469,0.46548380196927425,-0.5283039237932936,0.6988258815935042,-0.4266424040419982,-0.4868563104534303,-0.8449237088120523,-1.120742514278834,0.8200885963753928,-0.3361576745072129,0.3120386218969337,0.6302972988268166,0.05687605143992025,-0.7682648654460016,-0.8745537582536538,-0.7187493958305062,0.5638734673284631,0.7961394529567711,0.5353445627602196,0.9521721339748899,-0.50981069106216,-0.44434333231565154,0.6883959849967569,0.08983944193095375,0.3613587568516892,0.2078507902761917,0.5536474924154882,-0.8088553333394,0.402437699897867,-0.7812834844854162,-0.8172744625157684,0.7410928794028889,0.21099228487447724,0.8747772321566122,0.571077842827872,-0.909515995197338,-0.9276319871120866,-1.3839516324217014,-1.3236224409382156,0.17293312183351356,0.19351558753434128,0.43668753584060466,1.1488015958032638,-0.2736378894286371,0.2050949148897404,0.9285984385401497,-0.3652773955529642,0.5090183011549163,-0.7729790126499196,0.5874646369605832,0.3518570465086464,-0.9542109942013348,0.5663068484223488,0.5121450645199288,0.9134112921256474,0.9884925516025385,-1.0010472120638825,-0.2177475565606521,0.6205792371086609,-1.0916337653991033,-0.698786223931134,-1.0917948241251543,-0.4928158209848934,-0.561701960328204,0.11137205869881193,-0.3321357686582383,-1.0938426131509136,0.16065510859396803,0.8238448646793269,-0.8328768219886598,-0.6187093235867227,0.1762284678897199,0.8360733625961907,-0.7053882713230458,-0.2118856440156235,-0.17845489495901995,0.8528301410184029,0.5264714705563909,-0.8013467694429321,-0.4688378195793495,-0.9325956503206618,-0.08065691375560385,0.439653147468649,-0.8674730160212298,-0.3343881144010853,0.5437383535832097,-0.012574612078574151,-0.18096242461089232,-0.8677901560401089,-0.2789910596792526,-0.22213954129186494,-0.15496905868526709,-0.08658930191655208,-0.9798294329666192,-0.996789231592535,0.4506070256622939,-0.21247059533274243,0.13505975956144198,-0.4455962971310779,-0.674127725565003,0.07264014327505078,0.9431928888763479,0.2575855515711367,-0.695066426742695,-0.6030595754070371,0.13885620064270404,0.6426212801430811,0.6674108214858876,0.005287254339061615,0.46821810293014404,-0.6266550148441585,0.49825379526971914,-0.7769125252970983,-0.03665847039920401,-0.5416801819693379,0.0340957507968028,0.5353484438447388,-0.024685226935232743,-0.6908866912784276,-0.36916558489751694,-1.0846853384768211,0.1482754158779661,-0.45716248782323504,0.04886333269408507,-0.44945044507645787,-0.03758176488845364,-0.2535004703627897,-0.9877736409892065,-0.48845490082808857,-0.8795602875195333,0.6214366124840779,-0.13728060931957567,-1.065667554707277,0.333374661467794,-0.9369756901063686,-0.9238073165267306,0.8283633009246221,-0.9922486355716358,-0.40676863542882696,-0.04501876396707127,-0.47714198802107527,-0.7047422785156614,-0.6302830874508256,-0.06788984501110772,0.18233799267263417,-0.48174873922665257,0.6711921860480524,0.9441320140258587,0.418306306617054,-0.41752685614194934,-0.2984573298769408,0.28237091706449763,-0.8158105745448024,-0.3521655993260135,-0.5550233393094393,-0.7724258131628566,-0.08514686202356671,-0.5596732470614904,-1.0314757083373594,-0.8352815245747708,-0.820490326538925,0.35552150276924804,-0.4804667708809212,0.6190756832942963,0.6671755888572726,-0.28326121978442936,-0.02995970225208417,-0.10836684983099082,1.0670479742048231,-0.42968346560636655,-0.36169267433014474,0.5299446644737814,-0.19280415268047332,0.6220874356421113,1.054414684581634,-0.6821923926568311,0.8611753006058877,0.31385813466289003,-0.6907905355996699,-0.17362592610952468,-0.44237896193175585,-0.07819375029264203,-0.3204514631790273,-0.2808011632740955,-0.34287285427747005,0.4719595622164982,-0.31971445369545315,-0.7297128237036944,-0.9971367860333051,0.09078959580827828,0.07600594730068128,-0.3762310091954137,0.8606994637593628,-0.9089171788416921,0.04978199910781553,-0.898925177250122,0.5847974026593014,-0.14995632768108516,-1.2597531002312554,-0.21546871499648168,-0.2533236613988309,0.49268462395406,-0.13439796968380432,0.4195348673485283,-0.12680349732924326,-0.02769254886451448,0.6833520965821196,0.3586043565794183,-0.4148486283227894,-0.20574260543656242,-0.7295626205110208,-0.22539123276560907,1.54234158179513,0.3878360606644996,1.3660156271373267,0.48209473502002986,-0.46954880580225833,0.5097173179715004,-0.8842516329960486,0.24472548947197348,-0.2788171324914502,0.1490186378959818,-0.8267498339895938,0.5678184281980724,0.42105408362279245,0.09604678246687068,-0.21112828128818892,0.3075969301381768,0.17233411151238856,0.16865162144421414,0.10342050666613026,-0.17689348868495797,0.3364575838488456,-0.2102898243948321,-0.24439307071180635,0.30380115612282754,0.8277728296561878,0.8673379667418402,0.6804702172765578,-0.6006182160925257,1.2488409958255018,1.4156819821647086,0.28786509683748096,1.7066291570247858,-0.16117575484636512,-0.17518635172515584,0.37668090868012,-0.14612080828392904,0.44787980888394535,0.7754838737960106,-0.677398521873378,0.7114027111883747,0.5186459727742098,-0.22159523738150622,0.7179149618840859,0.6230093408603746,1.6073249726903986,0.7779778090488249,0.8889780104494529,-0.26116794499719714,0.9063501205660968,-0.2292777960808686,0.17201377938394724,0.540317237265993,0.38921953443010127,0.2963223217214673,-0.09976523668471059,1.5157050499747344,1.3579973946753114,0.9973658550043297,1.0652139219001862,1.1186260405426565,0.6393926082286558,0.513074425853115,-0.18306102144064207,-0.009920371454209641,-0.5921405874931795,-0.7846699491311719,-0.4209651048340936,0.3668732327088389,-0.40280937528190386,-0.2924839816428287,0.8625306001598718,0.06456695739278635,-0.0948343781689068,-0.4011747981162211,-0.3620064177276032,1.4800935673237139,1.0666676744206571,0.3084748281068889,0.034881799854286584,0.22389010889280445,0.19476892710938778,0.7065901056863432,-0.5135802451791462,0.6960565591808237,1.6822150516748606,0.24593481009187323,0.9911696474104864,-0.1375304097390779,-0.28528635473712993,-0.47230771974500235,-0.22087129892529322,-0.7253977013478843,-0.7213568441932039,-0.2644940023651439,0.2311152061558963,0.8408060710030125,0.866448535517128,-0.03225356270563307,1.2263104321155998,-0.7064951690571318,-0.20282092941136967,0.1838562327941359,0.46274662472774575,0.2989110861287371,-0.06742574485629604,-0.7936355695860109,0.05324682487787255,-0.566716162985735,-0.477528171041274,0.9068645279140698,0.9696580185083127,-0.8532602211558027,-0.03647317214240113,1.6281140034490738,1.2179866960649064,0.6418839510046005,-0.36023868384710866,-0.8456164392249008,-0.4832704114006871,0.7476301341202345,-0.947339025033131,-0.6844286950072815,-0.6834438592341456,0.49590347050777644,-0.7745287013714248,-0.744527389512413,0.4531725833560564,0.4909351440680615,0.39596299101536025,-1.1884440928509872,-0.9338413250307757,0.45183116842671106,-0.04196074893091309,0.08540032629499927,-0.3627105164519371,0.9914738748146259,-0.36042766221049527,0.24929945470018008,-0.479281296171677,-0.11559532829128542,0.7969369366051126,-0.13616710504973606,0.20336271017061985,1.471686015435971,-0.3099653913291516,0.15028124121240907,0.6303693403976618,-0.7184525039838539,0.5910586133093694,-0.5975205320618215,0.7578137668644054,0.14622996229737334,0.022578288760566903,0.7564032753605542,0.29102932284935157,0.4981297716250421,0.4203726929596007,-0.41406342683253183,1.546343323183269,-0.5289836455922231,-0.6978198483249303,-0.7394684781904021,0.5501955023003018,0.6870137782358511,0.7511454409390483,0.26214666327419006,-0.7299297054266811,0.27278327504530164,-0.5237327433087516,-0.08546012458860049,0.8792030737390024,0.2489400462031321,-0.5671395972738524,-0.6199456956786643,0.3218528082868311,-0.17391773864716598,0.1472675868665747,-0.8161933711352658,-0.636803965950655,-0.4025464536189379,-0.9586069912585804,-0.14714762547201166,0.6690045414025645,0.6104222597215857,0.18878981003852555,0.2779732005074065,1.298465517915623,0.7538390438687663,0.08826399382233191,-0.5348355319521765,-0.585768566046955,-0.25621257159069555,0.5448207730858565,-0.05557675698998934,0.4547602280053536,0.5480497133902568,0.9028610360262435,-0.5277158353464582,-0.35419699679727396,-1.2910913014342675,-0.6134721839341638,-0.16100915409736505,0.8240192680457112,0.1744315075902808,0.19914038926998412,-0.5917567556039005,-0.33035469076565,0.1694019764982342,0.345913755956311,0.7345036383218095,-0.5026891747341496,-0.1554248083341467,0.6081166610395524,0.6299713649454756,0.3999267473378991,0.2631899069018791,-0.31475720226017967,-0.2812376466129875,-0.46464940198070165,1.241576060520738,0.5701246305791768,0.2104276353850463,-0.3433412353174029,-0.20339937831693713,-1.014501820603149,0.5820264916388084,0.19435432383650342,-0.43278246101585527,-0.6195024543251532,-0.28837502484173816,0.18660300658475631,0.3198405177365425,0.28398672205130354,0.7369922401488234,-0.9966850361344242,-0.7532497510088211,-0.2965524235814925,-0.04861497171288272,-0.42603273839985456,-0.8429434724262705,0.6610304773600326,0.9385507434949216,0.9246148320440887,-0.4993696545826336,0.6549055551630908,0.8797966902864771,-0.5297027478700294,0.5292924975019311,0.07957428662096828,-0.5154574595577491,0.7593410964736966,-0.9639891256442427,0.034693694573975024,0.19778711558941448,0.11421367285162452,-0.46526271682066966,-1.2106649397100648,0.6242424002701276,0.6374311716577563,-0.8798237556663615,0.4324322337655658,-0.3827089887014556,0.9508098875225091,0.13228162200721247,-0.9156614484138296,-0.82969674926802,0.8165387001927266,-0.36313723895703487,-0.12200909621829499,-0.3039698203701967,1.0315328674095972,0.2078787836972753,0.18188252897072893,0.4197661953525347,-0.3998939801954679,0.02122984402350415,-0.6696800523195039,0.792705034442461,-0.7888866740719765,0.3163989657370828,0.042706072248177296,-0.17110155644238884,-0.14002985625528527,-1.2182555668105788,0.4061515807045818,-0.44846775946834816,-0.7195288413188383,-0.02884915972245803,0.956758181847023,-0.4194720372502198,-0.18783257918770213,-0.27758743461912705,0.6703647976897442,-0.8817001639406519,-1.0465474425437848,-0.6242549622595632,-0.2598122365942437,0.30283705982176423,0.3911079076958769,-0.051670316391250984,0.5030229037464196,-1.0465512492134794,-0.5902167749731732,-0.346239556307947,-1.2383234000805745,0.8807022115413521,-0.8295716222386149,0.2542350828203461,-0.9881732428617368,-0.9425386998458556,-0.34096857574908346,-0.2985892207887857,-0.46132910381414277,-1.0546746805040719,-0.2409464163793985,0.8656683932995723,0.44268017776931395,-0.7045645946138843,0.5990205772202383,-0.36554776654007665,-0.851306196994567,-0.3414335329411795,-0.9443970117869627,-1.083707680529854,-0.2929221503117732,-0.30999634907627105,-0.0009263568402374332,-0.4728910843326027,-0.15321141781408404,0.436853808545576,0.3692748369793744,0.7731593867925135,0.19993114094777217,-0.34864254390826155,0.38087080973173804,0.19641015296157716,-1.0825917154562188,-1.794739854414992,0.12581288321520184,0.2627759390215986,-0.0835531843138796,-0.4422631594833636,-0.055618264585244145,-0.49491486186398087,0.11161980751579242,-0.9086179109112678,0.000010070412159470267,0.02669862959009139,0.31780139645144173,-0.20109641586167384,-0.5429037356505765,0.2274895486321825,-0.7411892690200363,-1.383829068739996,-0.736644172430919,-0.10351916192520938,-0.2944786551156518,-0.4105917400429375,0.31015406438245197,0.8117785114893796,0.0385337620282265,-0.29826127365693983,-0.2288183588788477,0.25296096109930294,-0.06760157905529245,-1.300409188941482,0.46977392796615797,0.15820388921609113,0.6989890749399874,0.027575996472740796,-0.4392346122398078,-0.1696246588950996,0.7979982588665617,0.1553912000562847,-0.44904965472622943,0.27030578254643506,-0.9512025521694156,0.21342993800915963,-1.2185182447192375,-0.7436705069808983,-0.5032745532036197,-0.10542320927894432,0.16022181660572332,-0.17687869223662897,-0.002664529207200231,0.5389265135463513,0.5514851928691304,0.10919210978744502,0.2335470639077533,-0.11163418303122521,-0.6356014225004744,-0.20510952348069633,0.2044628885570703,0.20514288680663711,0.9115804638150881,0.7251327559943845,0.8043558763848757,-0.5631459564263526,0.7221051161955643,0.6101088850643133,0.9842743877003197,0.754644165006725,-0.03653896080357691,-0.8092924678619147,0.07694895032452118,0.0770283156253708,-0.6233082417195963,0.3961876543836206,0.4944184191664918,0.7209294048737983,-0.8779877087194154,0.40680813363433543,-0.671981116937097,0.5861402564275733,-0.4554214877365984,0.6782341788232975,-0.5326741081858187,-0.899559870663289,1.21290050861081,-0.4261696287956682,0.7900150480303512,0.6782473241823123,-0.3372592350111731,-0.9642480616008207,0.2779485644907675,0.16978259479815522,-0.3163022737877667,0.5307520556108583,-0.13662135001606762,0.26053488078477055,0.12366490367267172,-0.3923609094539359,0.17548452594571956,0.5555808676924103,0.9480543877437282,-0.9605743048866534,-0.02775493334351075,-0.3175115779579223,-0.2390602676733646,0.3534393546534476,0.3113380747454909,-0.3380861628063473,0.8670132433498459,-1.023199340772104,0.4241932973297941,-0.918726080265736,0.14163374448390842,0.5056222159834751,0.14289124465072484,1.0014878944981012,-0.3758136813134189,-0.659507088512211,0.8477772590824055,0.9440178666053591,-0.14889720165550457,-0.2629708651044806,-0.32426632292127405,-0.20716515607656477,0.10514151441588082,-0.13782909689790657,-0.7665968441872466,-0.1102363162353742,0.4749419500861643,-0.4171574323483785,0.8763299484766887,0.5601323357792007,-0.05685808066210041,-0.14738318016710533,0.20784570832490215,0.7811398517112503,0.6208284395423518,0.9485476285728324,-0.8212886598675386,0.5473707717091472,0.024874181202657386,0.704341470438749,-0.7394044021245052,-0.4027941747232249,0.237524127913381,0.5094253973780107,0.9597644148503677,-0.060178061202865354,0.6985420468762671,0.9298481688828559,0.8288131296417798,-0.5183529496205972,-0.7509390460744094,0.31140521791276426,-0.6749150468888634,-0.7151275880598074,-0.2162180662080102,0.36381337874045655,-0.16866220190777836,-0.8639703965899783,0.6142553406645757,0.796063289343472,0.5220525365857434,-0.8607645074066188,-0.9737470589560783,-0.7614962689240596,-0.18724136717575776,0.7731348491489667,0.7037298774866074,-0.02785959760262556,0.05638964659656022,0.550060046409091,0.1914735858990677,-0.4463611114066102,0.2014925731317625,-0.4204132729749485,0.3987015001073904,0.5004753581099279,-0.6061752456663019,-0.04902555631756794,-0.6675234915576326,-0.8610807860928841,-0.9109972952766413,-0.7574297200669201,0.8428374973707248,0.4701757028899724,0.9400955126779543,-0.7340268795326567,0.8056907537609129,0.8020764903120411,-0.06919206825984561,0.23598702627699386,0.5742047339157449,0.10234056936421726,0.4221194008935763,0.06263473590170768,-0.6347212584189249,-0.10889420689779261,-0.9560317452042023,0.6594604491681707,-0.86442651962859,-0.11921087184743373,-0.09343804435806466,0.02354306419154572,-0.14461548985151507,0.8242142758862644,-0.9004776622430221,0.295692014065937,0.2262038531105668,0.9801640192939066,0.293720287484814,0.6150233187720521,-0.30349651511653847,-0.08015658100314185,-0.9446427612072,-0.09689111060906477,-0.7475932900312859,-0.47354125957676085,-0.478108648133393,-0.20322467901530467,0.8161560698874585,-0.5166199118887181,-0.7207173494588318,-0.6962617706895006,-0.59305265167836,0.11340379749079493,0.026450966700828738,-0.3154608084028225,0.2639123822785657,0.5166757526231603,-0.3294033936408149,-0.022401412314435987,0.27463201565976464,-0.13894587383412982,-0.43741880095460467,-0.04855065728785496,0.3976485767420675,-0.21876711234108276,-0.9690771539929487,-0.5084752069134232,-0.6211963806462683,0.07110943763008762,-0.4842725341978399,0.907196554704944,-0.2690113972608782,-0.41853359043228483,0.49248220087860106,-0.5956619538645289,0.5442734904153902,-0.26216896995681216,0.03932594199054187,-0.9291501553923297,0.0883940514507793,-0.3482064449787722,0.14900445505924148,0.8249905296886776,-0.06951685535334176,-0.0880923211013871,0.7251833760160523,0.7882031861541575,0.34275090491909116,-0.729302638792397,0.6320022070324302,-0.45318447494263453,0.897609728241285,-0.5304243418644098,0.002602131075362834,0.05744401445240649,0.10020644870749273,0.7226336976113438,-0.5584136513586688,0.23141315033964602,0.16486654292625466,0.38708517889578503,0.16574574026354078,0.5813789275906197,-0.2718970134616056,0.9572527734925586,1.0258537151836842,-0.10328169830735034,0.8734313746484245,-0.12508598493673095,0.5804765397797121,-0.17367056844491538,-0.6884331330657482,0.05373869344306078,0.7144326783355263,-0.343788661764228,0.6005358879602188,-0.6185465214631259,0.041324497898872645,0.168879772769728,-0.31468449983766406,0.44574824776817723,0.8220160112786611,-0.7805263864486615,-0.7677973139612925,1.0645041104524062,0.17262544384930742,-0.031775779849303985,-0.3921107700282774,1.173008430596839,0.0454246882806168,0.22896997160161592,0.19911147977605034,-0.7424878801409469,0.35671329688038617,-0.8081307919339642,-0.5239926126392387,0.4144975406380259,1.1903906933083577,1.1551645130101722,1.0250603027395733,0.31609017959530245,0.8177636979184902,1.0430124373295717,-0.6121130965444946,0.03197557786742111,-0.535704646599391,0.40899363223238866,0.8008986898836591,0.9747202558485525,0.7307368782903483,0.2568638950910433,-0.1558578366363569,-1.2773079629769595,0.7641097458970751,0.5535264996794139,0.03130997577643187,0.7322178798635365,-0.3549290879957621,0.6206037606120539,-0.9469401131008919,-0.3431096917883115,-0.18088024918814,-1.6855795310787194,-0.4167979687015852,-0.5888433187540159,0.42041574816391164,-0.8066243049014136,-0.412556340870421,0.09381762204562012,-0.9493649733017996,-0.2176833316041018,-0.3613864940452493,-0.41066789865691494,-0.6206384482940713,0.45387222406338373,-0.6388264049227838,0.24770623454432752,-0.6610085332532657,0.6807400359273404,0.40714314239987626,0.5907605761274302,-0.1446938465658236,0.4134182262612272,0.47709143759902733,-0.32898238784091793,1.0691369309130339,-0.36840426303804336,0.49232711682797364,0.2711589104224096,0.5774298045976715,0.24788443245273417,-0.04943400456906684,-0.46311804940611395,-1.2679210126132994,-0.69527536778877,-1.3216782612886377,0.554442462124017,0.26185801360290734,0.7911199915936228,0.7587335535593632,0.4634651612297745,0.9748503103324685,-0.686863038271977,0.9454269968086376,-0.0570815382755288,0.45065571433044266,-0.49310783552591686,-0.8667954134556742,0.7770423858825122,-0.8311096497201742,-0.6187552565167145,0.5567909322267667,0.053789882028222165,0.8960371189554989,0.46170681083096915,1.1260889944754837,0.5440956384310174,0.03511752217086397,0.5488307281238248,-0.11626181896277192,0.31251678633642016,-0.6679023701868891,-1.4055153718124775,-1.122765972075636,-0.6810761823804421,-0.1758500129957253,-0.42635961184655924,-0.254761461636057,0.6841501315729078,0.24277306635832901,0.8415815450762868,0.8930759782897996,0.06851888036504991,0.25633502267621333,-0.018294979040799166,0.3149532849717714,0.15912782359481503,0.5060205223212793,-1.022864406555563,-0.44189088213761246,1.04595661044608,1.0968924990404636,0.7305270802255122,0.5567672307561127,0.9600985971620796,0.8289597522320232,-0.15335559106275243,0.16021330221848368,-0.20169915803718017,-0.9566475297164894,-1.027813143481151,-0.04720712277391196,-0.1867811823529164,-1.378241661601052,-0.9661965873937769,-0.12165335323487406,0.9799663736106595,0.19465037548368463,0.42825123022403316,0.4391290637428513,1.0605594439476407,0.4043458382306123,-0.7548923155232107,0.8755640875301688,-0.35889722296960463,0.0900829384171854,-0.1422503176602704,-0.610977061890227,-0.4732962701426191,0.5463752256980976,0.9534463235860625,0.4962963280321005,1.664253910672934,0.1573543886400029,0.7214345350313706,0.8022934900023461,-1.181086254514451,-0.15921162572650344,0.7213501617570988,-0.053598294138534716,0.1490670001133135,0.26131285849804525,-0.8381283726309404,-0.5228243389021953,0.1825546479342708,-0.5350995026756117,-0.8478913633580426,-0.5599247402644336,0.04930866833012059,0.7155467917850111,-0.29171120302247633,-1.1341599612979718,-0.8060639762429822,-1.1628429043131223,-0.5899940939682522,-0.11987142572739007,-1.289481184485973,-0.30478336218075064,0.07822622531373372,-0.05141379306130574,-0.04142091078067416,0.8170756278000858,-0.5899884426228731,0.6426025728553503,0.47987779916034656,0.3766100615548188,-0.8316031110151183,-0.43720215099224813,-1.3625344876368513,-1.1792489847161645,-0.09451593288733035,0.11026285539065156,-0.06899167306970283,-0.2517852652115589,0.14099363285175281,0.48617621360052216,0.2783601255346268,0.2722962783710361,-0.8669365178631241,-0.17174792688656507,0.29547211162073467,-0.6449768660996832,-0.27606019786214664,-1.1424932368307121,-0.9762331022347468,-0.5065033182160532,0.3848414321207666,-0.23665130539502724,0.1873666536592093,-0.7017182718836247,1.1129988960205235,0.5193216065191746,0.32698946310841565,1.0194250110890555,-0.8930494490004679,-0.0603617912536113,-0.9587971793237705,-0.5868399739744395,-0.9215036281611751,0.9316500873802583,0.8374277639633306,-0.4875322927116731,-0.9494945712432344,-0.58793117846515,-0.9359193205684986,-0.05469207241859178,0.45083068554601147,0.4857850413865178,0.30143480148423024,-0.668511229792011,-0.09777055260064803,-0.3586823662168809,-1.386667878848116,-1.869768626906895,-1.092270116612905,-0.5212946101987125,-1.4563343477886133,0.4178096589542557,0.16444146812294208,-0.01625899936025113,-0.4643118460834892,-0.7899644570261538,-0.8210169590420682,0.01363719934121643,1.0585493352610071,0.34459526345550734,-0.8106699091264654,-0.430476536333771,-0.061569260624224076,0.4796479704046493,0.34004315842352223,0.19810423375702668,-0.78687939105132,-1.2006172943834508,-1.251139012772593,0.2949868304684006,-0.484670595748474,-1.178189242298946,0.017939857167736578,-0.1905018620654401,-0.1384762856414165,-0.17521145526216603,-0.7711808778461889,-0.7837305541755604,-0.19769207216270823,-0.5154469051980496,-0.11896241293443982,-0.6516517254908104,0.2547879089580954,-0.2907743539384409,0.3320619898233127,-0.4982583686512184,-0.20044761297073083,-0.960146263022285,-0.03447852594627506,-0.07405433399070147,0.3284875633869098,0.030722881438194797,-0.3462449285666109,-0.4674207682775143,0.46698377884938197,-0.023989639439488158,-0.8301346888403108,-0.19478165128537434,0.07387693461998149,0.06897011303256272,-0.9759999123312876,0.4922628061281754,0.5081259150338977,-0.8828134135018694,-0.753343601954347,-0.06957807655301693,-1.089449950343395,-0.8197466929688659,1.0213218772017234,-0.6460511602036791,-0.7692914036530188,-0.39185319966525106,-0.09119482759771122,0.34625290929612135,0.8711861571581978,0.12712103484780854,-0.022917397245663013,-0.8464412272541703,-0.5303027124812064,-0.06791800557733571,-0.6745316127260615,-0.10125008574176916,0.08218602504050038,-0.37648076778341605,0.16668625701159645,0.06512394421089035,0.936692813530567,-0.08791425480344779,-0.41624970583730553,0.3500904959227249,-0.2618358330357069,0.08169423078903734,-1.0607565462241875,-0.7942749153920549,-1.064560128752025,0.44223758729087775,-0.6188685991079861,0.5212845650709907,0.5894876874618683,0.7414728207732925,-0.6969741849740324,-0.07932791261888386,0.18665599063706292,0.006125987266595528,-0.3365271368234651,-0.3979123788721584,0.12380942412866666,0.9695362185914113,-0.9072819353076765,-0.2617266752765712,0.909065362179484,0.4017773832639906,0.4530411402669197,0.8064193517947331,-0.13572233636359973,-0.4010135074179764,0.7152273895294361,-0.16261053812670248,-0.14332016784281462,-0.46539920484243397,-0.576332461904252,-0.9122891780090079,-0.8275665646188362,0.27027056424063106,1.149358593765299,0.5436640236087591,0.40609144866266544,1.5493264694063844,-0.7811749613131683,0.7887979723439396,0.6848223613250225,0.31500910149519346,0.2021374406934857,-0.05728538533682703,-0.32023327903918425,-0.10949023513456538,0.6554464791307767,0.2982713539112732,0.1678671270544563,-0.7189510286478344,-0.014480436950214835,-0.38064926145496336,-0.2830340650365231,0.5193699598696463,1.1821646095195748,-0.48222716238190166,-0.9027283223128013,0.1626557046078277,-0.24085556874859598,-0.330718156136278,-0.8425845028462746,-0.13117387988817852,0.5666274760490704,0.12006599577437714,-0.20331809445364393,-0.13590829215774808,0.36682857320772516,0.910247585715505,0.8793331222592663,-0.5070093714172574,0.465663667931737,0.3084500483061426,0.2185706547599769,-0.654621416099671,0.7924052886376466,-0.7699761872615946,0.938862055475656,0.24159782754956416,0.6198939277191219,1.313632658489714,-0.3127216192831826,0.02272339110198393,0.11696614358234957,0.2256746683015478,0.15560006713300967,-0.46950781838599714,-0.07443271560871766,-0.2700818619837339,0.84637330512414,0.09745032907987354,0.7335976905796494,0.10823886737913851,1.2097833882860893,0.7400588408515091,1.1769667128563899,-0.34347881305649225,0.6189740595067414,0.21427959917457065,0.9639198255804988,-0.8127204776700899,-0.6263756997558768,-0.6720681858844878,0.6783110227221857,-0.1277706925254837,0.7863514670535402,-0.29188781287351895,0.9051658739171765,0.9053515063767411,-0.24402512154337844,-0.07624540091568116,-0.39844103023982397,0.5335073419742721,0.03122441701561433,0.4632063502307429,-0.2540609673068623,0.8152366053546638,0.48750849742949703,0.8146565333796714,0.6954800744589479,0.6271361434995673,-0.46491484616932544,0.8006829790217554,0.198977306648536,-0.06990353161182877,0.17019354960165725,-0.5898491727063091,0.9301859196236212,0.8644630588561261,0.4141201514054316,-0.9469497408091853,-0.8941835003597288,0.6248601749694465,0.14325116089000156,-0.22161906398927764,0.9663616343614855,0.029607446328291345,-0.4436736715589849,0.32151398614561066,-0.08354699485395256,-0.49216601849786656,0.020301197492717995,-0.6661868327416257,0.059204800502647335,-0.1352590805045169,0.0818715536635618,0.14197842956513806,1.307796716643738,0.9800416663518575,-0.5447631743285223,-0.1973294104444055,0.5211424037397228,0.2050860110729074,1.3040671383250455,1.032155361093361,0.21364642854890356,-0.4116690727688285,-0.8653365372484411,0.5187639185196432,-0.9674920593731163,-0.6749567137399031,0.12194052023527131,-0.5512624175730747,-0.3608924111003631,0.5203350253375357,0.7390695276329283,0.0706004160995046,1.212991050401286,0.7982154432829123,0.6961751531275011,0.6254312092160642,0.6026544931075049,-0.08309939936554059,1.0191296626800679,-0.35065588827369704,0.08956827639110411,-0.12255302572527149,0.2220329108061493,1.077480566236915,0.4161259884547598,-0.9529897161665402,-0.6365928807347968,-0.7001201463153285,-0.9103735547128308,-0.9768681676760437,-0.9387798924810277,0.16734689844283213,0.2467680500207572,0.14043854800067893,-0.5544030071092001,0.9625702033920087,-0.7341150983212283,0.026793715732923266,0.48970771571226596,0.9993019905349964,0.2303540027292573,-0.41831555078383964,0.6330338795742853,0.5345589500614027,0.9110260664035229,-0.6035015913197169,-0.040917042465366794,0.3381598365054575,-0.4397382267706384,-0.46900832567319006,-0.9105627536210021,0.05541039993361281,0.27440163076228136,0.05191757687612856,-0.7605531065952428,0.6504036152419006,0.3657288333670876,-0.8355091283527797,-0.8645239107850299,-0.5235557206383376,-0.01390224657543224,0.9675430778454225,-0.03838269255035187,0.15980127312363718,0.058513545658055784,0.5516623554950788,-0.04245845788358364,-0.31453260009089445,-0.0457195348875766,-0.2671852758728758,-1.0298701940405806,-0.674282246396742,-0.9679054779980909,-0.22603312775355827,-0.7898189375028194,-1.6541680522264495,-1.3509170675737971,-0.5779475867441504,-1.0792488210191518,0.06355890009475357,-0.6317097531875713,0.23734001814373945,0.20227988019735854,0.3165490441338101,0.2672753022248788,0.8681808937222434,-0.6679960604570067,-0.3727759048515786,-0.364955623292664,0.29811270048573474,-0.9948463476231341,-0.18415018004376466,-0.18183945546083197,0.3935132995310737,0.11004012249292694,0.058269688547469334,-0.06154953755279627,0.09329029106756827,0.577172653050096,-0.2894104109133635,0.5790052306624053,0.3952512089076978,0.636856743517689,0.3928482155481638,-0.252076621104601,-0.10222328370902628,-0.5190070831075301,0.3018767655625516,-0.756754625091217,0.4882320512124001,0.49906898089760987,-0.21759090771030082,-0.6071020132124073,-0.24921839244758437,0.8609431003899911,-0.788684245927728,0.526754957841488,-0.9490733669992811,-0.15283015363434926,-0.36736773667896455,-0.6156673701966545,0.5308328325066843,-0.059382869382139096,0.732744158898366,0.6095728860779174,0.576683293062855,1.022411084299284,0.6725831173150006,1.2949048872163296,1.5710576896523123,0.23300677082401752,0.4464836126898507,1.4428234901700836,0.2488527992214252,1.118446254033513,0.3022210266329638,-0.787635648229851,0.8290732279147842,-0.5233846610227609,0.2489851285998451,-0.244331112146429,0.15522347551947924,0.049379152323622,-0.07707822432179173,0.28363410241601367,-0.1923493482224614,-0.24874510125626398,-0.3453894728509718,-0.7195720025954847,0.3065318393985748,-0.06496619604343579,-0.7455371603773081,0.25833079196764724,-0.4775220528964187,-0.16563948204129642,-0.3279649148002977,1.0616619802075504,0.9859746297755754,0.1331221278018975,0.5670139954597044,0.3244620672564893,0.06920308175845698,-0.6319011829786839,0.889329385310778,-0.7085642195543456,-0.09712555203313589,0.7742697413583656,0.2886645806733131,0.747245501011521,0.8886084908227091,0.393836261228753,-0.6818956718247776,-0.7834826462479195,0.8086262773801115,0.5424678728333107,0.3924366325237936,0.11747079983979111,-0.7503409571162153,-0.5713812656267289,0.9524813778386075,0.6674273125877938,-0.22527844406737896,0.746570983627903,0.5915349859814679,0.034727599692399115,0.5987999181001118,0.7791767579251535,-0.4453429744775272,-0.09839423911963069,0.8164120678286305,-0.5971116114815106,-0.8080362132571267,0.8467406656623687,-0.284522666394962,-0.9935964995464258,-0.9064279032287451,0.35213643367679587,0.21171081117216484,-0.1620899284657653,0.8380084001851417,-0.4411279511382855,-0.9467454551430411,0.296947047978003,-0.24215447278943936,-0.25000326697659786,-0.06777564770034719,-0.48470468458044835,-0.7129371035810578,-0.15315208720790907,-0.25081423486732807,-0.38698076641586776,0.7189854311510574,0.8440234881139003,-0.0680137904406707,-0.4902220717772534,0.9438189272201883,-0.9954268805460823,0.13329849842172647,0.45901218135894717,-0.10651140218884873,0.2889178037975937,-0.031476488293035704,0.47560299442847154,-0.1302883097614195,-0.7932617775512384,0.8708879264224557,0.04587987454229079,-0.46738862046140794,0.2783238208457768,-0.5258525470692109,-0.6608689829693964,-0.2202291796193907,0.7921357613744257,-0.8260112102008358,-0.7087357163631999,-0.6159724996303294,-0.14451512909518924,-0.8775157827299938,-0.8645101183604953,0.4627875841163529,-0.5740458336500439,0.37139257580310836,0.5603277329688423,-0.01561494176400743,-0.04269484254818706,0.07053945719743153,-0.17036139303119402,-0.11633574406741602,0.5959662318866167,-0.3621516878962885,0.8766246112427653,-0.8111854334446799,-0.02509611834713168,0.9404680328885066,0.37862754993679837,0.7871609785144144,-0.48571513268692246,-0.9882580068218526,0.016019921722981063,-0.8528073921096301,0.6264258535481398,-0.28621811275747233,-0.4596537822246203,0.4794159139220713,-0.8904765343980281,0.4898911755135444,0.881037555572751,-0.5512027410261615,0.5276475455222147,0.8309697035071656,-0.1688019377192547,-0.7133509570820833,0.7141403708993791,-0.9277248192144913,-0.9955085521767191,-0.355924103730364,0.2868789841223629,-0.4882840770111956,-0.808034516153974,-0.6481309073166229,-0.4610466521134222,-0.9225255969261942,0.4212074305502387,-0.6617262147285318,0.08827674856434607,0.9318615578287085,0.4318651448890466,0.5963993382543186,0.8377754878852045,-0.6432807152081209,0.35804614373589166,-0.776420815786223,0.34237889843604913,-0.3576254148008561,-0.09647903766921756,0.06008469892907873,0.9353731091446184,-0.6170437882797406,0.40355645014449637,0.4705383595986881,-0.327327626290416,0.5308979188919408,-0.9125146119253228,-0.4591675155962042,-0.33063268619112657,0.08660623883798704,-0.7613107403369206,-0.9660920881817142,-0.5801168370412954,-0.6001398078781218,0.5410953929952383,0.14337947537469553,-0.93144892294769,-0.30131882993990566,0.8420494379785085,-0.3756015134199112,0.6752496714952413,-0.744584149760139,0.6276534533261154,-0.6374997618419483,0.40037777803210545,-0.7249911169960538,-0.22584120570702762,-0.17490616989950186,0.7299077149100796,-0.32773234589260464,0.8366942330941579,-0.6660814240715462,-0.7924462096851139,0.4007178475114064,0.784245169492536,-0.7990503061443052,-0.019696159917290162,-0.26039443128575196,-0.40775011851019277,0.990685536628203,0.043848577794798595,-0.7231030193567684,-0.5956191242873775,0.4612738859457549,-0.9447475053664883,-0.5823657061530018,-0.21123065533590868,-0.32913012860207824,-0.6714531914081177,0.30242797756329487,0.8577487022682053,-0.5235220675536516,0.4768714501922553,-1.0593047049874065,-0.7776850541498967,-0.5267851405350831,-1.186177382052911,-0.7853543162366784,0.09703004130531911,-0.5135246161980122,0.8871203426827334,-0.10488954349497129,0.014749197430431038,0.3930210460678765,-0.22223542515686112,-0.46327371353391933,0.45346617254789623,-0.33146154725392396,-0.10921673289393492,0.678783035609196,-0.35890525708348275,-0.9334144472015488,-0.861419135230011,0.6013627141843844,-1.000847895069971,0.03916660203417193,-1.1697856600444827,-0.9707584539774995,-0.8249302785303516,-0.5259582149135982,0.7946321685732238,0.21567811257330186,-0.4235776359200866,0.16574489256545966,-0.9113272750655832,-0.8982992944245581,0.32527048075284437,-1.1964552386848637,-0.39263216641072396,0.24842255842375788,0.6496238146059654,-0.144145502573204,0.5428524077562089,0.029010864579397926,0.4015240946455566,1.0567634114689444,-0.4791683201879594,-0.38783267368804986,0.7433366085233061,0.3879669475655947,0.7211143959820271,0.8234961549479866,0.5644840996666765,-0.8885847402298632,0.04077925633216296,-0.2226107749593465,-0.37898638919768457,-0.876004489576375,0.15575345797263745,0.8574216171973321,-0.6716626260756526,0.3873063935287495,-0.9504096036859077,0.026686898353508428,-0.56290190185952,0.7201957069968914,-0.4729021562911307,-0.012459608105944084,-0.7934437870582944,0.25974695979117857,1.0585751917456308,1.2415849630301456,0.6179480773010052,0.2683215040900023,0.5065887450937989,-0.6468132753404496,-0.6054948509099233,0.9087993742993808,0.5707235892536852,0.4829730825822558,-0.6103621635107339,-0.47440593849263085,-0.16776898403089321,0.5743710876301631,0.4627259053453505,1.2454166066338799,1.0227134973690675,0.028052971970602462,0.5399887286750888,0.23795031338813666,-0.6473807213198248,0.22945535852165155,0.11013799831037963,-0.6226968401695986,-0.4171273981413551,-0.3251779872774389,-0.48771611335829107,1.1661671454822673,0.1378459555496489,0.4879513759535236,0.35091411928957755,-0.42363815040633046,0.7198426233128801,0.0530465834188561,0.6386600231789362,0.3058189928921532,-0.5330299916029017,0.2820323350611726,-0.963323963520563,0.24652811262179,-1.1419449299250286,-0.4111008713875246,0.80204230574369,0.24792036260013287,-0.2878177588100571,-0.5477073501620027,0.1951873708800401,-0.05891093603452814,-0.05318368952255399,0.36041413069590894,0.5439939551467815,-0.7283567408512207,0.1587537548204791,0.520198054050794,-0.7669841234716688,-0.04429256746030998,0.6558134374205444,0.37101053674321405,0.7080316736199475,1.283605338307387,0.24630139776888924,-0.9165858466045114,0.918342772296119,-0.403547995982667,-0.7854274108677524,0.5164491557741129,0.40214177873419543,-0.5730186514458426,0.8670996222095679,-0.015305616708670552,-0.274983816445004,-0.5400750474643903,0.26703031626123314,1.0454499664321393,0.6871516822850027,0.3987625276420191,-0.24226944065826708,0.5482640487170732,-1.1783352603878219,-0.23381384083058723,-1.0175687104864815,-0.13071648344987022,-0.1905037453371888,-1.2614338003111336,0.8412772922729983,-0.10368746353527225,-0.7835891477118492,0.5940616803624619,-0.4923788927270845,0.7740743023407287,0.5787026761837853,-0.6683746624391175,-0.2764146820771831,-0.6834749834342132,0.4399164614181952,-1.0564026594704594,0.7417423419550393,0.33686984097520134,-0.21952774147378823,0.29416627686846997,1.0341650837294485,-0.43712638216249294,0.5667616040519289,0.7526629326815044,-0.8778311799111632,-0.4667340195969308,-0.07131408782872811,-0.9600550085715469,0.3121918404650402,-0.5196687110870964,-0.9186768256222144,-0.7611083653396683,-0.175384200554463,-0.6301916004449155,0.5905504008955694,0.5241751346752106,0.8933076823278805,0.5572849910127572,-0.6948933413021808,-0.5730113584197692,0.5152139296268595,0.7237281990422874,-0.5469532633620692,-0.4566198294548574,-0.3195024653328211,-0.48815296896368393,0.2896301580162697,0.8526196586397515,-0.2551774355093614,1.5509258698223167,1.377550564734015,0.9439454642911134,0.5489086303537883,-0.34330618972445887,-0.4196528720814014,-0.10893064272236808,-1.318184372350642,-0.5676314026725936,-0.045783896937119296,0.027676102378808885,-0.060452602473610256,0.3673814549054376,0.39277494362402243,-0.2538090481075775,0.2612284624390939,-0.061418953931198235,0.6145449272369382,0.7450324809995518,-0.4814147152218614,0.2817908735178538,-0.7660752786442288,-0.6778571776545097,0.3559038883424363,-0.1992209892767926,0.7258069979514297,1.5356966201898348,0.028170027518030126,0.18310248557825132,1.1800356222890238,-0.7107387493189473,0.07817384840983828,-1.1416578298458906,-0.5395816707231483,-0.4370732816242158,-1.0997612952627465,-0.18237612675441817,-1.5445400574728503,0.20710013368662075,-0.3406915607916589,0.47100635917593475,1.0907493994674797,-0.6128806190763272,0.06998007163540199,0.12343930097069697,-0.6519773742118519,0.8401941868907786,0.13803402194980485,-0.2891731311266976,0.41143338626731774,0.4961359755272446,0.003967154655617134,-0.39192555831883663,0.5011583416585711,0.030413017188489194,0.6611521574107079,0.3225531283898915,0.9131328795922069,-1.0065110282129464,-0.043580404768835915,-1.0311808417899837,-0.24238363922894873,0.19510032521923834,-0.15475540178088074,0.3303463312613292,-0.24793367946219078,-0.356427618808676,0.33644379288573895,0.2586850770026115,0.06635435567468995,0.19937877346004831,-0.01602093828063073,0.21626764913578428,0.6229879554866916,-0.7066203140568025,0.06467039593066688,0.024760472755910038,-0.8173206549357448,0.1740275637737091,0.768233998949978,0.30969433461459167,-0.7187355684320613,0.3178555931484525,-0.3941739756834014,-0.6110745943754715,-0.21268309544534136,-0.24863339896866635,-0.3608743730497196,0.007150135939308848,-0.46751137636486206,-1.1974009763513491,-1.3684063958682884,0.14418153838740452,-0.850950138569417,-0.5243903447699828,0.05073726505748864,-0.16847037034915854,-0.5723723537332684,-0.6152437765920122,0.10921095693279272,-0.3417099544495351,0.43053458674011813,-0.17077654775393425,-0.9585069818010695,-0.7478329674359371,-0.18237598678373013,-0.1697013005552592,-0.5182117069836952,0.1210581339009728,0.007738386925782797,-0.6608675606685751,-0.17701175940157476,0.5821741213992446,0.1895206153927242,-0.4569158304210449,0.06492250770604932,0.3199005514644392,-0.42506534753125697,0.4270767009995171,-0.6261846609548654,0.5409659492427684,0.5592840866894372,0.42445584370311884,-0.14546687564093724,0.6783061715346297,0.75020594506064,1.2516515637821712,-0.5198342060766333,0.0050760927640944075,-0.7276339920589362,-0.6724130446245612,0.6714972871521286,0.48188883429017415,-1.0551114029572324,0.39976273331799844,0.33400270895612955,-0.04296054832868172,-0.6467845960306743,0.5641008396401168,0.6208770780518275,-0.29982599194378345,-0.04468338606747566,-1.068673891841005,0.01672142470440716,-0.06876818388201453,-0.9986125925145557,-0.17462348148483348,-0.03183255856440875,0.20186538592902106,0.24500358549074386,-0.6388448550884118,0.5949199499903496,0.5171832685837452,-0.8231764472568197,0.4919794261912698,-0.896583878024522,-0.6698340624854139,0.21638369387300266,-0.7687336652854594,0.1830069610288887,-0.3988026695542206,0.7210127081669163,-0.8607122057154779,-1.210326032440615,-0.5883052675489112,-0.0739694218023992,0.5449421646313115,-0.20733095731561524,-0.08224794272053106,0.7554801222177877,0.4456967544441422,1.248707327255731,0.6089973569837451,0.43007579836854093,0.011565143265535899,0.7627150737641432,0.13693582394027493,0.6691858699350666,-0.16369135206120172,-0.3808110541038194,0.34695100917825705,0.18342297403869653,0.05420597163330903,-0.9758179570897908,0.6504657723568065,0.48687139041795235,0.053369809448589794,0.27421305541968866,0.9532161555725452,0.3592487388449906,0.667022171329926,0.0869804151039611,-0.5395616083312507,-0.18113854108593394,0.8925156312603887,0.24860517519985917,0.4100504442177332,0.9190598004394002,1.0217913724814078,-0.3532558867544533,0.22097608848644903,1.1452070017510008,0.25603069067899425,-0.8670772426132463,-0.23807436384656214,1.0503806267564684,-0.5640531826823372,0.8984219324741052,-0.04587748524854948,0.5475351854120579,-0.1734463862273767,-0.9600904474338534,-0.21923796556503297,-0.3868159486319278,0.34395064198890934,0.13431977914059035,-0.5067382197638206,0.9447496200281653,0.8573797216258942,0.4216662138078079,0.0879206572353914,0.43096353075670757,-0.018803818472803505,0.5421504052302358,0.09309206602341093,-0.26332611303893255,0.5783210775524414,0.3681333995277027,0.6905972437420016,0.22336099570561166,1.0813618652095307,1.0414390030162362,0.6543235972809015,0.5343072350240523,0.06907710498460744,0.4744318689402287,0.044815824909525195,0.6342790666826783,0.6831966387658086,-0.10799368271190249,0.8607015920224622,0.2623752330321951,0.4845301608293189,0.38220507181545904,0.10432450756128837,-0.32113373980349996,-0.6198146856181456,0.985315900622364,-0.08187140972940374,-0.18529478177891096,0.6442951126570073,0.6841667013784418,-0.6244867734930053,0.34460294541355885,1.1377953899202262,-0.23165172020142485,0.1516137462975135,1.141161956625978,-0.2832931104402804,-0.4073591080927691,0.08177898540764275,0.7703664178876584,-0.7350208743657104,-0.9321987817551989,0.5174538676647253,0.5038725207761415,-0.12652504625575742,-0.19355173081677204,-0.9501249726489768,-0.13887744263222426,0.839958546182184,-0.3468539996793478,0.19921401581524983,0.13083009010689955,0.1783055066699547,-0.4336753340431812,0.07251256500536896,-0.707235289494043,-0.022806412693611697,0.2992929912855372,0.8756035985178986,1.1549411747478255,-0.00004668207312570872,0.9448163206952932,1.290246952674254,0.722829736426427,-0.8025577118954655,-0.07557753679065134,0.3051919844689953,0.24992907724389354,0.35079932071343706,-0.6105058669942505,-0.6526662598847238,-0.5080866876149208,-0.7566121594472919,-0.014961870868142272,-0.8445783762019922,0.5706402713988593,-0.9499864556837739,-0.3864184172394569,0.42581520220494196,0.24334488961251716,0.7061615106440186,0.19660339691560375,-0.012122685104899692,0.34442044353723233,0.15261292359280015,1.033584082652086,0.18198656314761788,-0.5183975884520268,0.06339054008239733,0.02034889211727387,-0.94804353381241,-0.7172009608683189,-0.13646191195214094,-0.07579136764558159,-0.837477978790011,-0.18280222391985013,0.3533505678955311,-0.3076562067229706,0.6876460153493495,0.11347668440130208,-0.052914021720043364,0.9296558819297664,0.21036766851160765,0.8039834707382728,0.3181834892692381,-0.8340301438979504,-0.5639196898540276,-0.9745788881863132,0.148550349264644,0.9250966018206414,-0.16973557515978516,0.5535482579668858,0.6677876281049593,1.4450898207036553,0.3662416404694783,-0.38986152948228153,0.8225840014483294,0.06263897113751227,-0.409448744656689,-0.6529193719869004,0.2709533377790623,-1.0972985139817726,-0.3600630773257505,-0.5871898276317818,-0.05123068015149871,0.5619726252417215,0.5070998774814496,0.546257883943502,-0.695330856485117,-0.407980646585969,0.203711284835824,-0.13919534066262176,-0.5126839813511301,0.8804011688072081,-0.24094826722687213,-0.2278745152693631,-0.28381527753603286,-0.021520167388493223,0.4383482573350208,-0.09276038862567508,0.06944298916789407,0.5733537977759381,0.14870517688053864,0.26387506378117254,0.4591095862820038,0.3812456532167782,0.2588714973251844,-1.0171509917025057,-0.4291763471461675,-0.488643046311532,-0.39341726778615627,-0.9228159922827223,-0.16659400905406552,0.057193671815691356,0.028751364459802073,-0.4871816801869714,-0.8948632809019591,0.48603355657016056,-0.4606365399524741,0.7990839767101064,0.32465341610729115,0.25905296726706006,0.38906693077607435,0.7969065510573835,0.26861363544415107,-0.45104891314314766,-0.7539983713283996,-0.8348357246681158,-0.05965156704550925,-0.500571012634934,0.28480690042260015,-0.8674125939027388,-0.9356197062750847,0.09017942952244785,-0.13350556293375068,-0.6948789004938437,0.07820097066782793,-0.2335387102466051,-0.7011925115099625,-0.36518979633991844,-0.02866807788733872,0.022928303318221977,0.6427543284037268,-0.6128482777108696,-0.848034003097904,-0.07463996192508014,0.590501220057737,0.88096780328256,0.6681277202103114,-0.470157582202426,0.26396392305221794,0.5253182003168918,-0.23158817796786968,-0.19039792442220405,-0.21292293252207006,0.7664241083325484,-0.5252289304826249,-0.3355548227174807,-1.0058387543357126,0.3771867224651536,0.6794302445507272,0.5550316159461772,0.7265307433803141,0.8546010310806035,-0.5661916030881882,0.8969341457705484,0.01856351238969259,0.3993928361533057,-0.7164359436180475,-0.027754122389925136,-0.4607244075415726,0.15705029729631548,-0.23795959444219905,0.44575301436121273,0.409072492306373,-0.8408340949953496,-0.4066608064112185,-0.7226411260744727,0.24717725499089208,0.8474644371051033,0.2586937193890014,-0.8278100418762027,0.1797230603922649,0.25029067014645895,0.18153789471715717,0.5430422216898976,-0.7690321338565826,0.06094142251761476,0.5797023555817791,-0.570710279637012,0.5695937026650497,0.02692720867998081,-0.8988524943653797,0.6221379700896035,0.8440695846410893,-0.19801789558944152,0.37215534175229553,-0.7377401679844271,-0.13968302031888588,-0.46206346439310847,-0.2647477189813103,-0.5673717387898696,0.5688786711554481,-0.9718139127064099,-0.7222061335071099,-0.5496888592025092,0.6037636523376604,-0.045394026729791266,-0.001146082311420554,0.38673649760927115,-0.8523290321031951,0.2998172208954824,0.6299720726229838,-0.887155600308904,0.3560580823869874,0.2558468293818852,0.12394888730086169,-0.7136155824842493,0.5697917107992612,-0.6089268250666255,0.8489739465799875,0.1340072834110709,0.39068589464082143,-0.8274079189768109,-0.25876513843717697,-0.8596336279336831,0.7481872969435857,0.3611425110947551,-0.5203884548746516,0.6769184457718185,-0.6159607386255426,0.007087632741084429,0.17483659687625006,0.07976082923176503,0.6219510595358304,-0.825303966688056,-0.21132293236519453,0.607557214790919,-0.48209849993869364,0.3278580472362554,-0.9411596675200263,-1.0019302407986754,0.5622522517166209,0.5270573794154839,0.6859207216019407,-0.5309626137080791,-0.18937814953352924,-0.6362182525040782,-0.3572403501386905,0.3065606428891409,-0.8813397858760982,0.1942504331926095,0.7996182703472727,0.48647860415245003,0.2869589176736432,0.3796513166092748,-0.6645084838311723,0.7223393438455636,-0.23501607939232563,0.35103261007901626,-0.49212222371760633,-0.7022970686014307,-0.7600637763181812,0.07452120194443304,-0.251293490154517,0.15468860312109134,-0.3061342928217036,-0.419191016016606,0.22869086825398965,0.0015286960867959053,-0.42734772060069043,1.1617574090946083,-0.43144671730696993,0.21754256812292086,0.603033918415096,-0.7948821934664266,0.027672020544624882,-0.04757547319524867,-0.2740820493357318,0.2364272447655174,-0.7008348475180202,0.9042802247629376,-0.7628343854865735,-0.191054751010429,-0.04721006784500412,-0.865667589939868,0.7182371955618285,0.9083278433653421,-0.8692785510068972,-0.05406579660488372,0.5101286333753274,-0.9898547566307306,0.2375952974018578,0.7007788478350131,0.3104645845184943,-0.7260723965993772,0.3497954580446687,-0.5561781426323015,0.9928918464079057,-0.4823177515106661,0.7710775211431586,0.9863521285368302,0.922702484666665,-0.1966278158181373,-0.8993133140966445,-0.5560547817038165,-0.2749522312869776,-0.7659955819693025,0.753221294958343,-0.5056863486204183,-1.0470439241230436,-1.0628572759444228,0.8050152269070602,-0.3736876211638997,0.617766685661916,0.1013264818659266,-0.376169901539773,-0.4241852151479221,-0.5406342378233135,0.30612172853449776,0.21806721502721907,-0.7390398884838175,0.6310450217493356,0.7840810633674861,-0.3724717131989855,0.1221209742800675,-0.07046586648043292,-0.6850534371340692,0.7761189539107786,0.6989553143307166,0.25619586084002405,-0.4166971703271742,0.16236149640970973,0.583878980006886,0.3972685661971576,-0.05108612370813916,-0.11003616840856303,0.46499638846536073,0.7403947799290111,0.29348873687481236,-0.5938520667454724,0.6316131584127928,0.9175144245120647,-0.7293941098585013,-0.42254037145970663,0.8938870463203659,0.4756476831860628,0.18752963222611002,-1.0576846357439802,0.2590792088525569,-0.14254194152538888,0.3377559597951433,0.598528361863194,-1.1373928974897043,0.5063822997141473,-0.7546388056334624,-0.018074581525672158,0.48807566836996913,0.404238946807378,0.579403202875542,0.9329560450341101,0.41638917783648716,-1.0623306790975686,0.9503036474010595,0.5479755882522993,0.6687555257838073,-1.071677076833872,-0.5640812224889363,0.10786981569993909,-0.8996821603464217,-0.3037956606153442,0.089524770966116,0.1820493434475455,0.8949095340900886,-0.8539351411226991,-0.4539729789937322,0.4364257760000444,-0.9314646191146553,-0.3860418460781444,0.3526219787821623,0.758443329886644,0.6827074524816026,-0.7329819813629425,0.38880933699648323,-0.059483476416243,-0.6149692123307859,0.6567723378506156,0.015859905026367128,-0.07830473749413021,0.12382033782745823,1.0211834887734634,0.02969030380282983,0.16075604607729962,0.6835947499786141,0.06944334622189374,0.8948786420542459,0.4363023638483532,-0.7599366003939164,-0.948151145696589,0.2977355741415409,0.1740370928062321,-0.6482157051085624,-0.9799491122026001,0.712743543310878,-0.5077661465037446,0.30998445386705686,-0.1595465523691603,-0.534183921288262,-0.6189740214769639,0.5825023030313513,0.048331100490220505,-1.3728120543885405,-0.03158393841117235,0.05356750489255324,0.3596787682246709,0.5594685215354752,-0.4346056569283074,0.6056118083677264,0.33210417938542314,-0.5461265132909773,0.6260902476599186,-0.28979136583086823,0.3925289211400066,0.2626233380244686,0.8380605399373505,0.22450461727810975,-0.4266342668337641,-0.8951795011652905,-0.4575123017452987,0.7240512210380098,-0.6428232074511614,0.15696716940228064,0.47957798678108604,-0.6630091897117181,-0.18835846733473424,-0.7835120559701367,0.12657884548776213,-0.06129089941446879,-1.0726115410398902,0.5116213425077504,-0.05576695686810451,-0.06926995194910121,0.4429439226542186,-0.6578447889185499,-0.22039681982974343,-0.29866822391957515,-0.3442503887062205,1.385462611563893,1.1552510062772856,-0.7814843830765258,-0.6236222734418425,0.5406948623584504,0.8726930149457507,0.035665175689831616,-0.8729691753571969,0.8269293141341246,-0.2748929342100294,0.4044604217521884,-0.4445727051701214,-1.1279394542616292,-0.11789073726150896,1.0591822290898771,-0.6739707078774315,-0.2893451530297656,-0.47860961556892595,-0.415877329513418,0.56924719965935,-0.863880553995758,0.32684160688395847,0.5404282605985105,-0.29739538402057414,-0.12662488150949594,0.7291681068087044,-0.5458235884496117,-0.631329595069655,0.3606325969824781,1.0865624003988414,-0.2877398211913663,0.4140966370881325,-0.728452452427422,0.2314443551449677,0.1487281261372614,-0.8978235720020008,-0.40073717555802063,0.2921095912326677,-0.03680521113852165,0.23646447245784674,0.06954222202844212,0.3754583559981042,0.4416357833006297,0.5987206086860971,-0.277771167332198,0.7382814132506214,-0.06953033470430493,-0.5027433090123696,-0.3115200558847489,0.05982556929963842,0.45610282457000484,1.5007314131066594,0.1625860392552135,-0.36784416671204656,-0.5859447313301028,-0.02299811937062453,0.6756812860348813,-0.6649752024268457,0.7939290162925697,0.7644502356862576,0.22196330738404443,-0.19039606560942007,0.22722754921747115,-0.24895187419830136,0.6880949935479312,0.28322797259617755,0.733410143984204,-0.9096896641186327,0.8404289571512837,0.28549433124588064,-0.9962235033618605,-0.6580855651408059,-0.22023658066543755,-0.4333030616804695,0.24628419314652789,-0.6767453862012004,0.542907670376803,0.955657792455572,2.0393053221163453,2.2126890297518327,0.41886024206991085,-0.47202306838787544,0.9854807534275174,0.4811515949783379,-0.7144883968592124,-0.9903125026639,-0.7247421662334713,0.5023450638207428,0.21663521376400913,-0.2790616506268317,0.5810655387387745,0.5329678904635273,0.07758577473322004,0.38568685601113734,-1.040369292259475,0.6781642318478942,0.09637375648686805,-0.807811178319601,0.2976748323496651,0.8766927178489785,0.5074110041941117,-0.34607818555823916,0.1391855285813351,-0.45983075391044564,-0.0028605583467337754,-0.2774017404742476,0.8106033086788597,0.40490604849788364,1.686776882675604,0.8572764250403363,-0.6043114174478498,0.006094480898686943,-0.6429193039289645,0.45950680308557723,-1.1976516468334433,0.32158484596909637,-0.44887707836804586,-0.085815040411118,-0.054244573212614895,-0.6917415287096561,0.5855924938780033,0.7106742597295643,-1.000163674055211,-0.5371267891225747,0.6150235888953085,0.010163188377143485,-0.9221237825849217,-0.5644945437304189,-0.8530824480920499,-0.2628043626776062,-0.4620316328865964,-0.9127110153279666,0.44636370101449374,0.9086309076753297,1.2728919175491844,0.8762975848000741,1.5062797529692182,0.13982910730119297,-0.8862073660829312,-0.10221364492837721,-0.7349938964104382,-0.07139207050910072,-0.2178733693189384,-0.326068528916026,0.054735162975476474,0.4995020605021186,0.4417922718914742,-0.9561926364684065,-0.30742554427940555,-0.8943247720769738,-0.9923210915149007,-0.28077614291327696,-0.6184504719252335,-0.9889306596478216,0.16972222176112317,0.08544092307922675,-0.4361751050388053,-1.154798242876886,0.39482630980538713,-0.2053437671255709,0.34759122471577164,-0.6807598560876218,-0.6043334158369655,-0.07820543310792631,0.15523010544308277,-0.2885284742495501,-0.15998007126473324,0.1553034465295696,0.6114637914868108,0.5120738375613424,-0.5274938180063212,-0.4503644146873318,0.22980369377779628,0.4442994187805704,-0.11150251867887671,-0.9955330988153313,-0.9775932211442828,-0.4828938985768784,0.7825269091981928,0.05269464786239992,0.5743593458055246,-0.9928478523980658,-0.44817919780097004,0.07931549817337356,-1.2578526316928342,-1.1590555991038256,-0.09581083602654038,-0.24415786596940658,-0.6742706089132868,0.03456572000492325,0.7517823063723289,0.29426482887819705,-0.4356110501521575,-0.40512796649455646,0.5118080515310325,0.6478810640617843,-0.2951194342015468,-0.6452349991268708,0.15786502477552142,-1.163187775675713,0.1528869843073219,-0.7452806315230949,0.19694441956416084,0.31927846660575615,-0.6055507725536937,0.2932273435086264,0.339260436352466,-0.5067398201099448,-0.6322852763812501,0.0065018031945175275,-1.0909783623879237,-0.4125072301224908,-1.3319061598293238,-1.310047242658084,-0.9080686834875251,0.37064347252971674,-1.4632989743201812,-0.7924634436275797,0.43576897575986856,-0.18301066455140536,0.45360381840901587,-0.4273491086277679,-0.7889217290005195,0.253658880296365,-0.48330696253092637,0.6481072607844347,0.5061146597463837,-0.7610262356734985,-1.179109584579465,0.2605944985540246,0.5394779435240836,-0.5340442580846926,-1.0732798155206518,0.6144905034657022,0.1913349004586772,0.8248356740229419,0.7942958060421934,-0.17642215151699805,-0.8086080596689279,-0.6575606626954555,0.29996530178588215,-0.3920637878160994,-0.9888655196761129,-0.14333470799797757,-0.8883375846562885,-0.0034967317048101502,0.48179142562447635,-1.1159856571287547,-0.5593432834350183,0.5351113478246328,0.5974312198525269,0.6302136496936548,0.11853766006594782,0.23393804973410176,-0.9430407763362851,-0.714358735572366,0.7794865434478097,0.14959759655261215,0.22899238387514315,-0.28274890950138415,0.7144037099131573,0.6292862436491309,-0.9646961922202497,0.5168632614940878,0.08415461434761884,0.2503689812338955,0.34882868920414023,0.18420139584894044,-0.23168988063965196,-0.04503124054584713,-0.4256259932240901,0.4974351557964529,0.7798222820411804,-0.12904999495912742,0.4983655124262047,0.1336473916573149,-0.8305209592138472,0.5354472084684051,0.12797002570282018,0.5310701726690429,-0.21360382862952887,-0.43234156270652,-0.30382219691063617,-0.44512113233575196,-1.0401604410826328,0.7396561012401344,-0.8220897908013195,0.482415097773454,0.8755855832004975,-0.8633633819344688,0.8523598342594083,0.4330959791055625,0.8885293393491905,0.561802321593572,0.01976929600502744,0.5971096142584853,-0.4234974296172585,-0.26171751688519124,0.5882765265127876,0.8034301632218419,0.2528814379767843,0.5744269825659551,0.4633821459342294,0.6329881831058803,-0.795551160418311,-1.347717381646779,0.26424414169031685,0.2951888976511573,-0.6065605860599487,-0.014906142239332917,-0.4268092722786951,0.5297308674447246,-1.195675887443499,-0.90085500760478,-0.9239195250008211,0.7323061300024104,-0.9297396515797354,-0.9212130003588681,-0.8738825290694245,0.6131971370886706,0.63959885852907,-0.24242632923464047,0.5214993475115527,0.5559381127014646,0.6532469912513379,-0.529931590461243,0.9826614373743489,0.30501192104097397,-0.35706299300649313,-0.3574278685601129,-0.5042704831650214,-0.8339654168142681,-0.736682757313939,-0.6015767119122062,-0.07379445716233289,-0.02943666341311608,1.1571726926322599,1.3088544219219593,0.8345132323066665,-1.0993763623714221,0.31146209848495415,0.23886658711074824,0.7030114351074068,-0.9765791609615684,0.02759072136717826,-0.07064038132901775,-1.0352816706323333,-0.038664833811732954,-0.14355679727750503,-0.5537171810218761,0.43864542806092255,0.3840188474290591,0.9945946241780976,0.18107938476012334,0.5201117577402313,0.7596755610762888,1.1128338759645233,-0.7334224243267693,0.22337923960740041,0.9198248187355383,-0.5641325787182677,0.40693383407326333,0.5758353123536327,-0.20164545821726224,0.3196007765072328,-0.22884226460685939,-1.116365863891223,-0.01871535437483576,-0.9825200668575036,0.6831856789731481,0.7488836391427374,0.029036076406454798,-0.8739619366963016,0.4395992701297126,-0.6267432931336987,-0.6969086311255468,0.16592518138755427,0.8382568258206203,0.2933106269514546,0.1774586827457112,-1.0815165353387404,0.6483668601288448,0.1551571607649915,0.13814704130666847,0.8364167628340112,-0.22243827412119574,1.5213085500398182,0.193643543180635,1.4339709377397722,1.021472632399917,0.67501550642458,0.2916941947871708,0.02747954399260517,-0.2666613140540333,0.6073708789733506,-0.796519481868291,-0.5452158631285355,0.24698982928373214,0.056702351498624806,-0.6012164349771589,-0.9122473785656726,-0.09156903675963005,0.4002523853580518,0.9358617680134869,0.7554113181214508,0.7640695683164631,-0.3490800945346975,0.630165831644303,0.5561818176503216,0.37325161163998655,-0.315373048900497,0.2418385694004927,-1.1287617427317536,0.8365247601083347,0.8482136455552528,0.7800083138227649,-0.551745876781418,0.18985571403703969,-0.18243677322394536,-0.7448926075433633,0.6477287131559397,-1.0199158851928039,0.5911604971123096,-0.47002177308671184,0.03389577371766541,0.31236171564950693,-0.4383644658534211,-0.4918232005933895,0.7332227215215552,-0.03398404089837133,-0.5573095407138621,0.8395496281612165,-0.1369589503574026,0.5048238773236366,0.42698920645066346,0.0416928079213282,0.8354506444531085,-1.107319369081041,-0.6583034057058098,0.5520665000471762,-0.9980870758044683,0.6565263957305004,-0.2526018997903491,-0.527769309884736,0.6287208000885721,-0.25327564191200536,-1.0250363620127083,0.38659630217540303,-0.8318558982136477,0.0021438917956135167,-0.9427821709922045,0.3908853434058454,-0.2024691715771482,0.033850485946117885,-0.7305014703652397,0.7328265418637707,0.1253244030655368,0.46833849832618374,-0.2554878301681829,0.32225757415464257,-0.26710763394048076,-0.32588596568357214,-0.8278011454232155,-0.527084739568426,-0.748849370072674,0.07138344781655218,-0.4623546621234011,0.6890104002967077,0.4300931275519592,0.7386631300237043,0.2340928787162631,-0.09681644913389087,-0.043807864894232794,0.3793191600228741,0.3895522522162491,0.3116570807178321,-0.8807823445052032,-0.24140226255806072,0.4377312410387152,0.2058628661403907,-0.5165868959248744,-0.8040114517416519,0.7318536226000771,-0.7554484080244868,0.012902957093239456,-1.0351211390223982,0.41749313298640095,0.4082737506034287,0.3303433950583731,0.39274669124616285,-0.7409107745381529,-0.8882305402083086,0.8882986068432958,0.4331550598531489,-0.8555825854853076,0.5576845472865763,-0.38380276862449175,-0.5927512339068077,0.8144019966664483,0.6669162766334493,-0.05305655225615786,-0.4523859897314484,0.616439388928982,-0.9802288946272567,0.3542640533139773,-1.0434551625606316,-0.3213736247554783,-0.4687255671107566,-0.9522428119882049,0.3961130534584392,0.5217486699603684,-0.971182645578411,-0.1577894508400631,-0.22886200680863147,-0.027453034998809495,-0.6659367735114676,-0.12155377185414243,0.8029088916463043,-0.5610646035639153,-0.1456086383690254,0.13370508676004086,0.7164411359962748,-0.4684907379429844,-0.6506704126919778,0.6883721226927828,-0.9841193490591809,-0.5204092987020301,0.5004919029943453,-0.08378199877349915,-0.5153429108977203,0.33813490819039743,0.021667494204281906,0.8999253946342843,-0.3273570418920844,-0.39804526329545126,0.9078875456447347,-0.9922159443337333,-0.8020369815550916,0.5150897897783171,-0.9105461595010397,-0.16156493895974935,-0.19230959917924073,-0.47827187460511206,-0.2784140317539026,0.29591857876994226,0.5183281262108586,-0.5733550383401669,0.7062229079483839,-0.8649529455274858,-0.9321407031944093,0.8015962385091773,0.5387725559493756,-0.6525010391270203,-0.4367294382244216,0.8384232806954326,0.7063298004999917,-0.09304966100711984,-0.36337641091421463,0.11297170112672147,0.5025198704822813,0.18462901967133402,-0.9477482334788059,0.13320541928096483,-0.09443727002684903,-0.7367807060169085,0.7822527305057432,-0.2540165338043608,-0.8747664952852241,0.02514523929879528,0.32702719121596296,0.04965204728236568,0.7743281167450773,0.18512555509215023,-0.2118625875456073,0.5851898186435966,0.8032928538727124,-0.7282096409797179,-0.41324736231245424,-0.1835624932348903,-0.3512361074896647,-0.224163305517847,-0.9385978686638125,-0.8798055416698558,-0.382558503684626,-0.7628335602024824,-0.25234796493513895,0.6688193600554867,-0.3917327297715496,0.2638652859237051,0.7057303240122783,-0.7405864447503443,-0.09756805843525611,-0.4529040161055418,0.31827265422477086,0.5480836564468148,0.09568380232761828,0.811540544330887,0.04245447450609603,0.24078375582423736,-0.15573884564451881,0.9137969685369479,-1.0013763099386088,-0.04886271183941625,0.3500161819216385,0.030469358031068303,-0.32630969299077145,-0.22176540154255853,0.003084321873061062,-0.29763907711559173,0.5853571340613358,0.5767205583582988,-0.8538003070194825,0.6712976204452833,0.9867929902368946,-0.5718694569993098,0.29136133051857144,-0.2768267733459858,-0.9590970546827354,-0.7033174658551478,-0.7947102744003065,0.2780885631048315,-0.1028114235265081,-0.7818340882931873,-0.4006926046679678,0.8397578997848543,-0.7925560023434741,-0.09036781678155317,-0.07142226524599551,0.9322682226208945,-0.5672481000157973,-0.45031801085441964,-0.20389175924952735,-0.8728171422959236,0.7175826170130395,0.5842394009155706,-0.6758437317148155,-0.3975282489383686,-0.20024496688842436,0.030377414573865034,0.7210998398551884,-0.7893092988292337,-0.4227094021547319,-0.9841484972206297,0.8285261491723884,0.927581233729005,0.251838434307232,-0.40768471627545577,0.05468331753362561,0.630086929859874,-0.5245925031733975,-0.20069672761479462,0.8799490823530345,-0.8860868673338596,-0.23354755376876082,0.9327088987495059,-0.9259147131132685,0.04130126873040422,-0.10825452815194483,0.01874687497553632,0.5365660895423782,-0.3069437487433431,0.4963261039377709,-0.8574191509554508,-0.897903299252161,0.31075603571225147,-0.6894375814602175,0.307954373360615,0.4012950882331219,-0.6916403610717208,-0.6749887907112663,0.2180547454635362,-0.5986295648909593,-0.9618864812277763,-0.7254017706554301,0.4625949912887729,-0.7721706842829933,-0.6608223592229049,0.8221269018456788,0.3107599346604819,-0.8526724913822169,0.42439997404807545,-0.33956306330223757,-0.9014543523921867,0.8373084419660421,0.649205740578383,-0.36463923869316356,0.05246100984010384,-0.22864493105276718,0.26433940606673517,0.5162583574910277,0.6126382845389612,-0.1778262555244212,-0.6902845343136497,-0.9264314672357656,-0.42454946480123035,-0.6963422503758773,0.2955504819535104,0.7374692660656527,0.6233557738798269,-0.7134699200118193,-0.113522626294885,-0.4578707966969232,-0.2919177420989838,0.1819597704378413,-0.6579069773649378,-0.0021421633576895944,-0.27696691187323924,0.7285985624505664,-0.7787160516908611,0.9000671627350595,0.8460388124166425,-0.9302397645110028,-0.041395340390824445,0.367642372187969,0.6186714378810896,-0.2409803448612942,0.5613162525142495,0.4584278199286034,0.880313195631865,-0.3638514601344166,-0.5903023514362479,-0.37547721937182543,-0.4487641428961633,-0.5157198540934982,0.9492397595350662,0.5500988373623601,0.42495888155599154,0.9872543711720989,0.19102767643557272,0.0864936863814385,-0.6591340733883932,0.46420409820593844,-0.7219574116270578,0.09436523441561336,-0.0956395455093437,-0.4859809815537239,0.2803996596823534,0.19243935826422917,0.4796836003741598,0.7336681791769604,0.525684216123779,0.9419302908757291,0.841828177245332,0.15898187140159126,-0.10060780402223299,-0.8014199093532679,-0.6887132657109154,0.38000591769367087,0.7078889617271253,0.12580941477011529,0.8693836700660632,0.7990275739352173,-0.1316046724213708,0.7023804873117317,-0.9077292019225617,-0.9730359766403723,-0.8962514019494884,0.08664191527539444,-0.6564842632777111,-0.2568667191930638,0.12040955844192591,0.08896381444439166,-0.7538635556141208,-0.9239854830455495,-0.9511640520553195,0.6439823720508617,0.7210722691438349,-0.923099221629654,-0.020628242167260908,0.6930596642632638,-0.6682783631298541,-0.9271196103210456,0.7576629524978273,0.7247389969232368,-0.6255952041414572,-0.4503160316423576,0.5976467889630682,0.2693546540809996,0.268540124132187,0.8682812156268696,-0.5249514375563029,-0.7083946445663449,-0.433436666462185,0.38766421276942803,0.6710441662595331,0.5984530105878103,-0.17448156051873565,0.13566191378166437,0.0048353644446487275,-0.33719626743749814,-0.09307338345990174,0.9651368015167667,-0.8180224264664835,-0.5605674361064628,0.5053656818714753,0.3388699238808724,-0.9818693673041519,0.07518465192968542,-0.7480201129309757,0.6532945663265682,-0.1496853394177964,-0.329409528119452,0.14743040891491668,-0.03697579284338536,-0.5560322722822377,0.20044081421716925,-0.9755738339601625,-0.0042313399981430255,0.23690392942755892,0.8119607475805641,0.3862050435128064,0.08435849269069526,-0.02552494036860453,0.3649522997625959,0.11935255307441382,0.15804731055521423,-0.09997194382855754,0.7927361118804814,0.7947515455547886,0.8906502032931125,0.9735050301216109,0.4925099257328444,-0.691210531367906,0.22549584432196684,-0.32562372552523944,0.029621092363442736,-0.5634265846662586,0.834021002340128,-0.6724238835589464,0.6085283266072501,-0.08252567273710743,0.5786709971166376,-0.5045545356579105,-0.36980768855092594,-0.6198990614502938,0.5893124321438575,0.007877115248998517,-0.15535840652510025,0.1989573623967074,0.24894572089968875,-0.812997388841217,0.8813115963756871,-0.6349880525597106,-0.6011904024249228,0.19115616555299766,-0.8029811684860496,-0.6430645981661729,0.04792601275975013,-0.14486305813170033,0.5199416176319636,0.2550620273451833,-0.04017352460284042,0.4307129301483165,-0.2954555716757584,-0.3111604376509726,0.5729894495918649,0.7184817760761916,-0.8838666687434538,-0.03649955702153363,-0.015044222708110788,-0.2583419074043415,-0.9577112075209477,-0.8832658038195867,-0.2322045440522323,-0.7765880922450588,-0.4594285534139214,-0.41513080800247987,-0.864232775333774,0.8432204695892134,0.06741444521086988,-0.597370036385905,-0.8146498782487193,0.9821400274662908,0.3332943206584838,-0.4916911959510442,0.9379956838316743,0.9505874797159133,0.10147069595701372,0.781456027779404,-0.8079552223472648,-0.6728056339161077,0.5841678929145647,0.9687657521350501,0.7385167442541678,-0.21357368420547768,-0.29335473271838464,0.7837971584287318,0.9904756389622876,0.5505789230676128,0.4920854168151264,0.363706996543399,0.5460853371381065,-0.7799456253386596,0.9024861445089141,0.12515235027013497,-0.21125287183542146,0.5923820293656022,0.8664627473865202,0.053215999774269954,0.20591402990182778,0.768400834831267,0.44436918488669613,0.5571142634496419,-0.032932277991247094,-0.7884998801885095,-0.35589830897432934,-0.3210127876655425,-0.08008477713697151,-0.437026608741915,0.7522429375519001,0.14224642016303865,-0.23777973873844058,0.3203227268978962,-0.9683429898112927,0.32037282343267254,0.4105092398079252,-0.8573303874169129,0.6792878714340203,0.8258683156321026,0.14249344234319322,0.03348575985986156,0.4727274365759547,0.03585599832300447,0.5105571704514242,0.747211943784412,0.9791411897156375,-0.4078214355161257,0.8229771750706741,-0.7986154885936838,-0.04553197865641689,-0.3173022185396397,-0.893756100541813,-0.3691320156982519,-0.8394924531873702,0.060177869303200585,0.05358473388064995,-0.469680392657768,-0.08603159090410692,-0.027034725898458668,-0.8659499345641627,-0.032002052649386305,-0.11201712227706358,-0.032593620330626655,-0.6851077520558843,0.729054709028831,-0.8432868329752341,-0.6232260132009103,-0.9363424398129989,0.3085573184900834,-0.45024841162931534,0.45221131728917296,-0.47534934977927745,-0.34038124981905543,0.4018341533898475,-0.6806183944539494,0.7031449775777819,0.14721882592177524,0.906790120585989,-0.9845778840312992,0.031191344819756873,0.05055999114963217,-0.9257520027865501,-0.7729801570233188,0.9664328380546063,-0.7550874349264405,0.09172469627736676,-0.001138478449962305,-0.9305529808921318,0.7665990630310292,0.6250130398625052,-0.3615403087140547,0.979634454971173,-0.09233562650714665,0.5217404958564418,0.12066003652220925,0.19629977091363893,0.4729530902460523,0.6288887586156875,-0.9958533683140479,-0.006408777209412222,-0.5653807341916927,0.3563194066050204,-0.1597815661460545,0.5709531834343474,-0.5953710596225578,-0.933687415295783,0.9182211215443322,0.966965133696528,-0.2529740008943983,-0.5569687553017042,-0.5248333579759867,-0.7312244639424477,0.8744519623110574,-0.3454764465093646,-0.08044947865985982,0.5990435602575133,0.5878826313753919,0.8863586537886006,-0.6015462884571932,0.1469230406149683,-0.08251541927283584,-0.48117305027533347,-0.8023005254160513,0.33711590827460164,-0.30018951125420906,-0.44235746821737654,-0.887482428026897,0.44495580399232537,0.6000614196117177,-0.5749674051622922,-0.6524990164597997,0.858956253625393,0.8815148377950972,-0.8894753485734102,0.31959851554013746,-0.49511712073883934,-0.45458219863557975,-0.05376753520380355,-0.5400561974263849,0.5334795534696268,0.7646036936175614,0.3949308458633823,0.07059652422229946,-0.3019365084051122,-0.29470576674866306,0.29135869504771167,0.7365184404149162,-0.8342738222333488,-0.5204052408787668,0.8656324900558221,-0.36936939749555503,-0.5578248621373532,-0.6105958637462451,0.20711477070255455,0.46667126706527423,0.16207844811602146,-0.38075348981647344,0.9692964678302909,-0.11009562382267245,-0.5557133614011575,0.7516012101518159,-0.9118920765090132,-0.3474966572510958,-0.8431681733041585,-0.3729809725198357,-0.03513880426595684,-0.3796715834287377,-0.2802446920946256,0.8759043195216941,-0.15421619443489956,0.6305500890991013,-0.09344900950532098,0.5958172266865541,-0.7226784900265993,-1.0022907676946737,0.7248164932780381,-0.5618346537151314,0.06266769410627883,0.7313176326795634,-0.798749243575891,0.27268253906983025,-0.8686775266956331,-0.9961891431436223,0.5667933648451571,0.4808573604308753,-0.862978683261947,-0.5169997394941428,-0.5083981107503753,0.5851283379607037,0.9831215993595424,0.12112306977232397,0.7720449985756039,0.8703958808215067,-0.7135256870539934,0.39189508959352687,0.2843680309369072,0.21107631592937257,-0.4075680891980552,0.457155478077643,0.6143817413496134,-0.39833061807841247,-0.6290399086965632,-0.581615108929915,-0.29376743834197017,-0.31742050775363234,0.10578927477583448,-0.08282061340065254,-0.2667440975146648,-0.5207436743721838,-0.31584266812471223,-0.5843995616553951,0.28260474827795795,-1.0005993437994547,-0.1653896011171511,-0.1409572533835232,-0.6619546908335764,-0.7439028394167957,0.1145329451952882,0.44143223388283087,-0.15186447801547903,0.8770886787109431,0.2591647948662034,0.4320373349480883,-0.5588560304907938,0.9376721772183583,0.9927745792774145,-0.8471155626635046,0.7080544146052646,0.28722121596052463,-0.9184071514385019,0.1000821319174937,-0.4127564068508318,-0.6735546772235743,-0.13690950933839868,0.15205921395712796,-0.08150748661370631,0.29998304392646985,0.8577381172279214,0.6511381784400435,-0.717984251016316,0.502793688322948,-0.4036944827087355,0.4904502255638138,0.6486679402387018,0.850434564590119,0.01903686302905517,-0.5391330429172966,0.3905651489603496,-0.6026407200587389,0.4605449796509486,-0.09821549189751447,0.5694354356220176,0.8395125336222994,0.9730666477983455,-0.8180478146800766,0.2732110699471785,-0.8354353013215841,0.2303057933828154,-0.045696660066365184,-0.030979930042755163,-0.9253964497195537,-0.5642450227231284,-0.1627420498748637,-0.11916743812098694,0.7221244507187105,0.5744140238012118,-0.31084577660771806,0.8368578570122215,0.6937092461441885,0.8575035038152656,-0.8555034412051812,-0.8689066078565214,0.5025824670601128,0.6626056021774246,0.3479957058987658,-0.2814368923428752,-0.5116958092682409,0.9908784497722065,-0.43646760427267567,0.9132912508206087,-0.14516887479873344,0.3727373706301715,0.8265382394595664,0.35362409390225463,-0.974677903986971,0.6666776242745707,-0.0690968356559531,0.5509011925853465,-0.6200223066938046,-0.812987028070743,0.10847522181852745,-0.19646938263310693,0.15865183596179522,0.8579996944502272,-0.930050669882213,0.017183597078117487,-0.25973642352666254,-0.46975020234076026,0.1758371403556743,0.5256221620592795,-0.21768659089331197,0.8574256099775887,0.3597085205592826,-0.6309292488666429,0.5843756030334974,-0.7247816811733885,-0.8862029674341456,-0.5811338133938935,0.11856862578303938,-0.6450633087984047,-0.5350267937531868,-0.8655764774488939,0.170741911612467,-0.44242692586349325,-0.9379435977897753,0.7653492328126257,-0.6992312372837588,-0.8901356790843202,0.9496331207686748,-0.7982074659619643,-0.7488632118759687,-0.3059182474158503,-0.536776249726288,-0.6086405676814859,0.7762715207399917,-0.5079376722702145,0.3255264050962629,0.5773220488482508,-0.4912298187685386,-0.8180632258021336,-0.7021282188681505,-0.30692909960403797,-0.8867553544770734,0.9885434941642335,0.5543510053925056,-0.703327993125241,0.5668816608319243,0.6760707335361927,0.7918087322576061,-0.24708406593374427,-0.572228339311823,0.5243627215393063,-0.7864533587217952,-0.9771106280706373,-0.717552632706713,-0.5369976454733689,-0.8024698894998858,-0.624677009941352,0.2903853966136883,-0.15055095840210814,-0.49246382359259894,0.9304919577699157,-0.5688786260639562,-0.1310039048284405,-0.5478338035218387,0.24653030710210616,-0.24356303446944194,0.8800545770315691,0.17131571720701852,0.15570006882680773,-0.6118429604277718,-0.5584654884892322,-0.35404214100360126,-0.6766172144010452,-0.18350922141701312,0.9803072861185279,-0.20588221752292937,-0.7305774139672493,-0.9903075902025847,-0.7340544216324201,0.012605280569245023,0.6997267057478596,-0.20950163642968203,0.5670520092464129,-0.1842418484559902,-0.6717245687367348,-0.14479717507484957,0.03552270470946839,0.13162915667749847,-0.539125149502897,0.20214817204693397,0.9419545081529078,0.3342184239262783,0.21754655011435983,0.9787904253128131,-0.1471949677142939,0.587739112530671,-0.6475622462576891,0.7237524772155464,-0.08127751245759288,0.0007160389301547023,-0.3907379471420665,0.7088899328515228,-0.3614985861277667,-0.8525667481347701,0.42428650194271994,-0.835331199695172,0.45063688433275634,0.6832631836277723,0.3901594962114616,-0.5064344714686058,-0.5109251449092478,-0.7653108790927577,-0.2985224303811253,-0.3531923779998106,0.6695739545868531,0.4407653927887384,-0.4322466087132597,0.913337377565615,-0.034121742132888405,-0.47143516577611494,-0.15460129383655866,-0.5359306321382058,-0.36251516776828546,0.5029743186427096,0.033877581500803514,-0.6612762071703733,0.7558721735481639,-0.6004459382726473,0.5850798341286545,0.20083800766882834,-0.8351661718793983,0.9472013202169141,0.28991597376948397,-0.4564644235400749,0.6276853482976472,0.9089568549999467,0.8840367305610122,0.53687671982546,0.0513752771670945,-0.10161397523136009,0.9109330940136259,-0.6650390756085658,0.4019170413717791,-0.37752234929290196,0.9379361308583679,0.8452736412836326,0.04640370833702273,0.7684927948356948,-0.2486403069600915,0.5027695753905475,-0.6093461925995656,-0.7833955833088795,-0.2618164050136652,-0.29034734813461316,-0.6505617794246579,0.016987358769491707,-0.9438839106551598,0.6569174376313662,0.37803219837706037,-0.3518506763210353,0.6110889377089332,0.8412133757108875,-0.8890605871641171,-0.9617114956975438,0.6403588113407298,0.7729147922693809,0.6829120102125974,-0.6505440399739321,0.40678653801338027,0.45954440813666586,0.9001628693097411,-0.19578334740356906,0.5777415817875298,-0.7259031837183363,-0.13394091277056763,-0.7188636236436041,0.1309491705096382,0.31212519687922413,0.865059218961429,0.2781806470316518,0.5889815009282162,0.31463435346039914,0.36504763807495355,-0.8057909976718718,0.49471296518463076,0.8067039973882633,0.6773075189658666,0.6045156616891405,0.5210922222278516,-0.5484893917321223,-0.5472770771264157,0.8262444829291616,-0.561362709679353,0.6729547417729631,0.5487261627654413,-0.2447021977217049,-0.3763671089942052,0.4363510503850467,-0.572211556764944,0.40608927749315665,0.42151519520306435,0.3022197840258414,-0.8310001195779866,0.05676996731166463,0.5437727884042447,0.4009696005458162,-0.5935901090194027,-0.7008639361438802,-0.2516506064099827,-0.08855827411108753,0.4974047603761891,-0.42559828102621544,-0.36208509683664347,0.6590797346174733,-0.04268909596936671,-0.6763496926918728,-0.5471129064513296,0.20540508572430605,0.4153541334741258,-0.536639277865564,-0.1214017247939382,-0.26405235860778137,0.04090346469288196,-0.4715334779269703,0.16105534876419614,-0.6927552613408844,-0.12952226385639973,0.21355306719335895,0.5422189150139892,-0.11446212815219038,0.30107035783870334,0.5156033278752284,0.2819220739827523,0.9333392700695401,-0.22726802580588898,-0.9602564574199625,0.19155031466072095,-0.7673145888811126,-0.7909659081189129,0.17877769823460415,0.7420692647186011,0.3594287942979375,-0.04547597883641265,-0.20609110774333267,0.764996419713195,-0.3263573697677943,0.08693585801781367,-0.8963843203001435,-1.0101567272848206,-0.8180899761195788,0.5451677615562163,0.19454511645801909,0.6828884628751772,0.2183676452443316,-0.4916378983934404,0.9216011773462993,0.21380783977321036,-0.8904931942179746,-0.48224251668347556,0.3610570584913022,0.022640641194451732,-0.9065979472582929,0.4404400486519629,-0.4136627756288457,-0.2801249856045772,0.07916684892359392,-0.8567112602606906,-0.4425680726050766,-1.00691550796467,0.6332034931874967,-0.7118812688878033,-0.6282985849300117,-0.4737679437981345,0.0343527593346847,0.200604442355977,0.09569823779244334,-0.4773841240449662,0.8261268957488093,-0.25579841804217085,0.0011663457564733632,-0.9316579023188684,-0.21175847722765298,0.08374063675187204,0.6686365463289683,-0.8937056162588759,-0.3156076565063365,-0.22325716346908267,-0.8867923106835498,-0.12233067986740745,-0.6072125085480948,-0.14527795023292397,0.6713030651810611,-0.757348437700195,-0.15213258465317733,-0.9149455285131577,0.014343741535128492,0.49310975947642094,-0.2580719290488459,0.944287345111737,0.6948053998926781,-0.38852319415105613,-0.9760376363774635,0.7505375074552352,0.9209468508807372,-0.8005181752194115,-0.22888048443811665,0.2233859149871765,-0.5807873474365094,-0.5481480090511573,-0.8942778596849699,0.23290513219223133,0.4460278192458068,0.8212924877083482,0.7811108035559456,-0.590621271117677,-0.11648311860337973,-0.4107448540275155,-0.7268339272620242,0.9731428671515614,0.1217370786882659,0.8663741229677945,-0.16795707508268487,0.05657538722561353,-0.41519080456912627,0.5401036633212077,0.7171807361604189,-0.6758551579259383,-0.5277781996724384,0.5657913371915381,0.26187058282232206,-0.16857579175899437,0.7591634703989585,0.18781555911461378,0.36171153933741584,0.2806049728106661,0.6679126368722694,0.9208700894503115,0.16818097004035423,0.1808992780435941,-0.43056794271108595,0.8429601284721523,0.9670185165155676,-0.000016921124987352356,0.5632665874934025,-0.11040935033946707,-0.9875571697369554,0.8741583402145081,-0.16472747742572172,-0.09304610426727179,0.702198378575992,-0.19209431998998824,-0.3039088652709767,0.7810735786874401,0.8624501682403236,0.5321470727693625,-0.5465921876905038,-0.7282196779537402,0.3677925185855564,-0.0701234838280626,0.4085287694369338,0.7403817807570625,0.09581722620478322,0.8515222853077967,-0.04635829262306591,0.29628014098881694,0.3030649940393867,0.5535478449205242,0.03617613375049725,0.6787777140334978,-0.6495811494904183,0.6368992734738967,0.37505900959709,0.5752071725010056,0.40678376311157427,0.09032271434112675,0.4198768866365158,-0.8422973976156237,0.20736576153229264,-0.732308463815874,0.09271328386954819,-0.6617715936797861,0.22305422297381172,0.4349636239644176,-0.37299248118310296,0.16045771469119371,0.14107446678915825,0.24088756593461372,-0.9933238007874351,0.7942995650001367,0.030224480828088554,0.8860423642549994,0.772624016289492,-0.3505565511014094,-0.1367712260513209,-0.5851166108757682,0.11123510054096333,-0.11709575512906616,-0.4476580927670701,0.5851525383567434,-0.7549030074957539,0.7705360073439387,0.5601997784135792,-0.8617113074357381,-0.6927395420020439,-0.7825336588848998,0.82345879445864,-0.6373370004105584,-0.7852468278711771,0.3808346737427811,-0.01194921632540416,-0.9751186073528106,0.13810734853798598,-0.4633087768892904,0.5669480623519667,-0.9846542962248422,-0.3607268962025658,-0.4353766822153159,-0.4894925008867259,-0.5112670378340874,-0.7362444254923135,0.7157872149336912,0.10072566601834806,-0.1774414583291566,-0.466800095159342,0.0967942162929102,0.21890756600629502,0.3094392611405008,-0.08009340593948422,-0.8967836727156506,0.2802862419483547,-0.7570856242252453,0.8226000719557799,-0.6717383969498207,0.5120067314664738,-0.7548269117986051,0.7019963211038278,-0.18772221809453982,-0.7081183401353317,-0.5318469177315437,0.010502971777282691,0.23941137737342916,0.7404680653744355,-0.01669720455600894,0.1256547292997325,0.9680106653059055,0.9216437841145628,0.3370062930573235,0.8467571877569379,0.576123614127386,-0.4441377387120814,-0.07429166312523693,-0.8619491344928264,-0.2289305515803073,0.7920169228444653,-0.2770933960650779,-0.7259402327881412,-0.49356515483234426,-0.811399429539151,-0.4517160913612309,-0.8965050683778497,-0.1990900527815888,0.6678029384027164,0.3971789816701615,0.9223964857949185,-0.7978834016224498,0.21754553755770553,-0.8026962124148526,-0.21984568108498243,-0.2812494289431926,-0.2649294523107899,0.8449635822215462,0.21092867786751296,-0.7944542462645131,-0.5113311478723744,-0.6101664146650686,0.48096078321907243,0.4920818193400115,0.9144618812658372,-0.28120204515293834,-0.40114906620412494,-0.8759216576990211,0.2976896814783308,-0.11241951393597027,-0.4008740119492232,0.4002930202255721,0.5847628156752295,-0.5742554174626173,-0.6655754536335735,-0.1650137710492738,-0.4922818991343093,-0.41223700399263297,-0.381513667554294,0.2784059935178417,0.07328552618874641,0.4083433188550955,0.174011160789755,-0.9828743275097342,-0.9800490434550849,0.9524977538369587,-0.43346002699387143,0.02669682651414886,-0.7248067193941161,-0.02588154377503136,0.6908372621307768,0.5664420161449192,0.8249433522129159,0.40655008436851625,-0.0326244401669993,0.6004287025637609,-0.929050154601825,-1.0160937968788222,-0.4627722772502519,-0.3806803006906355,0.8642800105728169,0.6870918423172266,-0.40556356504391733,-0.6575653906411032,-0.5190891349665323,0.56791097232442,-0.6579646497160283,-0.6870942497237853,0.2743215864152535,0.29411340817234516,0.19540899644246496,0.7101568495062102,-0.311294175349361,-0.5661124203780163,0.2523816827635114,-0.01943254985083165,0.7443760767635333,0.41362502718930105,-0.3958294037188505,-0.8978795941813182,-0.5919257748929336,-0.2790669807913816,0.9520493385955929,0.6623700425078098,-0.5051328659189139,0.027997524869237435,-0.7803067083242267,-0.30415547377237506,0.839915989162475,-0.8610306351214935,-0.5333246619754014,0.2609919732041081,-0.5859188965070676,-0.9712551682514601,-0.19509860820092137,-0.2282692985651775,-0.005054493440327269,-0.570631085358073,-0.44136495761297884,-0.42892710731135747,0.8880939551817781,-0.33421028709185086,0.6938398675011802,-0.8787007792579316,-0.8970629392517346,0.6442284962316558,0.46249544884481425,0.03113710189804866,-0.31377389998390975,0.7747907415828481,0.5481117345960976,-0.2867322591865276,-0.7011246121640202,-0.7827525336482655,-0.8194044246945477,-0.27220049631011206,-0.4832462139121055,-0.9158166353797035,-0.6528394042016192,0.07158826566923274,-0.9731051375370802,0.6295831031068895,0.5243055353517736,-0.6287113457174565,-0.3702663362301809,-0.3323701518454465,-0.7621982453249935,-0.10758048982744488,-0.1983070222020876,0.04116816989938986,-0.8228096857177336,0.5456198571661754,-0.03482216856757625,0.7157788168218854,0.7983791636684497,0.5442981118158571,-0.504375923940953,-0.9386955081994309,-0.27483080741922555,0.35283351916029,0.24225842898029037,-0.08085323992747183,-0.6832401343734882,0.30304152979823135,-0.9285446143525343,-0.29023565484285097,0.8407538054995698,0.10029615013835105,-0.7764645012410447,-0.6018738029690303,-0.1780547144727471,-0.34909974086992823,0.4583062026848523,-0.2518442015282263,-0.6090327787870884,-0.33981521500240636,0.6381786383381941,-0.7569438251852059,-0.8215622878138242,-0.008623529785349788,0.8063188449392554,0.1689443409340939,-0.35089090358919073,0.2301766902661764,-0.7519843910705656,-0.2819936431064004,0.5089276794235311,0.42381399392424685,0.5802075783576851,0.004459934617973601,0.2739735566045606,0.7915573030667769,-0.44388476380450864,0.3009710768265842,0.6653572883177123,-0.06351577575301463,-0.6324716073516304,0.7782512237452499,-0.16040601177287026,-0.7630921665278718,-0.9012208592445142,-0.42466019247145015,-0.4703243129602301,-0.8701567725642264,0.24867695959423528,-0.5596208265665896,0.420978778703995,0.12311296584638291,-0.33801987605819894,0.6823339773162425,0.7803805866549683,0.8634529244308048,-0.6394274012511492,-0.6448257292262649,0.4822858336909841,-0.9198126712059179,-0.42001706131071576,-0.6565828394781911,-0.8104318152911153,-0.6372093175993858,-0.48484101867750484,-0.363454531925477,0.3705240924089549,-0.9813371926327581,-0.4287997336512558,0.9196258207658295,-0.7160467980536556,0.8492963608795745,0.5337364600319118,-0.4369675495622522,-0.5851470043069698,-0.07476541532820954,0.8319292379878701,0.31976370812195143,-0.22810361124630352,-0.9659863945835914,0.6162708886830995,-0.560215655460099,-0.9824704383101983,-0.00039266356436862856,-0.08739745402713095,-0.5999831561256952,0.5624385983687797,-0.5201172092191185,0.8632099322085887,-0.1833435461325368,-0.20429195101043013,-0.006067415325958582,0.5223191614656755,0.0009144237429553065,-0.1055552596526254,-0.06355117854676597,0.3999512467614853,-0.679206325839754,-0.5394540588293872,0.23573479080400442,-0.16773816413039158,0.5040131304851315,-0.5254602951661241,-0.563288475817689,0.7183588128649157,0.42934402870618527,0.24844396928492452,-0.45925515723136273,0.6499805090804041,0.32406695630052146,-0.5401512090427825,0.8518546615222107,-0.9572880960621609,-0.8477171895626762,-0.023315618629739722,0.9773022898030009,0.07963085465405738,-0.603515270278515,-0.9920048362463917,-0.044796721010290294,-0.24016733410918725,-0.8136167858132146,-0.7301809464714397,-0.32394079114699914,-0.5258352362046477,0.8658251538095403,0.29746145458814655,0.44211800314660604,0.09709533719215535,-0.33561161027620756,-0.4159651223258249,0.1128490968234243,0.6493586098410911,0.7248061693935903,0.5803348337817736,-0.07550495822755243,0.2891717437211286,-0.32394442280285585,-0.46831182791392917,0.9659791440117738,-0.06171060071977598,-0.8980503433269762,0.9221615177892802,0.6158447797143051,0.45607435575337596,-0.4030773402593536,0.3599766720799452,0.72660152081791,-0.9793323225974582,0.6088023295046756,-0.47451929945221105,-0.7230812467896461,0.25895564284580674,-0.47813387689470044,0.20356148570077262,0.7656433336564998,0.6700959981062942,-0.6388601149725235,0.4423359023555146,-0.6273106808909599,-0.3440735133859269,-0.4754670379451769,-0.21535857283842536,0.7030765175509495,-0.8447891933202774,-0.5824246858752266,0.28663310519207624,-0.5268914445024651,-0.8008961419868619,-0.5564314799439709,-0.8979901908045783,0.3108004608703737,-0.5099912937701992,0.8930483679700965,-0.3061780791713071,-0.7741707708716763,0.4010647253364409,-0.5431442668350678,0.022264409171298388,-0.8869869055798429,0.05827158845564957,-0.48406510708389383,-0.25559416394848544,0.5698044039936101,-0.2874019090064722,-0.7897800548680952,0.7048393898851762,-0.39300378199278885,0.45016438126854263,0.2619978814049324,-0.2884158536956936,-0.5254701962426793,0.34482981969163423,0.8550119718514605,0.5804794525902267,0.5261410568825836,-0.7243953935160348,-0.6763868419990468,-0.09014189572130886,0.9026810751611958,-0.031048896334795326,-0.28050357115850244,0.8871161815870267,0.7811693532377819,0.026740450711262274,0.3522819448394486,-0.6401172999990586,-0.22560679995076469,-0.5902383755475569,-0.002840605542782696,-0.5538443956591306,0.14070335738739861,0.10850270332910793,0.3273825769614064,0.32520431265136657,-0.5275366928792934,0.9906239649112516,-0.6272512583517794,-0.9364755855263434,0.8243727817987917,0.8473902947754697,-0.8834978891562095,-0.2837515956049784,-0.3105537146611084,0.12847629166127528,0.19835059766954094,-0.17800317091334808,-0.5047351712653425,-0.6439270803546864,-0.5347065880578081,0.9889328330848477,0.8327201522159597,0.3681005225780274,-0.3142230811687607,0.33969062998865956,0.5551492824500159,-0.17862049649118725,-0.4602279970491526,-0.09440364829923543,0.18993112086494615,-0.8089055005902814,0.05383529269010412,-0.963500634035663,0.5226343389735093,-0.7119968114547275,-0.6978155454088303,-0.15587609317683396,0.1306613881507785,0.04210394871759665,0.014280487171794148,-0.001574632627405096,-0.7695526671686623,0.13865519672259818,-0.20153161659915653,0.05936048600740521,0.5608728928339456,-0.5318770329187893,0.1049995956816582,-0.40990769436757557,-0.7531196451598553,-0.5714453208978513,0.9328567430706619,0.7697230553154264,-0.6761345463575932,-0.06617326198530754,-0.9555449964176401,-0.5290259620881375,-0.2642279773984274,0.40230959923655624,-0.6953140795904953,0.3275190848882664,0.6502683498211744,-0.05476736903997577,-0.02124430974543705,-0.04926494346151755,-0.5699387134657361,-0.9964218585684097,-0.2087930750140397,-0.0861719413189483,-0.05107903500371434,0.9061586381076557,-0.8669914636919274,0.40533772148378794,0.14082191865262197,-0.630668970424398,-0.7676207410872485,-0.34759109316239944,0.7751012630138119,0.8703985225685384,0.51357140385407,0.4955047976919238,0.549581806232109,-0.6940664234570395,0.08534153690544953,0.8447834203063014,-0.46878601326223046,0.03973217412280333,0.0316095958505353,0.405252023957266,0.3202365819377332,-0.26185069895795354,0.17608644106916585,0.4603797819948091,0.42097228202732107,-0.6662959203636502,0.7909784711887692,0.4040535923021023,0.409310311036886,-0.04846868026365005,0.6324757654781847,0.16118674182416942,-0.10382086234642768,0.05511897101209211,-0.01088037000109776,-0.3071212527540478,0.007953183164604265,0.43097544387737863,-0.4190170101327902,-0.3558831131932182,-0.9830494362686499,0.8118657933340541,0.6275682516654744,0.5639619105764677,0.9035954209134746,0.14607056943444496,0.620085295552945,-0.07524031788763655,-0.5062324579287195,-0.4164751110080151,0.4178951209799984,0.4241156584797346,-0.4397816464015036,0.9286176209850325,-0.1932926571534498,-0.7024998331915004,-0.21627633693257342,-0.008158013151563951,0.6032468592686662,0.26538865438661646,0.6106138339514267,0.04231003956934509,-0.048173122881985955,0.8316807998168418,0.11872844054117027,0.9378676696979114,0.34771269534689814,0.25748837256482676,-0.8966630105283417,0.3158490188465553,0.7378103269939136,0.2836820076334224,-0.2854145262898095,-0.3094566243907277,0.9691348483977608,0.10570037291805132,-0.46447525362390846,0.5903603620284297,0.7119913679061936,-0.2244069889087436,0.2217653877658009,-0.020145630447117542,0.32797122558933794,-0.5320929500695468,-0.31316919751236844,0.7337629321075342,-0.5752843450292484,0.7973471128425438,-0.9411637988605283,-0.33630590944383626,-0.9282894365507717,-0.9711944479788557,-0.4749556264158998,-0.02248584888905285,0.8883235889576009,0.7032665627282568,0.5589651820187791,0.5972907135222505,0.5980633239748434,-0.6743621498960357,0.5167197101535923,-0.7532456214922945,0.12197386935769217,0.20048896355057366,-0.33627811966268223,-0.9506512875430071,0.9051126788930863,-0.7330988250542093,0.032042355978946474,-0.6861862146289308,-0.27288505878556973,-0.37649090008917135,0.6324986786076293,-0.5384725898037782,0.7021025816305014,-0.6132339611507548,-0.0004912016464774854,0.0029151772876383395,-0.32768498711895955,-0.5639502606294773,-0.13825742205020403,0.8552606110162249,-0.5661049054797493,-0.8461621331198683,-0.9473363601743107,0.796147837908159,-0.8982324647062627,0.4472558194178558,-0.8741099896621527,0.9917692989181868,-0.31063020894383814,0.14979984437156668,-0.41755557617762323,-0.5336278436243389,0.696259092304068,-0.22710609543424157,-0.06507799896239938,-0.19994264786492316,0.4074818852746868,-0.15184239113596923,0.5530913491790124,0.3029299066943714,-0.6764355683781293,-0.6278846517040826,0.8644768321857594,-0.5254140769659735,0.7306513207494908,-0.5836380938852042,-0.7304077568238088,0.38765822244760495,-0.7205358861075679,-0.8142337983053729,-0.332978908862189,-0.9562714197658069,0.7216418564977551,0.6719141600201215,-0.5335035854188097,-0.8105624126755165,-0.12490961993786455,-0.8475392603834567,0.854473186873726,-0.7416118552094462,-0.39185712225063,-0.48081385376051533,-0.7499299103506688,-0.16738051169016424,-0.23544824340546247,0.05236536917553603,0.8331538673347851,0.7259140014777091,0.507050374320833,0.6656357741433994,-0.5272454139913538,-0.24762004902331863,-0.7478469000228233,0.3682875259908993,-0.09032541288762708,-0.6720711805094768,-0.5512137187841123,0.8326450212050872,-0.8155854275724457,0.42096746244755523,-0.2762163653154393,0.1935664526160249,0.4961740596071303,0.0772473846826498,-0.5214030822605894,-0.2671777150007789,