{"input":{"entries":[0.0,0.0,0.0,0.0,0.0,0.0,0.0,0.0,0.0,0.0,0.0,0.0,0.0,0.0,0.0,0.0,0.0,0.0,0.0,0.0,0.0,0.0,0.0,0.0,0.0,0.0,0.0,0.0,0.0,0.0,0.0,0.0,0.0,0.0,0.0,0.0,0.0,0.0,0.0,0.0,0.0,0.0,0.0,0.0,0.0,0.0,0.0,0.0,0.0,0.0,0.0,0.0,0.0,0.0,0.0,0.0,0.0,0.0,0.0,0.0,0.0,0.0,0.0,0.0,0.0,0.0,0.0,0.0,0.0,0.0,0.0,0.0,0.0,0.0,0.0,0.0,0.0,0.0,0.0,0.0,0.0,0.0,0.0,0.0,0.0,0.0,0.0,0.0,0.0,0.0,0.0,0.0,0.0,0.0,0.0,0.0,0.0,0.0,0.0,0.0,0.0,0.0,0.0,0.0,0.0,0.0,0.0,0.0,0.0,0.0,0.0,0.0,0.0,0.0,0.0,0.0,0.0,0.0,0.0,0.0,0.0,0.0,0.0,0.0,0.0,0.0,0.0,0.0,0.0,0.0,0.0,0.0,0.0,0.0,0.0,0.0,0.0,0.0,0.0,0.0,0.0,0.0,0.0,0.0,0.0,0.0,0.0,0.0,0.0,0.0,0.0,0.0,0.0,0.0,0.0,0.0,64.0,191.0,255.0,64.0,0.0,0.0,0.0,0.0,0.0,0.0,0.0,0.0,0.0,0.0,0.0,0.0,0.0,0.0,0.0,0.0,0.0,0.0,0.0,0.0,0.0,0.0,64.0,191.0,255.0,255.0,255.0,255.0,64.0,0.0,0.0,0.0,0.0,0.0,0.0,0.0,0.0,0.0,0.0,0.0,0.0,0.0,0.0,0.0,0.0,0.0,0.0,0.0,128.0,255.0,255.0,255.0,255.0,255.0,255.0,255.0,191.0,0.0,0.0,0.0,0.0,0.0,0.0,0.0,0.0,0.0,0.0,0.0,0.0,0.0,0.0,0.0,0.0,0.0,0.0,191.0,255.0,255.0,255.0,255.0,255.0,255.0,255.0,255.0,191.0,64.0,0.0,0.0,0.0,0.0,0.0,0.0,0.0,0.0,0.0,0.0,0.0,0.0,0.0,0.0,0.0,0.0,64.0,255.0,255.0,255.0,255.0,255.0,255.0,128.0,128.0,191.0,255.0,255.0,128.0,0.0,0.0,0.0,0.0,0.0,0.0,0.0,0.0,0.0,0.0,0.0,0.0,0.0,0.0,128.0,255.0,255.0,255.0,128.0,0.0,128.0,64.0,0.0,0.0,0.0,255.0,255.0,128.0,0.0,0.0,0.0,0.0,0.0,0.0,0.0,0.0,0.0,0.0,0.0,0.0,0.0,128.0,255.0,255.0,255.0,64.0,0.0,0.0,0.0,0.0,0.0,0.0,0.0,128.0,255.0,255.0,0.0,0.0,0.0,0.0,0.0,0.0,0.0,0.0,0.0,0.0,0.0,0.0,0.0,191.0,255.0,255.0,191.0,0.0,0.0,0.0,0.0,0.0,0.0,0.0,0.0,0.0,191.0,255.0,191.0,0.0,0.0,0.0,0.0,0.0,0.0,0.0,0.0,0.0,0.0,0.0,255.0,255.0,255.0,64.0,0.0,0.0,0.0,0.0,0.0,0.0,0.0,0.0,0.0,64.0,255.0,255.0,128.0,0.0,0.0,0.0,0.0,0.0,0.0,0.0,0.0,0.0,0.0,128.0,255.0,255.0,255.0,0.0,0.0,0.0,0.0,0.0,0.0,0.0,0.0,0.0,0.0,64.0,255.0,255.0,64.0,0.0,0.0,0.0,0.0,0.0,0.0,0.0,0.0,0.0,64.0,255.0,255.0,255.0,64.0,0.0,0.0,0.0,0.0,0.0,0.0,0.0,0.0,0.0,0.0,191.0,255.0,255.0,64.0,0.0,0.0,0.0,0.0,0.0,0.0,0.0,0.0,64.0,255.0,255.0,255.0,64.0,0.0,0.0,0.0,0.0,0.0,0.0,0.0,0.0,0.0,64.0,255.0,255.0,255.0,0.0,0.0,0.0,0.0,0.0,0.0,0.0,0.0,0.0,0.0,128.0,255.0,255.0,128.0,0.0,0.0,0.0,0.0,0.0,0.0,0.0,0.0,0.0,64.0,255.0,255.0,255.0,64.0,0.0,0.0,0.0,0.0,0.0,0.0,0.0,0.0,0.0,0.0,191.0,255.0,255.0,64.0,0.0,0.0,0.0,0.0,0.0,0.0,0.0,64.0,191.0,255.0,255.0,128.0,0.0,0.0,0.0,0.0,0.0,0.0,0.0,0.0,0.0,0.0,0.0,0.0,255.0,255.0,255.0,128.0,64.0,0.0,0.0,64.0,128.0,255.0,255.0,255.0,255.0,191.0,0.0,0.0,0.0,0.0,0.0,0.0,0.0,0.0,0.0,0.0,0.0,0.0,0.0,0.0,0.0,255.0,255.0,255.0,255.0,255.0,255.0,255.0,255.0,255.0,255.0,255.0,64.0,0.0,0.0,0.0,0.0,0.0,0.0,0.0,0.0,0.0,0.0,0.0,0.0,0.0,0.0,0.0,0.0,191.0,255.0,255.0,255.0,255.0,255.0,255.0,191.0,128.0,64.0,0.0,0.0,0.0,0.0,0.0,0.0,0.0,0.0,0.0,0.0,0.0,0.0,0.0,0.0,0.0,0.0,0.0,0.0,0.0,0.0,128.0,128.0,128.0,0.0,0.0,0.0,0.0,0.0,0.0,0.0,0.0,0.0,0.0,0.0,0.0,0.0,0.0,0.0,0.0,0.0,0.0,0.0,0.0,0.0,0.0,0.0,0.0,0.0,0.0,0.0,0.0,0.0,0.0,0.0,0.0,0.0,0.0,0.0,0.0,0.0,0.0,0.0,0.0,0.0,0.0,0.0,0.0,0.0,0.0,0.0,0.0,0.0,0.0,0.0,0.0,0.0,0.0,0.0,0.0,0.0,0.0,0.0,0.0,0.0,0.0,0.0,0.0,0.0,0.0,0.0,0.0,0.0,0.0,0.0,0.0,0.0,0.0,0.0,0.0,0.0,0.0,0.0,0.0,0.0,0.0,0.0,0.0,0.0,0.0,0.0,0.0,0.0,0.0,0.0,0.0,0.0,0.0,0.0,0.0,0.0,0.0,0.0,0.0,0.0,0.0,0.0,0.0,0.0,0.0,0.0,0.0,0.0,0.0,0.0,0.0,0.0,0.0,0.0,0.0,0.0,0.0,0.0,0.0,0.0,0.0,0.0,0.0,0.0,0.0,0.0,0.0,0.0,0.0,0.0,0.0,0.0,0.0,0.0,0.0,0.0,0.0,0.0,0.0,0.0,0.0,0.0,0.0,0.0,0.0,0.0,0.0,0.0,0.0,0.0,0.0,0.0,0.0,0.0,0.0,0.0,0.0],"row":784,"col":1},"h_o":[{"main":{"entries":[-7.579828861106053,10.365689227711679,14.44725972776635,-10.936963212093197,-12.2431607511659,-14.08561442365293,10.827906046346271,-5.603096878655214,-15.284975382698907,-9.510068328596923,-17.3261414543965,10.929660628974428,-20.328149795404574,-16.38099950159017,14.497338962110849,-15.125609764259721],"row":16,"col":1},"bias":{"entries":[-0.1492194035016502,-0.1678079342737781,-0.009130118199027657,-0.08948741401729254,-0.00828916626381155,-0.022285642900163317,0.132930196496776,0.13205610023789058,-0.1435424391494789,-0.06449161987493551,7.222047559901419e-6,-0.38414632324621295,0.31612851663264785,-0.015269492956839326,-0.06796548738062526,-0.1106921382776782],"row":16,"col":1},"weights":{"entries":[0.7839357612083099,-0.9825186196761951,0.2509201419715302,-1.06697912154811,-0.8660040996445425,0.0812125830757782,-0.07961044389520547,0.3222305417458036,0.8124257178957955,0.15920852481907388,-0.6952357797268157,0.6390610655065455,0.8198891273340704,-0.9074585158287966,-0.6469286689387513,0.18301942744759564,0.5939514738199919,0.15315606726451597,-0.0722530849234895,0.7536152139261209,-1.0178634121862478,0.5520426072678936,0.857837945675011,-0.14645744754363893,0.041818825012631844,-0.8103177663852835,0.6223548459386531,0.3564374300888629,-0.29212674865987803,0.4847504261432939,-0.9558047371429889,-0.7877651968164842,0.5668678453176258,0.502593593631259,0.04109124341467481,-0.6820086924275682,0.48610765715881504,-0.2512346823311033,-1.0577557003517657,0.8204490050984535,0.7042777952731832,-0.055565453202552836,0.48570276991114975,0.2490212729486366,0.001351709617790974,-0.9766895798758647,0.792359751843792,0.01868445018779814,-0.8752754118029412,-0.7619506293550485,0.2775416450061599,0.34231927422851977,0.3587717543459155,0.2928453406602865,0.10408078098615128,-1.0100879088376093,-0.9110501072410669,0.3664529026770295,-0.9782379531133981,-0.015324596852891446,0.3891763816600659,-0.6046946475799028,0.6454838362041689,-0.5020137934723389,-0.5704271037198714,-0.9543096777422562,-1.2547494562775878,0.6728200146528226,-0.2740269323981516,0.2957363797945931,0.5392027650099824,0.07424616653480315,-0.6893833032230837,-0.7857408084184596,-0.6639684878713727,0.5667696510582364,0.7342985720857989,0.47993289253560234,0.8776943277249585,-0.5864605750008797,-0.5205456146700639,0.6121937026423493,0.01363715957654905,0.28515647449728304,0.13164850792178207,0.47744521006108637,-0.8850576156938076,0.3262212705437514,-0.8797133661360351,-0.9054597754471218,0.6503448182510078,0.15899998523563807,0.7631721513514326,0.4050163699355046,-1.0275858583976891,-1.0429174889154251,-1.3189972384654305,-1.0821526999055067,0.4205793648853604,0.31711502784099693,0.3188434709849763,1.0947709642909056,-0.3937741373148658,0.037540015048042566,0.8276530245472037,-0.5604776747509168,0.26349556817300773,-0.8976496999593025,0.5223352783126028,0.27565476415424023,-1.0304132765557354,0.4901045660679471,0.43594278216552645,0.8372090097712398,0.9131556252088099,-1.1042697264498922,-0.21107939826259264,0.5905763941921663,-1.1846097362496602,-1.1155363866576014,-1.4684339182477257,-0.6539138710937968,-0.6951740034037429,-0.2267364316282962,-0.20369569775249258,-1.252322404380159,0.06451423985598563,0.8365754157090879,-0.8345114879671387,-0.7926337653146758,0.35506934641448407,0.7925705758715906,-0.509408034981034,-0.13433136668318263,-0.28284124897915636,0.8281472135220752,0.5372428130320063,-0.8589097244923397,-0.545040101933756,-1.0087979326750651,-0.15685919239706447,0.3637787675890258,-0.9394819773555684,-0.3398897017394588,0.5549319894342293,-0.05780522029312705,-0.5294099962441478,-1.2615055966956832,-0.25138959848714837,-0.6651644001479774,-1.2145230874077122,-0.8856549172534556,-1.308894794112231,-0.9306760294020471,0.22649669464492078,-0.3402133309885948,0.1820698608734882,-0.626131848709967,-0.2652439275114433,0.04159193260202151,0.9068387856568365,0.34094891503603453,-0.5775503941079745,-0.41338234375531,0.22906093235740432,0.679305698765458,0.59120853913148,-0.07091502801534522,0.39201582057573786,-0.6954160941145632,0.4309767718469413,-0.9002087957082267,-0.14026212908894764,-0.5353235530311632,0.07843644176362125,0.7760915495129189,-0.16956664050622172,-0.8620196516609987,-0.3784927292439782,-0.8661813308642919,0.06405463482412965,0.04206013343220211,-0.05218047235355909,-0.4381876317728409,0.3710291396281473,-0.05394524473704407,-0.336948210194077,-0.6196760039610304,-0.32793247422220084,0.7970567256259931,0.26666892212039256,-0.7394359109307233,0.4620512198675536,-0.9276792818238118,-1.0182774111959743,0.7521610185702144,-0.9850012326329748,-0.3048148067280256,0.09353712585116486,-0.5123652774996202,-0.49027145891400276,-0.36418885019013075,0.24724959643247718,1.0529200129037917,-0.010341363509355779,0.27093466846580905,0.890059180077532,1.0403125593632523,0.25027174686817555,-0.10364955740500105,0.15544855999987306,-0.9061319709299454,0.24435472366687255,0.20723781346590683,-0.19417045475196693,0.03521189589758294,-0.6074086905386414,-1.2878373242587526,-0.6916088387751482,-0.5902370226214773,0.09056390959713927,-0.7182073155303498,0.5057487901712899,0.590973306502865,-0.20381299133119712,0.049926737379461114,0.09552669348385198,1.1712592236148256,-0.12106394935986114,0.5267977230123824,0.7606062969571947,-0.0851379483593317,1.00686490096182,0.9284486476526895,-0.3949289420953951,1.2566488484841951,0.518884137135448,-0.554327470597922,-0.3094811368870145,-0.028344864750626038,0.19802220679854435,-0.41646903762184045,0.034321409947734256,-0.884450603669744,0.14136624373628864,-0.7260138592191405,-0.840539761813547,-1.087571009581777,-0.247933045224224,-0.39618682943966965,-0.47535166779383187,0.7860717636223887,-0.7687139591954294,0.18498852493561976,-0.7096987756416582,0.7485981997393933,0.4377432528539387,-0.6324572666965357,-0.007074463234120026,-0.35452429122645956,0.5372713406209213,0.060948727042650835,0.8393337402484965,0.769984017595339,0.7228081254219189,-0.18322727038088008,-0.2957171997901659,-0.7318020648959338,-0.3481827160499874,-0.45806509636100756,0.4372323561250586,0.9544824237591636,0.024075699889384947,1.2557665937563678,0.3435676364300957,-0.7953346431952057,0.20439902633347884,-1.3536584227069963,0.14561532376733555,-0.3534448326117819,0.20576937638639253,-0.7849313700597605,0.5613126675193728,0.44513584402238515,0.44035149981048555,0.11187087460326742,0.0606775721332901,-0.010052541027928609,0.29032512493695944,0.44620134117180005,0.5798553604568595,0.9757521278223692,-0.5203991345464953,-0.8705741854638858,-0.03187625273258376,0.02853354085058994,0.10161025177415538,0.17123559163305405,-0.46292130050655017,0.8275626905687623,1.286265125846553,0.5811694561281211,1.684559283169223,-0.36963859074861055,-0.47240110418087017,0.1782181831465951,-0.22236439084555962,0.3717671511069574,0.7599353282877676,-0.6644403839030183,0.658438589837185,0.5748204203511471,0.03694583239018827,0.8657860014839802,0.5843936531088825,2.19927049912274,1.3799203536500562,1.7115379600631202,-0.028906889351340413,0.39815499049832676,-0.815185087393225,-0.28482528484239356,0.34304021899422454,-0.006155408656592482,0.6308065519508238,0.3419878732295496,1.8429451486876856,1.4264419892225202,1.4219410171521156,1.610582398210022,1.1864483485570751,0.27381375870615715,0.36182267410741464,-0.2871242004753606,-0.0859824322017053,-0.6683428698475872,-0.8594965547603878,-0.43273634380636167,0.3953411618788821,-0.3238288645712498,-0.16500529005126796,1.0333102535874703,0.3205652257633884,0.5673114108115588,0.09836285709730239,-0.4478541445768944,1.6407504353788143,0.6610038247995685,-0.05694664799848221,0.35984389580880494,0.49792653851150526,0.7424324783643937,1.2355585323524996,-0.41615874632674016,0.7700460607365213,1.7772501599702948,0.43038903246013743,1.3721988952630264,-0.10366124443024353,-0.47772810017226297,-0.5320112240022866,-0.3242416757659156,-0.8015999837022919,-0.7975591265476115,-0.3393231419768448,0.19269217254547016,0.8339322688898358,0.9010801256266713,0.0505774442625594,1.6565963678079527,-0.6813775790430817,-0.1997953146618868,-0.37823171479103845,0.1635988195882393,0.110460773783199,-0.15234072624833592,-1.1763613756749411,0.4315285128984227,0.8817747710258167,1.3329048362668923,1.6696668096271976,1.2146778059262653,-0.23512279975623945,0.11469402865000333,1.9480044526950588,1.6671758158102987,0.6889357888878441,-0.2819510776855816,-0.8835827921129032,-0.5585320187731656,0.6714278517658269,-1.0235413073875301,-0.7606309773616892,-0.7278360130480791,0.4805545937054137,-0.9286236749499234,-0.598815963773608,0.4866637673615642,0.4024036383385277,0.2465154984008456,-0.5898063269040178,-0.767667217674922,0.2772393727962583,0.25434857857266563,-0.28446445557522543,-0.26786023363802275,1.6428615841495626,0.3460250222226783,1.3179487010285786,0.12160982926215287,0.5744946340961189,1.4270691135296756,0.22853718254259364,0.528858493271956,1.9217982810833534,-0.33060208061933233,-0.0025663668617586194,0.47556435227505856,-0.7946547863382615,0.5148563309549626,-0.6737228144162292,0.6788343884108966,0.11916202851392949,-0.25480036079937,0.6696534805576402,0.17030411060682804,-0.0005362028553308215,0.20968448642194706,0.25795055731323824,1.276887281166764,-0.015962908968848263,-0.5849352693957856,-0.8428807386537405,0.9038824563102485,1.5222907954636373,1.4008819681203464,1.4725357275947824,-0.0007953358937080866,0.1664311909910167,-0.39469589489904106,-0.24875212119730666,0.6910819683325854,0.527351275675227,-0.4648850888095043,-0.7081308305459786,0.08534139428886295,-0.2501197909382827,0.07106530451216617,-0.8925681635293597,-0.7109832157918153,-0.5703578330956788,-1.2225358880750532,-0.2281112452868975,-0.33410822619094194,0.2926260537729923,0.24021410322544046,0.5504611652327172,1.8041700753983705,1.6504593553267257,0.14830371985131507,-0.32511020467123314,-0.12144862980220766,0.4424533190978158,0.656651615182802,-0.09992959982724132,0.2016547570828831,0.577394373827603,0.8862193159704385,-0.6275161601649438,-0.6698166912412687,-1.3274049849280047,-0.906560272300877,-0.3721937949968106,0.6157132244711828,0.04691935122770648,0.12293810691557355,-0.6679590379583081,-0.45750466257554256,-0.0365706174038448,-0.021249431711721768,-0.1560406922595158,-1.5356402928294095,-0.6105835240640026,1.0892745229431962,0.7267111473218756,1.3769352532452535,0.9166536081603196,0.15396192348378346,0.2644538054322545,0.4497765588577707,1.687835064493898,0.29640208318640027,-0.1261385058167212,-0.5185996621536363,0.04543949624948186,-0.8476379867625871,0.4366072374902254,0.06818938857926579,-0.6274355498035199,-0.9611311535557746,-0.5938206259442456,-0.061355084276556615,0.19228153222012984,0.20778443969689564,0.6080332085986951,-1.1316787100457333,-1.0231531397390952,-0.7051917624996169,-0.8694850003387818,-1.0333264842056473,-1.155860347361382,-0.0028297987722805426,0.8443462967312202,1.1802991685774014,-0.008037386233589298,0.9071775944926233,0.672677521283608,-0.3229397310032207,-0.04121940888266976,-0.15221665078592245,-0.27611233947382585,0.24552156708944062,-1.3843528519623522,0.0011304892422515293,0.17545905060351918,-0.279606713196931,-0.8139789244372332,-1.4701552930923432,0.3097872670716864,0.4412279910121621,-0.9560726373219722,0.3562299514111596,-0.5116680202515885,0.8158162036016702,-0.16200820209179112,-1.136220237335762,-1.943214821773335,-0.1529045705789414,-1.1956006016618468,-0.36911215931402075,-0.7668433471899835,0.4126500944484271,0.3011608396018518,0.15203324881716695,0.6492482935680514,-0.4385386740221671,-0.49078632755795537,-0.2670866404633709,0.6496355440215894,-1.1904723996008937,0.16159828911361007,-0.28360908281314806,-0.6382315945313104,-0.45153189956619333,-1.4944920154473544,0.01429232745749325,-0.7748320396862786,-0.9313920767274441,-0.10509804137787643,0.8805558994926154,-0.5484310688003514,-0.3743254765705992,-0.5789270303102045,0.222690028152197,-1.5389841793792427,-1.6170895333094644,-1.1169708084080685,-0.9775726737295417,-0.4847404295750054,-0.5301902426029268,-0.3593892603454694,0.2185614050030503,-0.14832336568357365,-0.3112534011490816,-0.1386873335113236,-1.0204265001627049,0.26286018408288836,-1.078804483438496,-0.23170557415908605,-1.2204853100570465,-1.0083887155889242,-1.0646614372913605,-0.42092877748158886,-0.6859148671392401,-1.170396933149108,-0.32635501589428834,0.7894661109451647,0.3664778954149078,-0.780766876968292,0.46492456312239727,-0.6836538554511177,-1.2686240584837987,-0.8742410388845313,-1.0536774079224605,-1.3641510645542274,-0.1900044651242269,-0.5082823464893306,-0.4913128849012439,-0.4046150042221723,0.3446411150996515,1.3480439321816742,0.22578920267376176,0.4572537001838877,0.4432414682305075,-0.9955848081613243,0.03285849468683182,-0.6697217705947124,-1.7766262012132756,-1.6330947556940016,-0.2641585959030061,0.012012850050333222,-0.21763308080696697,-0.5139741286359797,-0.13219597662090515,-0.5711171442183857,0.035417525161387194,-0.9848201932656732,-0.1290900632727545,-0.21674274419062234,0.02276242756700083,-0.5038061147886321,-0.6545546246422631,-0.17816269975666302,-0.3750934016541867,-1.1070505332935563,-0.16548772553205554,0.6914775548218279,-0.09646431697986348,0.09659716150137751,0.42576877801796853,1.1097812963979137,0.1250871555319219,-0.6700841011153168,-0.21031995156209857,-0.22410475337255686,-0.27128061808655024,-1.4606419915889794,0.04377755573427174,0.00652000183007212,0.46070855763337565,-0.13379154554214673,-0.5154549767999085,-0.24582694124950816,0.7217959765121541,0.07918892141482295,-0.525251933272978,0.19954928936581295,-1.0075412508500154,0.43231727795009117,-0.8478510124854588,-0.5669559763274588,-0.5568598621293944,0.10249804737434345,0.5754402423026006,0.508588742651075,-0.18481770268765046,0.26301301393060195,0.2662334142720311,0.31529566453312946,0.3585340503509215,0.431994910187267,-0.7689345153317313,0.05901006645819639,-0.15882695470225944,-0.3676106484308843,0.6851242193182034,0.49622493190516076,0.5969464151719198,-0.7066295651120759,0.6459028173387319,0.5339066027099056,0.9080721053459119,0.6784418826523174,-0.1127412431579844,-0.8418849131192667,0.05534035793138091,0.14183865663221173,-0.21179613216361096,0.8977024672335617,0.7934838364857537,0.8801572599765876,-0.20323172807607803,0.6746635613911791,-0.41169961451955656,0.3266124770686638,-0.8014830493969735,0.41864006503617934,-0.4805323368651097,-0.7796346099482833,1.582263385152738,-0.43557677021191643,0.5254350602767279,0.36563089010066385,-0.5705245231202138,-1.0951959754581746,0.06686064612975902,0.005812802651741309,-0.3925045561421729,0.454549773256451,-0.2128236323704774,0.1843325984303596,0.047462621318264786,-0.4994487947417306,0.17267257528252222,0.6539279338922347,1.1720101249781187,-0.7454657483495578,-0.18856156960444387,-0.7663377894450523,-0.5884099836155504,-0.06089476084293282,0.023740287568926825,0.09670832112956176,0.9459190660438365,-0.480763304793433,1.129366880763759,-0.5423882770919342,0.32553161757545745,0.5666249651847459,0.18043643231106987,0.9110429768960521,-0.46585253487825073,-0.7682920559200744,0.7715457128577193,0.8678147423295622,-0.2250994840099143,-0.33917314745888666,-0.40046860527568023,-0.2833674384309713,0.028939232061475553,-0.21403137925231636,-0.8315581407784839,-0.17558420764247118,0.42563300503350654,-0.4652329598347954,0.8087739693944486,0.5669192319601437,-0.3062745798521398,-0.30121356195579013,0.05110574960950756,0.6646896868205684,0.6305114943380383,1.4234386072054563,-0.14347513649179616,0.9845632262299392,0.3101011110316407,0.8181495871516898,-0.7365283122395329,-0.46170398904262316,0.18307400414310576,0.43321144668624006,0.8835506367001079,-0.13638034355727174,0.6223397645218595,0.8536458865284483,0.7526108472873722,-0.5945552319750048,-0.827141328428817,0.23520293555835514,-0.751117329243271,-0.791329870414215,-0.2923983126422856,0.2876331327680926,-0.24494376183530253,-0.9370003759452107,0.5412035711155282,0.7250708257884896,0.4506201496167424,-0.9226359876696585,-1.0180155716428896,-0.7793732137850922,-0.19920080493302667,0.7360915671769019,0.7373885636608334,-0.02012008718766652,0.04354654033060143,0.4738577626224875,0.11527130354465684,-0.5225633937610222,0.12529029077735232,-0.49661555532935664,0.32249921775298424,0.42427307575551826,-0.6823775280207095,-0.13310871651957132,-0.7516066517596318,-0.9451639462948833,-0.9950804554786412,-0.8415128802689193,0.7587543371687255,0.38609254268796644,0.8560123524759553,-0.8181100397346559,0.7216075935589137,0.7179933301100418,-0.15327522846184974,0.15190386607498843,0.49012157371374293,0.018257409162211243,0.33803624069157034,-0.02144842430029702,-0.7188044186209241,-0.1929773670997986,-1.0401149054062193,0.5753772889661715,-0.9485096798305892,-0.20329403204943877,-0.17752120456006917,-0.060540096010458976,-0.22869865005352044,0.7401311156842652,-0.9845608224450213,0.2116088538639295,0.1421206929085614,0.8960808590919074,0.20963712728280717,0.6225394214885458,-0.2959804124000468,-0.07264047828665174,-0.929563342202048,-0.06999053237765956,-0.7787640734001056,-0.4760465710077161,-0.47564754080381966,-0.2384026103542414,0.7388202511812652,-0.6016762701483764,-0.6977438250086732,-0.6899153030723474,-0.6564676473897878,0.03594996144503491,-0.057632185961806845,-0.39954396860482844,0.17982922207655952,0.43259259242116155,-0.41348655384282085,-0.10648457251644067,0.19054885545775732,-0.2230290340361352,-0.5215019611566114,-0.13263381748985834,0.31356541654006154,-0.30285027254308694,-1.053160314194956,-0.5008482175054219,-0.6301914973001121,0.07691063238420806,-0.4232972579234615,0.975040659572766,-0.1487489461719835,-0.18608130810906529,0.6975997037521302,-0.47452341511664553,0.6830997898154377,-0.09980111344662931,0.2526814382046822,-0.7527382428001578,0.15339888252737607,-0.32549589647153115,0.161476003905808,0.7392684396280786,-0.15651192050385668,-0.1721602293098464,0.6411012380065431,0.7041200259521583,0.2586677447170852,-0.8133857989943962,0.5479190468304309,-0.5372676351446417,0.8135265680392858,-0.614507502066409,-0.08150138896111703,-0.030408182739217252,0.0015461897407929403,0.6401809422145954,-0.547719991404383,0.291082305981371,0.3580700562151797,0.6544420612461198,0.5475347784523282,1.0542620381431291,0.21520031878483883,1.2188520810042005,1.5244367333124667,0.15971425540620862,1.0754128472969897,0.19747107905277916,0.822374020168084,-0.039212862869189895,-0.7175098495919002,-0.006994982403349443,0.6643734248081975,-0.42784336048847105,0.5164527277582196,-0.7026296816651252,-0.042758662303131106,0.08479661256772225,-0.39876766003967,0.34634685379398644,0.723981192490743,-0.8818326450897706,-0.8109729265397474,1.156378969225505,0.3317268724484705,0.3507398297728841,-0.1645193906187001,1.4114561378341215,0.2387609225827461,0.7265372701361688,0.5280848942185165,-0.6492225440443756,0.7265045489828552,-0.3236278124040514,-0.18095000334241182,0.5229579222755505,1.4889453102194152,1.3314327889522122,0.7743234323285321,-0.0020634683215969775,0.7487634332817993,1.0172882742855835,-0.7056362564226796,-0.052107582334583874,-0.6197878068013902,0.32491042966004485,0.7050538058285202,0.8863995940544455,0.5569538664052961,0.3287164324514545,-0.1898977706135371,-1.254979204993131,0.7942793791018248,0.855492858599702,0.45211138614238355,1.223660121983692,0.5205192023681392,1.1984829740867973,-0.36108887389459465,0.31485672488672684,-0.39472286128323253,-1.8908039285798126,-0.23377897768301617,-0.7960576429043629,0.2483049456922725,-0.8388969381389725,-1.1044620559350522,-0.5481203356608153,-1.436760222544413,-0.34030134988653854,-0.4511516347529582,-0.4947510588589216,-0.7047216084960706,0.3697890638613778,-0.7479757150610218,0.21490459471993054,-0.7028217221921138,0.7941231398366977,-0.09819418781084917,0.46419942952965365,0.11887993464028379,0.39568979066927035,0.6694095463208821,-0.511036846060648,0.5459172281221056,-0.371850781479583,0.511697171958898,0.8905061827507879,0.909727766057837,0.34488532568576785,0.29655299720216466,-0.18238973283984142,-1.0007711918125288,-0.7676957690733314,-1.9315980017917376,-0.3041987843527547,-0.49559755518961146,0.4930918765330627,0.6066831001135619,0.3430317564429886,0.8907671501304693,-0.770946131577164,0.8932547297041964,0.016460241994899125,0.5382737627593032,-0.4139729379721746,-0.9539740431647615,0.7929499345619986,-0.783593259879815,-0.42687819759842643,0.2993063647462351,-0.31536284256942115,0.768498357385331,0.4204154292336248,1.1223663266992068,1.0638705150362646,0.2132237456408009,0.07165123596096702,0.34035645858089675,0.24343136776023147,0.11294272378974043,-1.4441245492708896,-1.5333228441683378,-1.3510377705281944,-1.1116753255651157,-0.9766299206891289,-0.48337971611954095,0.563822852962238,0.15868990615632358,0.757498289354912,0.776472509801459,0.1573272516404773,0.4945651226921614,0.38205723345228765,0.14176228433632423,0.09378979336851216,0.6909329656974907,-0.1288982547331592,0.18621192492667904,0.7190727485393593,0.9870440912047145,0.6161432860196899,-0.23618738529167693,0.06092481410583611,0.16637165953879368,0.03270630570503771,0.29263361183772785,0.3424747420376638,-0.35313390826611174,-1.0091871660777938,-0.5638224861637958,-0.6652297489200841,-2.3414168634991332,-1.6242710935193627,-0.4171773234309595,0.8581396385668896,0.11056727004895078,0.3428989303695055,0.36905182377340734,1.1477428945004575,0.7222422581145562,-0.5868727357462605,1.0441312816500126,-0.24783126326916557,0.9490445356495146,-0.23740740714717232,-0.7165502619078588,-0.12219516405930049,0.840021063045257,0.8572099853025957,0.29331820893476823,1.3809082039044898,-0.16720145328800753,0.9274873239843854,0.9749752157659851,-1.2243459292725378,-0.18066484022392532,0.5745575939904356,-0.5791076704154461,-0.4362986615868275,-0.8208630478112092,-1.5150331480013717,-0.8400075203396293,0.03991424736375484,-0.6191826081103351,-0.9332437267698241,-0.5660405124262545,0.25874378769621953,0.9994490442236952,0.16548901611281916,-0.9511036472444887,-0.4931064488441627,-0.3096645184619489,-0.5482898395206971,-0.23757382325783485,-0.7903857039749619,-0.23796716723973876,0.5493089988025452,0.33989854043304674,0.4527024139262147,0.580273628031679,-0.9192017456047948,0.09575394423172619,0.11702184364503292,1.0742862780151003,-0.28566859898936964,-0.4932680379066782,-1.3671976559098062,-1.6671086098542534,-0.44185091359757367,-0.1565783156393846,-0.21167335987550193,-0.33586851114743954,0.06642445785026879,0.5741366544975351,0.4104424792374303,0.6551107063654552,-0.5173252490386054,-0.14587239853128886,0.3843615925825547,-0.740346831475155,-0.13029972224690342,-1.0576137400537782,-0.9447025752951906,-0.1451212805701684,0.3423353316895382,-0.15851931233043826,0.8134818022191905,-0.5249777756592109,1.270121118455806,0.2560485583122123,0.7923032437178777,2.3144936342854425,-0.4059936387031626,0.3532476268549618,-0.7813669845161628,-0.5500069715640641,-1.0156603923666245,0.7593434531653169,0.7533244981717673,-0.5716154529136779,-1.0228006477261622,-0.5652055609650455,-0.8554569447570848,-0.022013562752911404,0.7646982644891657,0.28681309027156393,0.4368892064210118,-0.5120919317313906,0.4919638569053898,-0.5968061043622025,-0.7960432621114966,-1.9126582123567024,-1.157012195432229,-0.1422839759026731,-1.0029794010091757,0.4434224949556309,0.48399492161861213,-0.2849174971540588,-0.0501833465660314,0.03514915234012293,-0.1015635915361556,0.6734046328861447,1.3284298229636617,0.5690730438869117,-0.8557673234399069,-0.571099196208775,-0.14565242082622906,0.39556481020264334,0.2559045993946469,0.08985679855749795,-0.7897383651362159,-1.211554980392907,-1.2648079744934906,0.18910989692436853,-0.651036513913356,-0.6592959205643965,-0.1286102665205172,0.2591329024806437,-0.44091350719207567,-1.321998313418537,-0.9337669487671647,-0.7469027281731839,0.7707667292548112,-0.28977987431110636,-0.07054219655573803,-0.5952494041145429,0.6968526688053862,0.3835048378034554,0.9222471273134352,0.18749870720072934,0.5017227969792296,-0.5390999229035334,0.10810302884293811,-0.1574436942505014,0.24440440318490383,-0.05336027876381029,-0.43032808876861683,-0.5390649255765751,0.38954245405933224,-0.2818963840089286,-0.6985062997478159,-0.6070590857824516,0.2383294871269597,0.5172551197573884,-0.778054968923204,1.5306762860775904,0.3720420757033255,-1.4075861155338842,-1.3531901804922124,0.5266711974997983,0.08639645567622796,-0.82701747849452,0.8309121817275064,-0.29779341281916144,-0.0023516497274966384,-0.3860479954680816,0.19059859967478787,0.6218162391738522,1.4985389451875823,0.43667326131022405,0.07677260072661111,-0.9174512409406594,-0.6143858726832057,-0.15200116577933995,-0.7586147729280608,-0.18453600402865641,-0.06365883584152372,-0.6717582447078998,0.04389512806621745,-0.0803078185463961,0.851490735182317,1.0349521908219166,0.4330130381564994,0.49876976803488593,-0.7933836513362799,-0.7500829253659461,-2.02032924076709,-0.192675089340595,-0.4118847355687737,0.3807768618883727,-0.7057001885555847,-0.44951022539103275,0.3268827537602681,0.2467245330645537,-0.01219566470798257,0.038402051095596294,0.5944775068965975,0.12241490597701106,-0.3908061439701567,-0.49975678449444094,0.03930549281157758,0.885453058389412,-0.9913672028767211,-0.3270089830415523,0.7421879087594556,0.026745553452346423,0.2065945669151571,0.727723246579006,-0.23930381109860102,0.1427848371354248,0.644369062801297,-0.5471494858342016,-0.6175766711873635,-0.7432772724424231,-0.9239133278233645,-0.9166955879697062,-0.33240586920845155,-0.1518979963392272,1.2932188732956535,-0.29461811101825564,-0.03690185556763991,1.566841638326948,-0.4280964609859306,0.5866942692776483,0.6280317834577241,0.4761022581079135,0.1677911155395049,-0.17287354645113898,-0.4045278669113327,-0.1935733953365714,0.5713633189287775,0.23288528488031637,0.03573022325001142,-1.1212011187907533,-0.313299496181934,-0.46300768977937107,-0.8633239334174033,0.4198088162413064,0.6272705796245861,-0.6510895742582207,-1.1958369398639286,-0.6114148566389339,-0.32433516754548614,-0.11839456770939512,-0.09750018564351358,-0.053955870164986104,1.016886650016398,0.6412878060354136,-0.21611706908407588,-0.2574071748824725,0.06352259737565576,0.9842165383228674,0.9044507876854719,-0.3649489528265466,0.4185016517309644,0.1916864530717763,0.13470798551254978,-0.7387045763016702,0.7083171201342682,-0.8346774272025099,0.8551983046209886,0.0019802907021632013,0.34047288981047596,1.0279404056226011,-0.41504803246344574,0.09335944210461222,-0.6973806088431352,-0.4933244429038143,-0.5559696175663171,-0.8083204958221338,-0.092841858410733,-0.1941467688108085,0.7655590747139627,0.044998623776270466,0.949206171888574,0.5329659693089079,1.425514455068726,0.816028382439815,1.075917103693317,-0.29265797832831947,0.5449726190062698,0.25522088360997697,0.8099335899986936,-0.9294734712178271,-0.7104477123978432,-0.756151346086487,0.5942228542188073,-0.19247192911952163,0.7555839621137391,-0.06655097985735128,0.7549664256048729,0.5696477003489405,-0.15959048730433245,-0.20322484275667718,-0.7241893190375744,-0.039308439864174934,-0.5397447743779442,0.1435176647905418,-0.10332958079371254,0.623681935323821,-0.34294198316796326,1.3930511832986996,0.7900352279735696,1.2161270453872168,-0.11132294010883959,1.309417841602475,0.2588223688828984,0.030962354025159424,0.11444096914699119,-0.6034009763001756,0.7762709081915768,0.7545586383905942,0.3300481387634113,-1.0310329010111996,-0.9782716688631072,0.558465120764313,0.1197960846322536,0.09786815121204673,1.0712887991404036,0.17216944200770382,-0.46263293566447716,0.210358538615767,-0.2807225251927647,-1.4220850489600545,0.2386118601460765,-0.16951835633594448,-0.2924097038342255,-0.04955513975887354,-0.41938641393108333,-0.07055393525630066,1.043859658012794,1.0640460695526572,0.016994589163308586,-0.24210032307456134,0.4724918834544944,0.18911308007895217,1.2848242293915866,1.0157927023226534,0.09391255811566943,-0.49590716111417793,-0.9494196974504403,0.4346807583176434,-1.0515752195751236,-0.7413112903088684,0.2243450312403108,-0.32134357944443925,-0.18016534030196688,0.38869879639950866,0.7630751972856992,-0.3330109494955387,0.2652391779027583,0.5373121686460723,0.5448614269907404,0.883166147913073,0.45683120901360386,-0.27031480431342453,0.41322030734023646,-0.8585095253649262,-0.0959929533519748,0.4318171589756096,0.9770529777125164,0.8385411736687086,0.4662452487644311,-1.2507425767148,-0.8442605101921872,-0.68806766159883,-0.9387959157701025,-1.0609595941695669,-1.0228630526830367,0.08326373824082631,0.16268488981875193,0.05500151586617406,-0.5947592389946424,0.9522194123633788,-0.4432719770366309,0.678529323078023,0.27870737790391914,0.5206050084711892,-0.4148220915392189,-0.589487086095037,0.5018877248410085,0.6697687841294723,0.5952306298579139,-0.7988310442908954,-0.6789419174830983,-0.4962229063982707,-0.11432357540843802,0.4643873962643112,-0.9501230013307987,-0.19940583741863252,0.1533833843262806,-0.2743375933277468,-0.9107590961961665,0.6921090331854494,0.3865180560327718,-0.9195922998909294,-0.9486070709870291,-0.6076388808403368,-0.09798544914777438,0.8836582836325644,-0.038481104746179245,0.2317487836248924,0.333778611064146,0.8484660568391313,0.7149661418115161,0.07888710505491092,-0.07181119315337643,-0.24877601117679998,-0.8353150114952272,-0.811068536178699,-1.5830613163488279,-1.0194007660248314,-2.215969568096727,-1.3238321346054127,-1.026497222844985,-0.6782237260060036,-1.498065145533852,-0.37872976028791167,-0.9633576737857338,-0.2563451489570089,-0.09223440483209681,0.27441512155490855,0.2476011873827175,0.7840978391542428,-0.7520792206590059,-0.45685906505358453,-0.44903878349466997,0.2140295402837271,-0.9975796008728085,-0.006936559284123851,0.002776093417913386,0.4588574659676042,0.4793836885997478,0.46127752240307485,0.5298037141471177,0.45829359083047994,0.5722999834166512,-0.025971742728326825,0.6670452256178014,-0.2668721449718735,0.555291982304959,0.7594123894691681,0.1793854763387089,-0.2495410784060175,-1.1142774530879473,-0.24881353051402996,-0.8327679321376169,0.1173043087469213,0.3310631086686556,-0.2791833035126219,-0.6547653246617733,-0.3333015526495927,0.7768599401879919,-0.8727674061297273,0.4426717976394927,-1.0331565272013008,-0.21730106858160833,-0.3148636269778928,-0.554245318322246,0.7655276860503798,0.20085268634275033,1.4099344257384205,1.1202327953924616,1.3886753833573833,1.3182210787253583,0.5217503928518081,0.8695087221556468,1.4836830059290285,0.5033223905131088,0.5025786667465362,1.8437578259700875,0.4872140987804709,1.608934705554621,0.5727491557375833,-0.6432432413340218,0.8467406347486238,-0.6003747994698532,0.18088006053231334,-0.32800691430224405,0.07114031531747354,-0.034704007878382126,-0.16116138452379672,0.1995509422140073,-0.27643250842446354,-0.33282826145827205,-0.3964608476674575,-0.8505965674671745,0.227901037574564,-0.036524611998334296,-0.6838023680613661,0.3002797176648606,-0.2790853729995483,0.15427145779454088,0.05897306332770234,1.4312328245441461,1.204132493289725,0.5789628708855924,1.0411357839625228,0.9435033751399732,0.3753821995989988,-0.42188543009688806,0.9543644877898947,-0.6433944398296347,-0.024495119599696726,0.6868611578365373,0.20129415083326171,0.6631623408095217,0.8045253306207099,0.309753101026747,-0.7659788320267769,-0.8675658064499188,0.7245431171781123,0.45838471263131253,0.30835347232178767,0.03338763963778613,-0.8294051257303496,-0.6504362503919312,0.9405493746981317,0.6540675689701665,-0.23862610925520997,0.6444904039078287,0.5556817954457881,-0.07328612904534619,0.49735683330650265,0.8231652305172259,-0.3932907796076185,-0.04166070464559354,0.776561599959142,-0.6635937652751005,-0.8337127829941704,0.8028839257276232,-0.36860582659696794,-1.0776796597484433,-0.9905110634307442,0.2680532734747899,0.12762765097015957,-0.24617308866776963,0.7539252399831424,-0.4161925891706808,-0.9218100931754237,0.3218824099456077,-0.2172191108218371,-0.22506790500899526,-0.04284028573274525,-0.4597693226128434,-0.6880017416134404,-0.12821672524030583,-0.22587887289972608,-0.36204540444826305,0.7439207931186748,0.8689588500815176,-0.04307842847306901,-0.46528670980964426,0.9687542891878059,-0.9704915185784853,0.1582338603893279,0.4839475433265519,-0.08157604022124719,0.3138531657651984,-0.0065411263254337906,0.500538356396078,-0.10535294779381661,-0.768326415583621,0.8958232883900731,0.07081523650989173,-0.44245325849380324,0.3032591828133815,-0.5009171851015948,-0.6359336210017791,-0.19529381765178866,0.7202005179223147,-0.8979464536529468,-0.7806709598153109,-0.6541766632291625,-0.18228116746808615,-0.7952091476983143,-0.7741804898523782,0.5933931003384665,-0.3994184501450304,0.4855973690270864,0.6312907446195685,0.01323352476083328,0.034906918048965944,0.22191730476614516,-0.1451803268731056,-0.09139907168054419,0.620901593854234,-0.3372163259286838,0.9015599732103826,-0.7862500714770625,-0.0001607563795296811,0.9654033948561239,0.4035629119044031,0.8120963404820317,-0.46077977071931675,-0.9633226448542483,0.040955283690583495,-0.8278720301420127,0.6067179098157534,-0.3061528748846476,-0.43100019952210955,0.4975988069403653,-0.3876217260805351,1.1351369872318944,1.6506317843066745,-0.22327040823929625,0.8381829771511304,1.1486876964589812,0.2932742631061017,0.01194677166559738,1.3691086812910058,-0.4094824165047911,-0.5131753286161453,-0.1428189512619848,0.5251705630212238,-0.3008953056400352,-0.7830957185651728,-0.6231951815200446,-0.4361112901458175,-0.8975902349585768,0.4461427925178434,-0.6367908527609144,0.11321211053194759,0.9567969197963259,0.4568005068566513,0.6214222245552933,0.9263529885960744,-0.5256836315769352,0.6061843884181914,-0.4875621162055439,0.9513522316331936,0.4032199732393739,0.6989744482668779,0.5682377992293532,1.2193302301294398,-0.4332832415837474,0.6692541171625241,0.8140619910589381,0.48663008580807027,1.4280052493648248,-0.08896836169068106,0.3936698890259616,-0.01377533516207689,0.4561310571119256,-0.5857468186934223,-0.9489305679058431,-0.5495233411593565,-0.5752044459105045,0.5660307549628557,0.16831483734229752,-0.9065135609800726,-0.27638346797230096,0.848471353330242,-0.38443123776640786,0.7078590368492432,-0.6819959168452463,0.6165287223859018,-0.5788425840904879,0.5693053486640628,-0.6511235335583563,-0.22507186149427383,-0.1298355518566778,0.06315332718339242,-0.5790118559207683,0.5495092778140782,-0.8315957780498504,-0.6346896328299709,0.7176630898299476,1.3159827323360458,0.0738999551764954,0.6913733735403463,0.35832280435997577,-0.121944814572336,0.9988023024651471,0.08788483404220045,-0.7025549658590647,-0.5706837623197601,0.4862092479133596,-0.9198114338504892,-0.5574321389689374,-0.1894174139789201,-0.41142324492741694,-0.689133722031888,0.24541958528143315,0.8307270960229269,-0.35174586573707706,0.15407744324313252,-0.9265288001143119,-0.17182602421622065,-0.770241664420925,-1.2540992512572604,-0.9260580353064153,-0.23933960667041407,-0.729535896312744,0.6237081168302048,0.014299283900835135,0.015538491792934095,0.41762630113757865,0.38213344068534033,-0.3351006214582048,0.43058423193485185,-0.5748662462529015,-0.08966079751653158,0.7132591058946202,-0.33396989511587805,-0.9084790852339314,-0.8364837732623936,0.6262801748781929,-0.9957293190603169,-0.19748815361982003,-1.3422926814514435,-1.2396069506105163,-1.0394498483865027,-0.16957829392556373,0.3276142676335425,-0.054442243282672935,-0.1616802489364365,0.17395237029733313,-0.5404712862128151,-0.4039024106508085,0.5877720382465984,-1.3795420520843393,0.03442148866364504,0.3918501073002552,0.12198742032897635,0.3383790418008706,-0.02409411242068743,-0.3628775253634088,-0.0988098499333441,0.3386016637814954,-0.6577025844144649,-0.32833058528080694,0.7668702341689116,0.4129023095331994,0.745960444937421,0.8394476181078773,0.5073529382231947,-0.9381958779585824,-0.28143594835233254,-0.7488517285952019,-0.2651616747844621,-1.040386246446538,0.1824320413382319,0.18989233050420037,-1.0196074721584583,-0.14631161059043904,-1.0220108211004686,0.2424457969552788,-0.6719800223492453,0.07195759775644298,-0.59329920886153,0.3106913631366695,-1.1941176755086176,-0.24396732620765185,0.03151166156979661,0.5582047816204493,0.10561901622908315,-0.4564016772211246,0.43353936617872013,-0.45044802822784596,-0.5819188579688113,0.9337347362669982,0.5867120100499864,0.5248906611449096,-0.6219595606279343,-0.6526683193277694,-0.554204235366472,0.013432931147260187,0.027956680458641,0.8525098651296564,0.8379066044570035,-0.34848220720911705,0.17690630918691386,1.0748664628396072,-0.11623794770339207,0.32424707951779713,0.11120823618195023,-0.6521390799927271,-0.31875832312628705,-0.22877712305050002,-0.8611772336605725,-0.42015598931524156,-0.731700966334986,0.2922700306485532,0.7023492676836545,-0.47423792532930126,1.1024423405520636,0.42427999344653305,0.660644254600415,0.33075732672165126,-0.5199560044512114,0.3210074262966187,-0.9699015137754852,-0.1547165142847228,-1.9084028674425968,-0.894070239962922,0.4290486692358266,0.6950550340975342,0.0027194653897741135,0.01103487258313971,0.4031656389636564,0.8822994190632215,0.23394037001472048,0.47102361366985956,-0.13347599181335074,-1.2879748448729245,-0.6918834619108013,-0.5381544606120582,-1.6411428495249514,-1.1353101335927047,-0.1386881265085777,0.5090426091709938,1.4159249887738097,1.7672452291531642,1.0018815971459767,-0.3371114448236784,0.9448645848075394,-0.37860966215317626,-0.7722642828642846,0.5504110068687951,0.3699241922487772,-0.9498796067781199,0.37901413673564116,-0.3573931962173042,0.423819395445581,-0.008431008941960182,0.7894764508935793,1.3068072162154851,1.0316006907261175,1.2599853158348981,0.36051281375754957,0.88019643684745,-1.614904247389706,-0.8022991952701009,-1.6568202508416725,-0.6515877898437655,-0.7261370674324598,-1.6938053641425403,-0.08371787828528544,-0.4220730241339055,-0.25926171211712584,1.3840187048252812,0.1351339850725458,1.0907792037747868,0.6055173098854509,-0.643435670200439,-0.25425030165133566,-0.6919418396200452,0.48322620355818685,-1.3255125929227345,0.34256069488308394,0.27389559325532187,0.18646325261571858,0.4437898396203522,0.9586246400641404,-0.44479346940283615,0.7317017875441324,0.8331702517570426,-0.6140358091610639,0.052725712489690255,0.09384187940712212,-1.4014964352050756,-0.137606135892922,-1.1936768446351553,-1.7672059914973384,-1.315377551311542,-1.1009975022434493,-0.84583164219806,1.086373813680473,1.3184656424302534,1.3396814569600934,0.7465823647762988,-0.6698133936918692,-0.5480759964521519,0.5402876415075223,0.7218229608369339,-0.5457206523379605,-0.7180790624315765,-0.2339530439722587,-0.43450756095293774,-0.2270638248161966,0.35453594516710235,-0.6879827142524292,1.671286382111913,1.1205243346248823,0.9125011194219144,0.9831629398381165,-0.26840592040110334,-0.2161982790569418,-0.27775016872914937,-1.0672956132222684,-0.6599745965641212,-0.42995673777104204,-0.6399316162480861,-1.0015403256645605,0.4819848139089539,1.0147446134163423,0.3267146312632838,0.4548050742210731,-0.01958122004086027,0.6394802892045556,0.7699678429671691,-0.4563410026157376,0.3371720222149811,-0.6491444975823473,-0.6052729581457914,0.5613556403714441,0.05412621476547307,0.21614995819393457,1.1304598159534751,-0.49064301657935244,0.4614907397930028,1.109795863673702,-0.8768729582959102,0.6160485950503944,-0.7625827580461958,-0.7580110641091693,-0.8590733127867741,-0.6839532608286069,-0.614434319425341,-1.0574061646838047,0.044157148383939096,-0.4163804592112803,1.3678336739014851,1.48538985073066,-0.13361736830990786,0.30204508796961527,0.1480902282882845,-0.6270420122442345,0.865129548858396,0.16296938391740717,-0.25833017223605137,0.41474391263870025,0.24346420493442225,0.09821572385468859,-0.5082724530048687,-0.1054681638435364,-0.24759224837657764,1.0215955964411958,0.9244251838901242,0.8151575864409268,-0.9976763275814348,0.1130452696513552,-0.8189929954458761,-0.39572198538496867,0.510753963752614,-0.4734710475842614,-0.4932553604240239,-0.8851581267411882,-0.39128055462216993,0.558432826344609,0.5936486469517931,0.3218557159546107,0.403365167254483,-0.038664225049943164,0.13252424408791963,0.647923317454309,-0.6816849520891851,0.08960575789826859,0.07975019541083812,-0.8808268738957549,-0.1275348321262415,0.6375455611961476,-0.07486309310960834,-1.5071727043569925,0.29676792600788254,0.3409507389697296,-0.10200646563414802,0.07347940562156467,0.31570266676034436,-0.5374316425155823,-0.4740516900409373,-0.904540743840319,-1.183024851181576,-2.06241538331675,-0.6699701807894197,-0.48508962965546726,-0.32343078319625485,0.5325652649921785,-0.002143319307024711,-0.8035930842329764,-0.7291874937061574,-0.12896067962791008,-0.4536514753304124,0.45539670065882776,-0.1458411857863322,-0.9324156340508091,-0.6953669761420106,-0.23609167868984432,-0.5371159432691263,-0.8040075063918837,-0.12671799496256134,-0.16325065409386388,-0.8342875414574625,0.5342790912275264,1.2585626808220647,0.40942753902370704,-0.9649202826101674,-0.60478802705892,-0.5965738292922896,-1.1532673410934855,-0.7439614668258836,-1.7764891135825025,0.09866116112922939,0.8183852796424327,0.6335198412996218,0.045347779834160384,-0.13421409684986615,0.6055901245106529,1.2012686313525187,-0.9283655076972614,-0.00020605662485658673,-0.703866714375949,-0.6474776826569438,0.696432649119746,0.5289657270820454,-1.1899647583864565,0.026095889698345042,0.14005682896338742,-0.036298590834289664,-0.887292590645232,0.5679123792836046,1.1708899853773103,-0.20332121696987981,-0.5938127781593052,-1.4040565617683536,-0.8958928087255195,-1.5601226679888633,-1.3383376908818194,-0.7407312440649877,-0.372783595384096,0.08935458141862147,0.43693479591191436,-0.7471930679751385,0.4969058662227405,0.1983494021681591,-1.1963842754254528,0.28000417953989454,-1.1259191546947869,-0.6935687602555481,0.2402193015613738,-0.743798303317842,0.2079422957313355,-0.35844419076654577,0.7816717807172583,-1.0366291199313726,-1.1618656707666128,-0.40568237848334193,0.5364313697557548,0.37991919391851986,0.11474774956729432,0.12983669421863178,1.193976710121673,-0.04547242266821123,-0.044556822169870544,-0.20959635667487997,-0.04205640746321793,0.19437170197658893,0.7360516988111332,0.02900426081416023,0.39041376426414404,0.16183944100033731,-0.7519219239573651,0.2689518056807411,-0.16449828339465108,-0.23555309806753508,-1.1541348194544647,0.5868536211121177,0.5118018343198261,0.07830517141619113,0.29914839012213645,0.9933277154231143,0.5587966251517067,0.7521597198146576,0.4004746871569346,-0.1745816609989021,0.1102430692855299,0.9855146412335082,0.04729164909694975,1.0071131494796122,1.0723861667047576,1.372516796036054,-0.19888203665433676,0.11548046304955312,1.1428094701141744,0.4202793174663086,-0.08003464875143983,-0.16645599050133528,0.6823691013819325,-0.3727969507665545,0.5642939918491867,0.20556498026008524,0.3507775595892757,-0.2586954758816291,-1.021374956642724,-0.27839228455328713,-0.3618855047300338,0.36888600395651405,0.15925511384303637,-0.4838211792137932,1.1865066821448886,1.110012387728905,0.1868791724342471,0.08819011207186307,0.5177539279670541,0.644350701572577,1.3407151487527462,0.881888458224018,0.28677149694237253,1.3924617083341564,0.34410830304366347,0.6142019679343295,-0.4477571155927686,1.0613954993410832,1.7868414889723354,0.6550561817880597,0.33778914054397335,0.13985070322624524,0.6618852972225532,0.5110850355447553,0.49939216321234464,0.5983882268754269,-0.09544477011541681,0.88381024947657,0.28731059499980005,0.5094655227969247,0.40714043378306375,0.12922290111839543,-0.33761316985155027,-0.2829911615422432,1.128672925534524,0.05442376459931719,-0.008291928396022795,0.7957390139606079,0.9794583967039558,-0.20785826129930268,0.6109203539006818,1.2551663443184444,-0.2779320855590265,-0.003139375661852814,1.4501727429466698,0.15731028522019666,-0.31164271316140474,0.18443974437464364,0.4374322088651141,-0.4099048958633371,-0.7358636998185278,1.3318755039085748,0.6099708293856195,-0.19592805313301523,-0.20745166531338868,-0.9261948895949391,-0.11394208066462154,0.8648939081498014,-0.3219186377117431,0.23272361965211347,0.0791507616346026,0.3827647419837048,-0.31481493778400194,-0.06742188006640833,-0.8083399473604813,0.03750032381961035,0.3554365324579359,0.6519222030325201,0.8113767068287779,-0.6746003706428614,0.37951518912215937,0.704953777886618,0.21511187147769184,-1.1921978394699082,-0.7706744330498381,-0.1291006045472234,0.625503255754815,0.734305190039162,-0.39065967289147396,-0.2650900590528801,-0.5389315263276176,-0.7925564183890762,-0.0055607905595230454,-0.8199331411117531,0.5955756333664767,-0.9250510937161566,-0.3614823457234686,0.4506737281860363,0.24895863087391618,0.7894567518447604,0.353470257018346,-0.014007166358285665,0.3043312058144928,0.059481581706959594,0.7960246180706116,-0.11333929547644739,-0.9681347781136799,-0.6689636091955341,-0.18730174074921319,-1.1085458559386079,-0.48218539952052264,-0.5230742955324268,0.22860840079470285,-0.38229317264491464,0.35196920853330277,0.8790848750208932,0.17329066752985847,0.8236364122522601,0.07363883932383296,-0.04652204380612456,0.9370668648782055,0.2351688558915268,0.8289188327058902,0.3431188512368428,-0.809094781930333,-0.5389843278864103,-0.9761320818366945,0.23384726549405177,0.8388077873097286,-0.4152846852402428,0.23816493378506257,0.6183083476824082,1.3347535466273805,0.27702403706645634,-0.25952008875201615,1.127519732986289,0.5526029569210726,-0.008338377839457395,0.18638567432736688,0.8987506674074871,-0.4102236907243636,-0.04145830795369249,-0.19054899824829807,0.08074773570796674,0.8483534364153142,0.5593386804826489,0.675056556661575,-0.650596203192962,-0.3609298289342697,0.22864664680342606,-0.11425997869501893,-0.48774861938351455,0.9053365307748255,-0.21601290525927036,-0.20293238240169958,-0.24143480051425925,-0.17954089882353153,0.1683679447109923,-0.16102599347118327,0.10326805468092559,0.6914955486488358,0.5024600675332562,0.4906844918450771,0.5306704748924059,0.5413379864106588,0.8264390869538174,-0.5553427981380864,0.07379269428120487,0.018053561476699505,0.24081354181374456,-0.5971286117944524,0.0638072771408879,0.1095139975562389,0.0662979999246582,-0.3614083443628817,-0.8698425900447289,0.5109697382816636,-0.4357011779848694,0.8240193386777238,0.34958877807489586,0.28398832923466466,0.41400229274367895,0.8218419130250009,0.29354321333236055,-0.5144641563227896,-0.7982133129373635,-0.8240206937560296,-0.059988046538077044,-0.6103013535077265,0.22714664087777064,-0.91758023289607,-0.9144696305034082,-0.11918022265441726,-0.35317235922859136,-0.7895794819799266,-0.18329871267373926,-0.24994071176983113,-0.7704684492009237,-0.4125812353100702,-0.1034453364020831,-0.02270669349352383,0.5976792865189896,-0.5877313518867604,-0.822960847449422,-0.04970459995747858,0.6154365820253543,0.9059031652501773,0.6930630821779288,-0.4452222202348213,0.2888992850198223,0.5502535622845092,-0.2066528160002677,-0.165462562454602,-0.2125921758310868,0.7667099507646877,-0.5077306796865616,-0.3219314798039622,-0.9922155826118807,0.3870709418116818,0.7221321155707163,0.5462749508226996,0.7174455179307029,0.8245681147625694,-0.5453062297330842,0.9179134784477805,-0.0030324848572191804,0.36471435623546966,-0.7291119781007064,-0.0028295794954833063,-0.4357890455739679,0.18198565926391752,-0.21302423247459756,0.47068837632881744,0.4340078542739777,-0.8158987330277322,-0.3817254444436138,-0.7104014383779357,0.2594169426874313,0.8597041248016403,0.27093340708554076,-0.8155703541796656,0.19196274808880237,0.2625303578429989,0.19377758241369464,0.5552819093864346,-0.7567924461600456,0.07318111021415573,0.5919420432783161,-0.558470591940475,0.5818333903615868,0.03916689637652079,-0.8866128066688427,0.6343776577861405,0.8563092723376263,-0.18577820789290406,0.3843950294488349,-0.72550048028789,-0.12744333262234828,-0.4498237766965691,-0.25250803128477267,-0.5551320510933325,0.5811183588519852,-0.959574225009873,-0.7099664458105729,-0.5374491715059723,0.6160033400341974,-0.033154339033250865,0.011093605385119621,0.3989752343211538,-0.8400902953913149,0.31205595760736504,0.6422170297920035,-0.8749103153938854,0.3816387764135551,0.23746165763139698,0.10481280422581256,-0.7462609551350021,0.5745905780443991,-0.6033652204134041,0.8547055578094678,0.14736626729176666,0.4040456027858762,-0.815168545322857,-0.2465254507400353,-0.8473939402371461,0.7604269846401227,0.3733821987912945,-0.5081487671781149,0.6891581334683555,-0.6037210509290055,0.019327320437624862,0.18707628457278752,0.0920005169283057,0.6341907472323675,-0.8130642789915189,-0.19908324466865707,0.6195407287405036,-0.4702182351025959,0.339737537670514,-0.93473881695196,-0.9729103295021863,0.6031180759927396,0.4889784340198129,0.6685508654611833,-0.5890057128212874,-0.18242775521862162,-0.6663186022315626,-0.3958122048212991,0.2613650592446611,-0.8706072700597586,0.1558724719017617,0.7596510935561742,0.5239138094471754,0.3243182500032927,0.39189103101735884,-0.6522687857964099,0.7345790315421007,-0.22277639169578806,0.36327229777555564,-0.4798825360210693,-0.6900573809048937,-0.7478240886216442,0.08676088964097368,-0.23902063032853446,0.23486084381988492,-0.2744807870999121,-0.39123607709836866,0.26250763899196583,0.10452850960014996,-0.26317134762478434,1.3228902325561367,-0.11484734563279587,0.6027335712713661,0.9105604506792719,-0.6352210707114397,0.16403893917680668,0.18243079117715474,-0.0920001937934068,0.4298568533410279,-0.5399935015577881,1.046975801571121,-0.5802860422078547,-0.09207940634485241,-0.04607376935745287,-0.8686425419305169,0.7304768832583656,0.9205675310618789,-0.8570388633103602,-0.04182610890834362,0.5223683210718656,-0.9977076340291584,0.2523991563968375,0.7335500863042258,0.31236537591363484,-0.7836718541483277,-0.0022674907268970665,-0.764250835917269,0.6474926522048633,-0.7275707967646672,0.35835188099400733,0.7212166957563715,1.0275220223319612,-0.17630007084448635,-1.0788919836385729,-0.36806517192092053,-0.054645187636980445,-0.23073874543608644,0.9191779406337423,-0.436907910309316,-0.7506286255172036,-0.8784915408998435,0.8127304007890799,-0.30811875534851035,0.7209768121996174,0.11356616956246808,-0.3639302138432336,-0.41194552373442994,-0.5283945758457745,0.3018790738448313,0.22910191221167212,-0.7741258635846878,0.5356625775708663,0.7509345831693662,-0.5513595311102308,-0.1835763080285102,-0.1014334229011878,-0.022843819034230176,1.2173040023529442,0.896008108732074,0.1469061143889202,-0.5087786869667118,-0.341451003585809,0.13080717412216383,0.11912607483563009,0.19093431874911737,0.1265479652879449,0.5408552569952269,1.0482882056870255,0.6672065798893896,-0.3563557486242612,0.7083499311067826,1.0142454672632004,-0.7171544221619642,-0.41030068376316725,0.9061267340169029,0.4782866316228019,0.2697606632618652,-0.9968072647359318,0.4319554776308139,-0.022561569302194568,0.008645974143572367,0.8334833829854508,-0.7330501738665582,0.3301850347746258,-0.21271566478022746,0.6619585565622486,0.6737371989400539,0.3842851410230477,0.7046271014822787,0.4120196156292431,-0.07218946828795328,-0.7680988716793085,0.9591537630553981,0.6751964036922508,0.8324828605127563,-1.1753331795440873,-0.2909657609690971,0.15478716426027003,-0.8442340305167753,-0.10560618209050358,0.19749403854410152,0.19428903114408297,0.9074904705057933,-0.81311147289545,-0.40032553938526755,0.6424314822590236,-0.7479512227118558,-0.4302721679118085,0.44169748540574305,1.0956925774932815,0.7418243707758186,-0.07721429978862596,1.2241961510974289,0.6016320208550657,-0.3225757859806071,0.5325768763362309,-0.5622925864478343,-0.4584729478598622,-0.3821216273520665,0.802101631043934,-0.20697633062347381,-0.1315535476445102,0.1234781815654109,-0.10117444328912915,0.8790533631818637,0.45227535249287326,-0.3199833817392429,-0.6423797738563024,0.4057202451146677,0.18627678050276958,-0.6354836584789144,-1.044071391113356,0.6771491138571218,-0.4021355041739136,0.3572647065951314,0.025569922309238526,0.042450941685667654,-0.24706501280716917,0.6763534190715192,0.4234443551709958,-0.6934621421828386,0.16759655150056613,-0.13587284742994726,0.3959591196987933,0.06560127385434925,-0.8644915819363411,0.6044123248025145,-0.07215183231801783,-0.7650224653004548,0.42282104304514095,-0.5016600862581435,0.5441490573745053,0.5479974173608473,1.2052771018131196,0.6472149198240723,-0.14052335711745564,-0.7853241717352223,-0.4452679270847903,0.7213687659266858,-0.7046367459886252,0.14030568793528853,0.6449998547406078,-0.7756045076396733,-0.11079515121619367,-0.36461265960667166,0.6145222631851152,0.6169771582311174,-0.39128057479739986,1.0608039143596544,0.12333070913486478,0.020959929378482293,0.528238407420879,-0.5204533492957574,-0.07861124540657083,-0.00020216611895931228,-0.3795098620018515,1.0014940533283807,0.38637253331313387,-1.363390321379874,-0.37398318413977205,1.0723070041911702,1.4231233924032485,0.34359238715754326,-0.5215960557535788,0.8413820097450332,-0.26264855954946914,0.4014361741720186,-0.4788588127762113,-1.0317914341108076,-0.25862590096731036,0.8849986530696339,-0.5072318828351734,-0.3138270295077197,0.16211568070549495,0.023701872105265646,0.9318788157091716,-0.7866776228534225,-0.38426176302894627,0.1423737762213679,-0.09327664254722542,0.2580294859003159,1.017491049814175,0.11569955095565228,-0.20606754246344677,0.6627257429381681,0.6143177616741332,-0.5211630907517619,0.2689111129522833,-0.23192276105266912,0.8058610757191863,0.16395942480324494,-0.7085793856724031,-0.3859627433406042,0.30434929965563845,-0.04210099594419818,0.1658403890682767,0.08420433079025287,0.3258455533002475,0.3690873440435461,0.435596164832352,-0.4592211334004781,0.5575021561319854,0.5193159186158194,-0.05434782063687794,-0.15880536531948608,-0.6022766855199216,0.11088942292756926,1.8625110214603424,0.4366440677726281,0.21023855755905207,-0.22183378172360863,0.5076089245784868,0.9217836042747819,-0.15842888072911038,0.7440007542454885,0.5723336069752336,0.30149537600079,-0.09538476441753488,0.23082378025790912,-0.1359944026398136,0.700687862820679,0.2954676602927169,0.7336978012142964,-0.9581886792627418,0.7332779651134342,0.25614530306615974,-1.062280302955864,-1.0722892492543947,-0.46236089328570545,-0.5208860744078546,0.560151458140671,-0.008993941172539113,0.41409353752542655,0.2758332735783665,1.8526656097666865,2.6587049612344393,0.914523410162318,-0.6104395343012762,0.8332542747718766,1.0104527030625952,0.10632263105635548,-0.615376714396272,-0.8009516180773241,0.2697477554352738,0.02084695645834553,-0.5984685634292134,0.5109349404195258,0.545787123013746,0.08982546242976062,0.3979265437076767,-1.0348944800726296,0.5653210734626528,-0.07197249502897195,-1.012252017598795,-0.5000947422403578,0.21408980839300124,0.2526198607263767,-0.34297042984482645,0.5224990066455313,0.17140727842183942,0.05098766678297195,-0.02438691387525387,0.9260470842693802,0.7666310635115238,1.4584857440579397,0.6556082037704413,-0.8255437436474296,-0.13557328066815041,-0.13666270238211978,0.599744912769401,-1.1224444722020643,-0.40415984684641587,-1.04244495878175,-0.49550097634466483,-0.09260452440779261,-0.6797314707680732,0.5978321815745403,0.7229139474261014,-0.9879239863586856,-0.6365190050747843,0.4609305750294965,-0.22719720236682134,-1.6556400195241625,-1.4361805961409375,-1.1073189639320713,-0.46219919292165124,-0.7930288744334166,-0.8421049078382605,1.0887140482847288,1.6949868980024563,2.4352774179519874,1.2164574087582871,1.528520852383409,0.7496872707304812,-1.1405506533824985,-0.3322409298571931,-0.9439846630768055,-0.06943817632098308,-0.4045595383820245,-0.7107360062078564,-0.715469268389732,0.12441832177429853,0.30412076496366364,-0.9439584518405446,-0.29518585658286617,-0.8820850843804368,-0.9800814038183651,-0.268970075705929,-0.7084680893588658,-0.9066530404592775,-0.36100235173686346,-0.9929915873305815,-0.9624427943511275,-1.5684461881258143,-0.8280119128675539,-0.16217618975651202,1.1013476649592187,0.3179420293565123,0.956701221957142,0.912010132148586,0.24954040884608245,-1.0367418001805848,-0.9420965039436449,-0.2309405387293615,-0.043529250857584405,0.11894842585987873,-0.9056772907081293,-0.6535871917086239,-0.07756806019492363,0.11312030752675306,-0.31487246962766713,-1.0218566307903658,-0.9653534285199189,-0.47065421088033904,0.7947775754437791,0.06446907119826555,0.6420930732811407,-0.89086797128603,-0.7381924974541665,-0.20859270006780273,-2.171623488550987,-2.1292390123949922,-1.0873689356135277,-1.5237279575909717,-0.5572894095707065,1.0518751281932515,2.1809189625352885,0.4274622283134494,-0.3932098277695916,-0.7877568311966204,0.49578866668594845,0.49378738048010423,-0.6854626833499134,-0.8225081546642253,0.15236644299353108,-1.2702398409276199,-0.15099294084062556,-1.0592667993068696,0.12536166625562567,0.28141555596419426,-0.5993197222702319,0.3054670312051658,0.3515001240490054,-0.49497120538847655,-0.5027288518271956,0.07288738750656014,-1.0014267834722395,-0.6588613070390071,-2.024058885673883,-1.8187134044852074,-1.5431859066994968,-0.5310821455085896,-1.010497971108836,0.36362823294347446,0.9411696342337095,-0.011108816252329276,0.062383860793580416,-0.7213800669983862,-0.7439584723648168,0.3918394149056441,-0.6562889218955202,0.1775404385235003,0.2890104379054587,-0.9277976441976972,-1.279490400234149,0.05950967863144266,0.5672707274403872,-0.5614168161217962,-1.0670606407813024,0.6267301911622393,0.20357139300439542,0.8332632421593666,0.904348396947443,-0.03609425642796646,-0.3688179245162858,-0.5543878516697333,0.1108026287642895,-0.2813592771586957,-0.927044659003658,-0.8172450903499934,-1.2227894109602513,0.3858791019252481,0.6370883242776876,-0.8871209057813292,-0.5211387804624394,0.30302213971243147,0.32205420993613443,0.38778872700282985,0.01370311522386142,0.0022477982772343323,-0.9723021276521256,-0.4908679772978751,0.6109565003544823,-0.10422757891254143,0.09774373368344945,-0.2943308333300482,0.7266316269401965,0.6415259313456679,-0.9524596996745299,0.5252908103707462,0.13065967998958544,0.41680105079280094,0.7563276841810294,0.20014738438394775,-0.19731624747119744,0.09208734117888441,-0.11987038580836877,0.9311163191744748,0.41638871652962894,0.04274035614818368,0.4040980790400999,0.04497207837072746,-0.6550635381515707,-0.2818792551048926,-0.39960730832493735,-0.05004982479522057,-0.37651471688053806,-0.5189730859793217,-0.13904088859532118,-0.10264792917686892,-1.1861811052748306,0.6307497178187386,-0.982140055363392,0.456904426835147,0.887813500227583,-0.8511236942379318,0.8645963268051281,0.44432569216781337,0.9022129922322543,0.6910545248005504,0.32377236023109746,0.5708482861641023,-0.17783895038114375,0.1758337006508306,0.6816952144518978,0.7828877973423807,0.10584723494608801,0.4707478252576626,0.22656057711650665,0.7730338956321537,-0.6649299269758404,-1.3044659131564285,0.27480057121752055,-0.3869043850143268,-0.7595202394831578,0.3056724164076309,-0.17828898091261589,0.5094622337709754,-1.1332383606714838,-0.9345587544581001,-0.9864725583783729,0.7317088432155366,-0.9174999638831983,-0.9089733126623311,-0.8616428413728875,0.6244230873748741,0.6076739648322099,-0.23669471267574554,0.9325934145435866,0.3987293443179294,0.9449013429448649,0.5360202034764047,1.3777813046160543,0.1571529573322704,-0.47898731715570786,-0.2224657177703498,-0.551812754397614,-0.43600492661791057,0.19411211059719388,-0.5138731518519929,0.3836506401837425,0.19851998964996245,1.2623240914504448,1.2633183622946476,1.1709382542587334,-1.0904625645283783,0.25887113459518046,0.28050316568816824,0.7061941546504711,-0.975139498733924,0.03983040906371821,-0.05840069363247774,-1.0230419829357853,-0.024076343790580983,-0.22306021527126368,-0.6786941229279063,0.5181434402636836,0.40712458997374273,0.9673495423487817,0.8613308612601291,1.0960672537886034,0.30347741950193713,0.942362080740493,-0.3844352889495788,-0.2729144054904283,1.1654643453157798,-0.19772483393589702,0.13834079702271637,0.48669476698395975,-0.07596793493534623,0.5192517276403836,-0.09062695962953093,-0.7418962909678777,-0.18485315537494543,-1.0501610175517542,0.6764407905177813,0.7623045328472202,0.040410062350954096,-0.8617222489997646,0.451838957826252,-0.614503601720208,-0.6846689912350605,0.16395058206566895,0.8541452699829265,0.24615943378824215,0.1434746858238865,-1.0710666911740157,0.4658683494165768,0.28462937471365174,0.03873277762710492,0.36368069324479263,-0.7845446863688518,1.3538437940838473,0.2552859333133227,1.378186231930871,0.40753724297798644,0.8073883717092305,0.6841568605127728,0.3720761145902086,-0.15563252312904782,0.4757473885423779,-0.8574930303736706,-0.5973050646916236,0.2806624023750382,0.06491621710022387,-0.5893768014184178,-0.9000076908691356,-0.07932934906308924,0.4124920730545912,0.9481014557100237,0.7676460841388647,0.8065556609500937,-0.34694734393676274,0.6490642899249163,0.5032842259230392,0.10127954542701764,-0.4860771959452556,-0.1903141594208551,-1.5837836843327746,0.5495751907081723,0.6011736863809489,0.7726878179335389,-0.1749445702367194,0.2843862507692388,0.05998187561190722,-0.37985501210672606,0.7924491715193563,-1.145457381220487,0.4228990809311814,-0.49733894218102814,0.012216653048036897,0.3223819034332011,-0.4288715768619625,-0.4795835128968517,0.7454624092180923,-0.021744353201830963,-0.5450698530173251,0.8517893158577535,-0.12472900357919421,0.5320582699323092,0.47680794607247506,0.02140471617797394,0.6969759856958514,-1.193554211215863,-0.882898296161579,0.2643768105477002,-1.3070941556339044,0.903996397256169,-0.3941429614147188,-0.4929108439495033,0.478108785487899,-0.5918179114734021,-1.082438283096633,0.3771673101034148,-0.9044945367050469,-0.10617017200049207,-0.9984671445038302,0.35752678428206,-0.19023930890729573,0.04674001250048532,-0.7182616126330472,0.7450662295603078,0.1375640907620755,0.4805781860227238,-0.24324814247164442,0.33449726185118195,-0.2548679462439393,-0.31387644051930663,-0.7689472650122146,-0.46840332994906136,-0.806970425998882,-0.08744595563485166,-0.7812718374409323,0.3701127610627224,0.20728434771545837,0.7656219800890014,0.22900435689101253,-0.1525235165953498,-0.13064268130772583,0.26416808821875076,0.3761541675677489,0.22560205043890794,-1.058834281099322,-0.2802183617353664,0.40828272360023277,0.17668193873037152,-0.5022297594750875,-0.7911192681826288,0.7440933102966142,-0.7432087203279497,0.025142644789779713,-1.0228814513258504,0.42973282068294033,0.42051343829996807,0.3425830827549125,0.40498637894270234,-0.7286710868416159,-0.8764921009836991,0.9000361310762788,0.43413170308365684,-0.8864937005057091,0.5267733944743597,-0.3263057034896882,-0.5413054611396776,0.9021865857680234,0.7444581040624372,-0.07018292082531981,-0.4675782198416992,0.6141002744590415,-0.9989831176485297,0.3171382359702745,-1.0822048977034897,-0.3091339115184219,-0.4564858794142172,-0.9400031242916679,0.4083527411549786,0.5339883576569054,-0.9589429578818741,-0.14554976314352636,-0.216622319112094,-0.027984505659422395,-0.666468244172081,-0.12208524251475408,0.802377420985691,-0.5615960742245286,-0.14614010902963817,0.1331736160994281,0.7159096653356615,-0.4690222086035961,-0.6512018833525911,0.6878406520321695,-0.9846508197197941,-0.5209407693626434,0.49996043233373194,-0.08431346943411079,-0.5158743815583337,0.3376034375297857,0.021136023543669002,0.899393923973671,-0.32788851255269613,-0.39857673395606297,0.9073560749841215,-0.9927474149943465,-0.8025684522157049,0.5145583191177038,-0.9110776301616529,-0.16209640962036212,-0.1928410698398535,-0.47880334526572377,-0.2789455024145143,0.29538710810933055,0.5177966555502452,-0.5738866141057167,0.7056913321828341,-0.8654845212930357,-0.9326722746549645,0.801064717516747,0.5382411682285994,-0.6530323833676395,-0.4372607979737652,0.8378920175711516,0.7057992061720157,-0.09358027811738256,-0.3639071591971576,0.11244033959645043,0.5019885889993143,0.18409756603382083,-0.9482797028822244,0.13267394862035206,-0.09496874068746068,-0.7373121766775218,0.7817212598451299,-0.2545480044649725,-0.8752979659458374,0.02461376863818238,0.32649572055535125,0.049120576621752676,0.773796646084464,0.18459408443153746,-0.21239405820622007,0.5846582818045392,0.8027590445055987,-0.72874335576923,-0.4137810434775272,-0.18409232072838713,-0.3517660084926349,-0.22469319177437383,-0.9391278433236905,-0.8803352957151552,-0.3830873962183373,-0.7633625225861235,-0.25287794970972605,0.6682893669915151,-0.39226357169767473,0.2633353766980117,0.7051998484984936,-0.7411176258360992,-0.09809934369113553,-0.4534354712545695,0.31774118400616236,0.5475521857862015,0.09515233166700664,0.8110090736702736,0.04192300384548303,0.2402522851636246,-0.15627031630513155,0.9132654978763347,-1.0019077835409596,-0.04939438026822016,0.3494822674281185,0.02993548543921581,-0.32683960069739065,-0.2223048314699894,0.0025453143354878457,-0.29817205834231236,0.5848321009425171,0.576183894358375,-0.8543368706624571,0.6707475378281772,0.9862420442846115,-0.5724201456965139,0.2908197396943911,-0.2773663817928587,-0.9596267339748371,-0.7038485685075395,-0.7952414723245007,0.2775571816627602,-0.10334287490811993,-0.7823655576532649,-0.4012240753285795,0.839226429124241,-0.7930874730040874,-0.0908992874421648,-0.07195373590660716,0.931736677038844,-0.567751835126784,-0.45082226732401787,-0.20437425193675804,-0.8733001968650626,0.7170546533975942,0.5836978776403997,-0.6763813162340597,-0.3980668980473289,-0.20076397985297761,0.029848200241515164,0.7205557173581412,-0.7898699875853284,-0.4232740140565039,-0.9847022093436838,0.8279780725406009,0.92704006037637,0.2513101204380145,-0.408212829691365,0.05415269119547102,0.6295557871051105,-0.5251235614175901,-0.20122774001428154,0.8794176194951179,-0.8866183379944729,-0.23407902442937356,0.9321774280883622,-0.9264464008905817,0.04076927769596568,-0.10892846353647037,0.018092214923363867,0.5356379722016901,-0.30782722897839154,0.495503920183255,-0.8579182664856146,-0.8984207925220209,0.31024007778753077,-0.6899455309268793,0.30746060218829,0.4005090762612988,-0.6924327062268044,-0.6758575742006765,0.21713571979211138,-0.5991981948833598,-0.9624272846026258,-0.7259422871494249,0.4620624036771274,-0.7727071457980588,-0.6613524570753182,0.8215975800893108,0.3102298873913975,-0.8532029971145251,0.42386850338746374,-0.3400945339628493,-0.9019858230528002,0.8367764933876292,0.6486321956336849,-0.36529199664553635,0.05154697117060538,-0.2296186487296944,0.2632578278271365,0.5153431424878587,0.6117386876698291,-0.17840214181441344,-0.6906998371295011,-0.9268425144847744,-0.42498247269782913,-0.6970901269591532,0.29472787853780746,0.7366099069315155,0.6224419545879339,-0.7140483495592581,-0.11408758243994317,-0.4584153227669508,-0.29245163736257046,0.18142770205994574,-0.6584321903656574,-0.002671823867566351,-0.27749704369885925,0.72806810409503,-0.779247474351383,0.8995356920744462,0.8454869634083615,-0.9308010651751378,-0.04200141875908612,0.36693653297717804,0.6177124841291697,-0.2420758757046468,0.5602820135394899,0.45751871053609044,0.8793994324451196,-0.36447583776902504,-0.590875188194504,-0.376025596658231,-0.44932410837190706,-0.5166382567943756,0.9482861881306239,0.5491377759368739,0.42390043305123615,0.9862748497559676,0.1903867982224173,0.08582985658120877,-0.6597028731680897,0.4636642433978277,-0.7224817231372475,0.09383419175636157,-0.09616972858448757,-0.48651242286144597,0.279868237294745,0.1919078876036164,0.4791223054708622,0.7331103002692304,0.525046320982512,0.9412304208173303,0.8408604618627913,0.15788403634041887,-0.10165852681493909,-0.8023352975045209,-0.6892918048321527,0.379496149780793,0.7073963021991977,0.1253049554043633,0.8688532374503094,0.798196871599266,-0.1325426170659901,0.7014083766905531,-0.9087925053437038,-0.9740865174504131,-0.8969725335467506,0.08601414692313604,-0.6571463050374734,-0.25741859924583377,0.11987940564380233,0.0884541720515516,-0.7543955117361058,-0.9245166029564039,-0.9516954658200925,0.6434508733877998,0.7205077492955363,-0.9236593952101,-0.02129851979910479,0.6923605572325615,-0.6692965014649146,-0.92825358279504,0.7566153391976105,0.7237874879026347,-0.6261728761724106,-0.4508521033733978,0.5970746110165702,0.26878524950091365,0.26797546718311566,0.8676631655118153,-0.5259081530670174,-0.7093706891759549,-0.4344631531668615,0.3865917696688407,0.6702269160106192,0.5977325862041803,-0.17517865131832352,0.13495238831315923,0.0043031995529564,-0.337708525134769,-0.09360000159607884,0.9646076895127818,-0.818552987882351,-0.5610989347695248,0.5048215634402938,0.3383288219636817,-0.9825143861374279,0.0745082907249283,-0.7490073030495051,0.652397243036866,-0.15066864489319193,-0.3303611306855646,0.14675545115999122,-0.037581842025383685,-0.5566441858273188,0.19985226730130742,-0.9761959316757047,-0.004850994883406707,0.23594698885568272,0.8109369391482171,0.38517289863772525,0.08333492811890778,-0.026332612225053873,0.36423799312619753,0.11871733321090686,0.15742151417813197,-0.10045361331210816,0.7922191239120945,0.7942199391507326,0.890121601352702,0.9729745341181887,0.49197845427813675,-0.6917460780474742,0.2249589502108683,-0.3262218828460772,0.029029799609340098,-0.5643340935150799,0.8330084989759434,-0.6734344892056527,0.6075167219347767,-0.08325902488263501,0.5778735810946544,-0.5052506099761619,-0.37047024481483154,-0.6205473966669596,0.5886424256499899,0.007016940630511633,-0.1563920433454975,0.19788631434572682,0.24790223439708647,-0.8141040914002783,0.8803234980857305,-0.6356050658838086,-0.6018421870107592,0.19060970707636027,-0.8035126983072953,-0.6435956756525271,0.0473957641385102,-0.14539445462845169,0.5194101469713502,0.2545287198247604,-0.04070933404126659,0.4301838751598288,-0.29631840623409444,-0.31198357186758113,0.5719995138929839,0.7174655669369097,-0.8849486812810708,-0.037365189780682775,-0.01586848970342476,-0.258979122878072,-0.9583047157725075,-0.8838751377457597,-0.23279791004825812,-0.7774050503275366,-0.4603587846458612,-0.41607352940266795,-0.865174990977897,0.8421110666318137,0.06642978659063599,-0.5979724061040106,-0.8152516688991394,0.9815464778874958,0.3327740979933461,-0.4922269004973769,0.9374645358116753,0.9500560090552999,0.10093922529640208,0.780922725914613,-0.8084893996763914,-0.6733315503892693,0.5833866944615683,0.9679332331800438,0.7375790886071598,-0.21458411416827652,-0.2944409486654808,0.7826644665081502,0.9892650179211359,0.549447601692937,0.4910715268074475,0.3628173324820466,0.5452050095994905,-0.7807518697401984,0.901596446074359,0.1242714002987691,-0.2122395288219004,0.5912170500664294,0.8654882897936682,0.05257275836766967,0.20527581214809493,0.7678254819423324,0.4438450493781494,0.556574741791448,-0.033463723543335905,-0.7890313508491228,-0.35642977963494105,-0.3215442583261542,-0.08061696257006129,-0.43755233306854197,0.7515077800910948,0.14147886399611884,-0.23864545998004594,0.3193392141397877,-0.9693891980710996,0.31924219817335364,0.4093335700013603,-0.8583593848817012,0.6783123195364821,0.8249661684120082,0.1415957903284338,0.03260947235830696,0.4718451487472631,0.034929237964203136,0.5094865489508624,0.7461419732675265,0.9781731827165455,-0.4084253127763377,0.8223508471888419,-0.799186616906288,-0.046053428187180084,-0.3178437038475108,-0.8942876232981379,-0.3696634863588636,-0.8400239238479835,0.059646398642587584,0.053053287727059785,-0.4702159615189343,-0.0867689218268337,-0.027806859701477123,-0.8667725494284307,-0.03289736961307179,-0.11297263182866603,-0.033654876324736425,-0.6861575442102171,0.7281416869661778,-0.8441732761810486,-0.6240625801943519,-0.9371395696448813,0.3077238933252533,-0.45113145333673804,0.4511904907166434,-0.4764086119694053,-0.3414362133939474,0.40083876511251015,-0.6812203321890383,0.7025246073642516,0.14677739659593525,0.9062534148621193,-0.9851176730251184,0.030659010228650148,0.050028531651838536,-0.9262834734471633,-0.7735116239581068,0.9659034907888114,-0.7556301710016924,0.09118570231400444,-0.0019049487852306043,-0.9314074058900894,0.7657913279353411,0.6242295626469117,-0.3623913016967041,0.9787219174236236,-0.09316144720445661,0.5209446184659573,0.11989677845345216,0.19553080075694879,0.4721059804154538,0.6279182213292814,-0.9969228144867182,-0.007457337664030128,-0.5664205005216377,0.35530899726482207,-0.1604467597657465,0.570297078512031,-0.595819801622401,-0.934222927064416,0.9176811410303728,0.966430346030913,-0.25350545295934007,-0.5575002259623175,-0.5253648286366001,-0.7317555990861875,0.8739191302146859,-0.34600190440509815,-0.08125626196335325,0.5981454702399023,0.5869887958208425,0.8855957886214557,-0.6022774745897981,0.14621727977062918,-0.08281299469708522,-0.4814938393111505,-0.8026270849193096,0.33637129254343157,-0.30104016290426,-0.443400033768066,-0.8885253446007764,0.4438003278344333,0.5989963091716987,-0.5759883932723528,-0.6534534325633278,0.8584709067902716,0.8810526495113435,-0.8900164193364829,0.31906041842624966,-0.4956515977510286,-0.45511397848738644,-0.05429900586441655,-0.5405895711636071,0.5329486850965237,0.7640751985895676,0.3944062206688977,0.07004705514257302,-0.30253545119948394,-0.29526942699968456,0.2907929508424823,0.7359994813276728,-0.8347814823558642,-0.5208058404333963,0.8652355878387014,-0.3697853681725671,-0.558315866829101,-0.6112106596329602,0.20635392338988728,0.4656982823842021,0.1609459436607286,-0.3818086719816676,0.9683407414998259,-0.1109759867206754,-0.556482357891789,0.7511602429457958,-0.9124370283717701,-0.34802904695991355,-0.8437001139715572,-0.3735127598059236,-0.035670274926569843,-0.3802049571659598,-0.28077556052421665,0.8753669518081609,-0.15473658633871984,0.6300154994740277,-0.09399777586035539,0.5951728000606059,-0.7233129540247364,-1.0028693310972359,0.724362478945104,-0.5622938776871195,0.06219075437796963,0.7308348376924806,-0.7992839088211082,0.27192608113550354,-0.869420440434784,-0.9971396083688577,0.5656641482848428,0.4798097976191266,-0.8639956492866829,-0.517874776917558,-0.5092319532711334,0.5846634579919238,0.9825715812679786,0.12058920729567126,0.7715129604105114,0.869864093535418,-0.7140571577146068,0.39136171585630475,0.2838350039716232,0.21053283012221935,-0.40811738378239654,0.45662659965462415,0.6138451357155493,-0.398861040583587,-0.6295663697632942,-0.5821213802501004,-0.2942956481227253,-0.31795447076359845,0.10526054768950543,-0.08331476064928359,-0.2674011714618277,-0.5214252592337476,-0.3165713574498292,-0.5850957181817956,0.28157369537996885,-1.0016180483791532,-0.16642385524251896,-0.14186882595078096,-0.6628088264081583,-0.744380776624443,0.11402257429729558,0.4408983869743223,-0.15239641778091967,0.8765572080503298,0.2586333242055917,0.4315058642874766,-0.5593871712356353,0.9371360108810775,0.9922331333365892,-0.8476726267917524,0.7075041639914146,0.28666435914158744,-0.9189414012202733,0.09955811069663165,-0.4132739484846249,-0.6740618655348661,-0.13742323184389732,0.15148183661892928,-0.08217222594154933,0.2993046428169778,0.8570360864554676,0.6505350961644432,-0.7187096127363439,0.5017796406706505,-0.4046060469297192,0.489601867101355,0.6478187877722532,0.84983776774511,0.018542682502578265,-0.53963243916595,0.39003350364775125,-0.6031721907193522,0.4600135089903369,-0.09874696255812612,0.5689040136513737,0.83897609733193,0.972522212553104,-0.8185914959370009,0.2726646843704907,-0.8359850002744011,0.22976258433777957,-0.046226610148255846,-0.03150183009387923,-0.925908504841521,-0.5647410484010289,-0.1633425128664737,-0.11981838325818915,0.7214644714445302,0.5737616255051479,-0.3114413096308195,0.836205175760704,0.6926785243570737,0.856570753573047,-0.856406795161155,-0.8698148088181659,0.5019959356750974,0.662109934172293,0.34749742746064827,-0.28196836329806135,-0.5122272799288542,0.9903469791115931,-0.4369990749338176,0.9127597802953457,-0.1457003549293777,0.37220605231555326,0.8260098519216155,0.3530927737096618,-0.9752071711314702,0.6661472267189765,-0.0696178121290119,0.5503813673713793,-0.6205354519838294,-0.8134928244924097,0.10787668307063983,-0.19710443053110666,0.15803689196836462,0.857352525168884,-0.9306729093967213,0.016549303961340144,-0.26069259663586786,-0.47069455587226944,0.17488548290103303,0.524678878950661,-0.2183096188736328,0.8569303661275044,0.35920579079398335,-0.6314607196371439,0.5838441323728841,-0.7253131518340018,-0.8867344380947589,-0.5816652840545068,0.11803718811299078,-0.6455945767991488,-0.535558082941849,-0.8661080535190928,0.1702100975090234,-0.44295703400306347,-0.9384667439941132,0.7648286633385901,-0.6997451865146109,-0.8906430695212065,0.9489936919626865,-0.7988662877496089,-0.74949294958575,-0.3065759577557186,-0.5374707237397381,-0.6092940448041445,0.775361396750349,-0.5089308693493799,0.32455689282568567,0.5763828814895698,-0.49177073544952915,-0.8185945243443327,-0.7026596872997766,-0.3074605702646497,-0.8872868251376868,0.9880120235036203,0.5538195347318923,-0.7038594637858543,0.566350226368672,0.6755393723421053,0.7912773772907291,-0.24761524525590528,-0.5727602456159477,0.5238312376980667,-0.7869838086523555,-0.9776393739482199,-0.7180853470211024,-0.5375303863209473,-0.8030261197032726,-0.6253786894715379,0.28972008126055404,-0.1512216454314082,-0.4931520875816437,0.9299133279257373,-0.5693878759121851,-0.1315124669833397,-0.5483321143146753,0.2460180779403077,-0.24410047563130388,0.8795172614561015,0.17078424777874457,0.15516859816619497,-0.6123744310883851,-0.5589969591498455,-0.354573611664213,-0.6771486850616585,-0.18404069207762588,0.97977581541922,-0.20641364969470088,-0.7311088719421519,-0.9908388102198177,-0.7345860320816273,0.01207396586458126,0.699196802902212,-0.2100331336345041,0.5665162118980962,-0.18479024054542945,-0.6722761936882132,-0.14533149273382576,0.03499981998580185,0.13111934911739953,-0.5396688863852286,0.20158148054748565,0.9413957711923,0.33367884833761274,0.21700006393884175,0.9782527188850462,-0.14773270575129088,0.5872076418700577,-0.6480937169183024,0.723221006554933,-0.08180898311820452,0.0001845682695418262,-0.3912694178026782,0.7083584621909095,-0.3620300567883784,-0.8530982187953834,0.42375503110769974,-0.835862670530205,0.450105531139857,0.6827317921299126,0.3896281048831202,-0.5069660230246731,-0.5114563039162758,-0.7658440059893775,-0.29905659409334445,-0.35372435993216306,0.6690428829901617,0.4402322576449599,-0.4327902509401832,0.9127771413411777,-0.03467207237484309,-0.4719644118852293,-0.15513276449717142,-0.5364621027988191,-0.3630466384288972,0.5024428479820963,0.03334611084019051,-0.6618076778309866,0.7553407028875506,-0.601324039587577,0.5842017328137248,0.19995990635391295,-0.8360442731943281,0.9463232189019842,0.2890378724545728,-0.45734252485498605,0.6268072469827175,0.9080787536850171,0.8831586292460825,0.5359986185105303,0.050497175852178514,-0.10249207654627815,0.9100549926986963,-0.6659171769234955,0.4010389400568679,-0.3784004506078131,0.9370580295434383,0.8443955399687029,0.04552560702210674,0.7676146935207651,-0.24951840827500688,0.5018914740756177,-0.6102242939144953,-0.7842736846238092,-0.2626945063285764,-0.29122544944952433,-0.6514398807395876,0.0161092574545762,-0.9447620119700895,0.6560393363164365,0.37715409706214925,-0.3527289215997459,0.6102106924302034,0.8403351304321577,-0.8899388312789069,-0.9625897374609834,0.6394807288310445,0.7720386489632242,0.6820358817714541,-0.6514195227799076,0.4059091168464351,0.45866698354321866,0.8992846837482482,-0.1966614259157632,0.5768636129173093,-0.726781284478203,-0.1348190140807523,-0.7197417249585338,0.13007106919472283,0.31124709556431296,0.8641811176464993,0.2773025457167406,0.5881033996132865,0.31375625214548797,0.3641695367600423,-0.8066690989868015,0.49383486386971953,0.8058258960733335,0.6764294176509369,0.6036374163631344,0.5202139758793402,-0.5493676362999523,-0.5481552156327612,0.8253664302202365,-0.5622402960930251,0.6720238508476118,0.547793535405471,-0.24563366809205203,-0.37730249107684716,0.4354772407364381,-0.5730871467796285,0.4052169304160075,0.420653003381038,0.30135387852006373,-0.8318730937970962,0.05589444409103591,0.5428963142601023,0.4000915009002188,-0.5944681865932473,-0.7017420374588099,-0.2525287077248939,-0.0894363754260056,0.4965266590612779,-0.4264763823411266,-0.3629631981515546,0.6582016333025436,-0.043567197157242686,-0.6772267187965536,-0.5479900299557996,0.20452821974881252,0.4144761687716936,-0.5375133958402091,-0.12227538473465055,-0.2649794190560784,0.03996985590721348,-0.4724861739974131,0.16010193194819183,-0.6936579059037902,-0.13040576924971867,0.2126731558985776,0.541349242450443,-0.11533645821412913,0.3002014609553223,0.5147287378932454,0.2810480599498498,0.932463166152616,-0.22814729813889506,-0.9611345084116913,0.19067221334580559,-0.7681926901960423,-0.7918440094338426,0.1778995969196888,0.7411911634036714,0.358550670099884,-0.046354279750975586,-0.20696796945529608,0.7641148957306716,-0.32723936594070496,0.08602101514268543,-0.8972793193036155,-1.011122119985512,-0.8192939557917707,0.5437370177256626,0.19302230351070493,0.6812535666260869,0.21685132047467845,-0.4929892973088935,0.9203085517666414,0.21263695596662482,-0.8914668521276885,-0.4831495048285507,0.36020925095307355,0.021800142887292498,-0.907468957986635,0.43956470173153994,-0.4145431185976155,-0.28100551925824235,0.07828874760867585,-0.8575893615756203,-0.4434461726016802,-1.007793618143924,0.6323324092115382,-0.7127604829528257,-0.6291922041583742,-0.4746878356531419,0.03343949961484819,0.1996395340346306,0.09462792853501663,-0.478710148830454,0.8244997193970994,-0.25782880007148956,-0.0009097870352528778,-0.933811397763767,-0.2138673759006996,0.08149714824256474,0.6664434101140736,-0.8954514011296908,-0.3171632134470505,-0.2245128654952225,-0.8876601289957289,-0.12317036499704356,-0.6084585128455214,-0.14654494670073523,0.6700573264285407,-0.7585972921776303,-0.1530106859680927,-0.9158236298280873,0.013465640220212608,0.4922354553553956,-0.2589428904532447,0.9434049182827922,0.6938871706108348,-0.3895004538418489,-0.9768125665605409,0.7496844582013427,0.9195037157984179,-0.8021872298892874,-0.23076333900815552,0.22158193955437655,-0.5826314856251208,-0.5502794974741498,-0.8961815289504869,0.23119741592278467,0.44446165819468575,0.8200271827225156,0.780046227267179,-0.591884891142784,-0.11739063987786533,-0.4116387786384645,-0.7280868797583798,0.9718626912290814,0.12051368958816415,0.8651698119066784,-0.16883667521194512,0.055697285910697544,-0.41606865304197155,0.5392297791531079,0.7163304968545673,-0.6766553541379103,-0.5286071043108619,0.5649189078965068,0.26081109385433243,-0.17006729040898846,0.7578058532637114,0.18641005401527697,0.36055875887121297,0.2786093242755448,0.6659698086863028,0.9190652028884181,0.16653055214645032,0.17961668954340787,-0.43182376104392867,0.8417234488536223,0.9659447301295396,-0.0007192094913174748,0.5625033981868609,-0.11147456778394223,-0.9886483673224131,0.87283626655663,-0.16559708060162961,-0.09392406703086834,0.7013190073199432,-0.1929724213049036,-0.30478673870811906,0.7801996638956895,0.861599632425601,0.5313600981895423,-0.547400013133802,-0.7293491565607608,0.36647721396229804,-0.07182360392522803,0.4073489877270488,0.7391622091579557,0.09410701135401126,0.8498106368026183,-0.04786328314681487,0.2947620710642628,0.3016232024913057,0.5521079631807863,0.03485542602359545,0.6778943374821699,-0.650408733970006,0.6359582232236184,0.3738346611302997,0.5741130976374074,0.40564227502535727,0.0890366638312018,0.419082518925548,-0.843174883790494,0.20648667726979922,-0.7331865646470135,0.09183538910784331,-0.6626490198162863,0.22219716257092773,0.4341777155265987,-0.3737916630508292,0.15938863118877478,0.13936482399426953,0.23912160610835026,-0.9948868594460502,0.7929080993797473,0.028413961689958626,0.8843001564428339,0.7714435671930827,-0.3516533313728524,-0.1377682893640723,-0.5860934781483015,0.11043349370876858,-0.11815138548413721,-0.448692551730635,0.5837735043633092,-0.7563027365307298,0.7692050600086694,0.5588511397066437,-0.8625916985632648,-0.6935346794968714,-0.7834119075648042,0.8225804731026284,-0.6382151012416979,-0.7861249754087671,0.37995684715448486,-0.012803661792978429,-0.9759004463466447,0.13732226499993277,-0.46420048790120966,0.5652814067752328,-0.9864208435398568,-0.36238269952614266,-0.43703212180571777,-0.4911145724919416,-0.5128188233678459,-0.7378874427293126,0.7143211597738469,0.09968118146115748,-0.17836374028891638,-0.4676182831182475,0.09559462184763375,0.21742732442978926,0.30793584810927305,-0.08148760856587799,-0.8982586522446188,0.2793307829949749,-0.7580086264985114,0.8218203676679451,-0.6726174798474462,0.5111282799357674,-0.7557050127028874,0.7011182177268149,-0.1886000124261706,-0.7089961667253969,-0.5327211364010614,0.009629775616835074,0.23845298238486504,0.7389791525481614,-0.018377552650390254,0.12407990044073747,0.966440420735691,0.9201602750386774,0.33528434535372953,0.8451638135050121,0.5746057634760773,-0.44539384036074803,-0.07525320952744488,-0.8631245069963283,-0.23069234100327635,0.7903236368956806,-0.2789434921641832,-0.7276392773217492,-0.49474360776128157,-0.8124361052825626,-0.45262086300251064,-0.8974064055597988,-0.19996829955213055,0.6669248387382123,0.39630088035525035,0.9215184074855114,-0.79876151416938,0.2166675414175677,-0.8035776722042768,-0.2207253843237619,-0.2822099699801691,-0.26595114923539703,0.8435325567360167,0.20952406602413676,-0.7957761737184792,-0.5125671611674606,-0.6118935917534469,0.47931204700287217,0.4907438862413455,0.9131782888968528,-0.2826920001413656,-0.4025441518552717,-0.8772971329276451,0.29626362245843135,-0.11398197056273832,-0.4019010111769948,0.39930731986150747,0.5838138762000031,-0.5751612315525847,-0.6664582927718182,-0.1658920090731811,-0.4931600004492205,-0.41311510530754414,-0.3823917453292696,0.277527678016461,0.07240742300193662,0.40746333279737595,0.1731324302772768,-0.9836204985364494,-0.9808329118946701,0.9511748606225556,-0.4346781514476402,0.025291713827438046,-0.7265546911437761,-0.02716820532000387,0.68938370126384,0.5650749979323898,0.8232473371839267,0.4048187658369762,-0.03398602225128854,0.5993131186994525,-0.9302091924022082,-1.0168841703438611,-0.46371151795649346,-0.3815893742000559,0.8633768877411278,0.6862115903494128,-0.4064428047863823,-0.6584436171922287,-0.519967236281462,0.5670328710094903,-0.658842751030958,-0.687972320406177,0.2734433586704587,0.29323657559986716,0.19452792701029561,0.7094476276604341,-0.31196975789750353,-0.5672318639711086,0.25104906976232,-0.02102150333853888,0.7424747609637027,0.41176239700821243,-0.3978297241193344,-0.8996413101949983,-0.5936123847224007,-0.2806702666547612,0.9506570375124515,0.6612877481683727,-0.5058527958203936,0.027247667855867165,-0.7812181097122002,-0.30506611665451094,0.8390179053640374,-0.8619110313653241,-0.5342053865031697,0.26011352021323414,-0.5867969978219973,-0.9721332695663897,-0.19597670951583673,-0.2291473976640276,-0.005932681101855147,-0.571508125649287,-0.4422462410158059,-0.42962520120421116,0.8874367220078947,-0.33491019143450257,0.6928005897757543,-0.880104666623003,-0.8993584795539858,0.6422094774065988,0.4607059009657026,0.029209273337506975,-0.3155981456308102,0.7733089749649861,0.5467272470422238,-0.28754155749648364,-0.7020448564519199,-0.7835347828240058,-0.8202885734918159,-0.2731159025177279,-0.4841408623818294,-0.9167000272668101,-0.6537220028494858,0.07070895364782094,-0.9739832388630832,0.6287050017919598,0.5234274378692371,-0.6295908333996544,-0.3711445434020031,-0.3332467510933202,-0.7630824823640283,-0.10821953873092953,-0.19892547622123768,0.04016714804576391,-0.8241241181226355,0.5434967324773164,-0.03754678676307213,0.7131907018544964,0.7964351011262322,0.5428160163346066,-0.5057715478848465,-0.9397812638991776,-0.27640496640404144,0.35150107874376413,0.2409886533123912,-0.08172034370546957,-0.6842123980075605,0.302028919205235,-0.929527143870326,-0.29120656979097587,0.8397806304301886,0.099360409001128,-0.7773428813494118,-0.60275190428396,-0.17893281578766246,-0.3499793607897675,0.4574249222129737,-0.25272860291413857,-0.6099020171525793,-0.3405164234139234,0.6369570057646019,-0.7583415570572966,-0.8232420175886127,-0.011126064589113999,0.8038769269814846,0.16696393553482072,-0.3524025332364943,0.22881802935790063,-0.7530840949531172,-0.28299186131700876,0.5072658564428005,0.4216971201148756,0.5785831921664734,0.003567553544319974,0.2728605734221329,0.7905410081445138,-0.44489678144629713,0.29996527307088094,0.6643763389573666,-0.06446198799675044,-0.6333499920865722,0.7773731224303202,-0.16128413948258147,-0.7639704782918746,-0.9021022434765255,-0.42555110083573794,-0.4711858639076094,-0.8711339168360086,0.24735261743910172,-0.5612121749043028,0.41909799496049116,0.12036862478303224,-0.340084015584857,0.6807732415255462,0.7789170217838062,0.8625298780504007,-0.6402552278573831,-0.6459873409618955,0.48041447342289584,-0.9219102458029916,-0.4217352840635042,-0.6576702714523291,-0.8115177095467319,-0.6381859980925417,-0.48580004881918065,-0.3643868289327443,0.36960080146197977,-0.982226712175166,-0.4296778396038351,0.9187477194508998,-0.7169249257633804,0.8484179973364038,0.5328528621731422,-0.43785773031162245,-0.5860154891699466,-0.07569415437340676,0.8306343779668023,0.31798689151518394,-0.23014964858662096,-0.9682028282698233,0.6143144847799885,-0.561850388704738,-0.9835465330919912,-0.001393205232855982,-0.08860239716573431,-0.6014740727718937,0.5603942970960547,-0.5224094279213517,0.8611355505297263,-0.18462341453806408,-0.2054003468894393,-0.0069907729118057465,0.5213825775519452,0.000016360150797652854,-0.1064364845922464,-0.06443119551747852,0.399073140808906,-0.6800844271546838,-0.5403321865391121,0.23485724344309183,-0.1686209375982632,0.5031287841076245,-0.5263460423350728,-0.5643404845733472,0.7166909870594916,0.4274260039802949,0.24618869077415612,-0.46190910542447183,0.6482704594448871,0.3226256370170715,-0.5414164769256096,0.8504850591608221,-0.958822224521856,-0.8497378826859268,-0.025516582395803743,0.9750650981848787,0.07749890260969168,-0.6048084849977481,-0.9929958572164844,-0.045773456064423325,-0.24105055072682657,-0.8145014828736967,-0.7310601643307384,-0.3248190769724604,-0.5267133375195774,0.8649470524946106,0.2965833532732354,0.44124052090139376,0.09622001499243019,-0.33648471686603876,-0.41682758455119395,0.111792758847749,0.6477223320427473,0.722804892688037,0.5779174876571009,-0.0775385105802323,0.2873387162116266,-0.32578587279013466,-0.4697504479629849,0.9643690841989926,-0.06368991702292841,-0.9002202607861797,0.9200837153477928,0.6138868572506095,0.45411737409581965,-0.40405535552916544,0.35891846768728136,0.7256543215291097,-0.9802203537229602,0.607919130018514,-0.4753972104297736,-0.7239593871056962,0.25807754153089557,-0.47901197820961167,0.20268338438585728,0.7647661315795852,0.6692225400689682,-0.6397325792086864,0.44144736439453297,-0.6283589804495249,-0.34527736455373126,-0.47675641314513634,-0.2170688539324969,0.7017314806010804,-0.8463075647382243,-0.5840912967869087,0.2848857929148672,-0.5288565444608317,-0.8029542773816732,-0.5587146582825275,-0.899925871333516,0.3089031874243298,-0.5113292882995164,0.8920974315098582,-0.30715178053587266,-0.7751766087760498,0.40017812946542325,-0.5440264388799043,0.021381483834694567,-0.8878650128335197,0.057393487140733584,-0.484943208398805,-0.25647226394508904,0.5689263040502038,-0.2882761492712603,-0.7906401630784502,0.7038714007869739,-0.39389088292021135,0.44906559757816783,0.26075826202659513,-0.2899527653429357,-0.5266548057357865,0.3433803483850205,0.8531289349975885,0.578688069936062,0.5239829857741848,-0.726580915469847,-0.6785121938483011,-0.09181809621494016,0.9013317784244053,-0.032075189739784564,-0.28136224059568626,0.8861467797030744,0.7801689740805912,0.02584100261821622,0.35139753829935005,-0.641000295474659,-0.22648490401159516,-0.5911164768624866,-0.0037187068576984748,-0.5547224969740603,0.13982525607248322,0.10762641877237271,0.32652725533060223,0.3242712559237351,-0.528498824839621,0.9898113070332263,-0.6282113128620507,-0.9376560968586821,0.8235070740196921,0.8465310236926281,-0.8846864441211305,-0.2852374897691139,-0.3120095903601798,0.12692255412675144,0.1970533234794059,-0.17900108244834714,-0.5056843882459557,-0.6446692877447768,-0.5355054456732623,0.988149744463029,0.8317685651938423,0.3672236941021005,-0.3151054347620895,0.33880721624085003,0.5542711811350862,-0.1794985978061026,-0.4611060983640638,-0.0952817496141535,0.1890530195500308,-0.8097837529007496,0.05297421706797077,-0.9643647352036687,0.5217180908599787,-0.7126359466926466,-0.6983698409345148,-0.15631913358061805,0.13059374187072084,0.04175812144623312,0.013821295250592239,-0.002445630377010951,-0.7705976847443157,0.13760885432219008,-0.20262089977325137,0.05871094441144943,0.560320911717113,-0.532466525141636,0.10435680009132227,-0.4105640970190416,-0.7539530586922782,-0.5723217594219098,0.9319764593638489,0.7688449246876748,-0.6770126476725229,-0.06705136330022561,-0.9564230977325697,-0.5299040634030672,-0.2651060787133386,0.40143149792164506,-0.6961919926898036,0.3266388450211546,0.6493871397772593,-0.055608810083185106,-0.022003929672943675,-0.0500567109637222,-0.570716187377035,-0.9972615556553011,-0.20959244079019898,-0.0870504958988645,-0.05194802620825788,0.90532358030628,-0.8678242363098937,0.4045030392872034,0.13999475287663024,-0.6314922069567965,-0.768450196078014,-0.34842576986935864,0.7742587836155491,0.8695178173583326,0.5126907526427477,0.4946266963770126,0.5487037049171792,-0.6949445247719692,0.08446343559053146,0.8439053189913717,-0.46966411457714163,0.038854072807887344,0.0307314945356196,0.40437392264235483,0.3193584774843534,-0.26272880341692467,0.1752437548969474,0.45953768207250606,0.42013018218698683,-0.6671733356668591,0.7901359210850387,0.4031755463736308,0.40843227399810855,-0.0493466958925997,0.6315977689257495,0.16030933068262218,-0.10469852311210419,0.05424064586359662,-0.011757510886458034,-0.3079993223497882,0.00707508184968846,0.43009734256246746,-0.41989511144770136,-0.35676121450812937,-0.9839275375835798,0.8109876920191244,0.6266901503505447,0.63368083638849,0.9733143467254968,0.21578949524646715,0.6898042213649673,-0.005521392075617314,-0.4365135321166998,-0.3467561851959951,0.4876140467920184,0.4938345842917546,-0.3700627205894836,0.998336546797055,-0.12357373134142868,-0.6327809073794781,-0.1465574111205513,0.06156091266045628,0.6729657850806885,0.33510758019863646,0.680332759763449,0.1120289653813657,0.021545802930034295,0.9013997256288642,0.1884473663531929,1.0075865955099315,0.41743162115891813,0.32720729837684676,-0.8269440847163194,0.3855679446585753,0.8075292528059359,0.3534009334454424,-0.2156956004777865,-0.23973769857870558,1.038853774209782,0.17541929971271988,-0.3947563268292422,0.6600792888230944,0.7766654240157183,-0.16201410901006594,0.2776995255266824,0.03991758641887205,0.3890155102833444,-0.4676697997554047,-0.24360306697539436,0.8031495386246834,-0.5055627189205982,0.8670482667734479,-0.8714626456780042,-0.2665869942495172,-0.8585705107389244,-0.9014755221668334,-0.4052367006038798,0.04723307692296788,0.9580425147696232,0.7729854885402792,0.6286841078308014,0.6670096393342728,0.6677822497868657,-0.6046432240840134,0.5864386359656146,-0.6835266956802721,0.1916927951697148,0.2711185723902594,-0.2657233785304678,-0.8805023810704897,0.9530435609276601,-0.7095107898329,0.02957349445258866,-0.697543279169785,-0.2877391249976943,-0.3740438899101723,0.664762076852471,-0.4658927570713819,0.7899551123334609,-0.5141965800192227,0.09973300508717547,0.10591067869851371,-0.2402665723045425,-0.48546880194829406,-0.06854071555222382,0.9249795295005723,-0.49638598018002034,-0.776443207307846,-0.8776174343622885,0.8658667637201813,-0.8285135388942404,0.5169747452298755,-0.8043910638501304,1.0614882247301956,-0.24091046982379763,0.33490359088421684,-0.20600632870206245,-0.3844394563066332,0.7353864774688564,-0.4254816196645683,-0.20207804842503332,-0.4479348909821273,0.10043305693664135,-0.3565455464432517,0.4005853708010373,0.28268834037427715,-0.4986274769087004,-0.4342067521226636,1.1028041120963137,-0.3084687761894598,0.8517290192428941,-0.47691271547100655,-0.6209545950491319,0.44044139236393,-0.6584352362853456,-0.7517096940660469,-0.263259983050169,-0.8865524939537845,0.7913607823097775,0.7416330858321438,-0.46378465960678605,-0.7401634953927543,-0.086092195065166,-0.8182931128509611,0.9230329000901908,-0.8660814126477263,-0.5535018308338294,-0.8003648388342149,-0.9325197438152142,-0.17409206719172612,-0.28886120112178715,-0.3579491005465213,0.25750603762410634,0.5875195414580288,0.9097231984187492,0.8054669815760828,0.03059100904213425,0.3300235309468449,-0.17689868899853295,0.6025131720838743,0.08972564580040503,-0.5537633909803447,-0.5373112751242689,0.8935859438312209,-0.7456169849218532,0.49068638825957517,-0.20649743950341728,0.2632848486439043,0.566080130778587,